112 100
http://data.doremus.org/vocabulary/function/composer 0.079356015 0.082428314 -0.1673831 0.04211339 0.22193961 0.095256336 -0.060725715 -0.060953997 0.18175252 -0.035222664 -0.07882312 0.033898354 0.029344602 -0.052410383 0.1274195 -0.04679911 -0.25018 -0.07505554 -0.06143995 0.12305153 0.14581177 0.1531161 0.068485685 0.0847924 0.08648196 0.1636423 0.023261704 -0.0111640915 -0.012451687 0.0840366 -0.013683275 -0.04044931 -0.1553948 0.10548707 0.0294299 0.06347851 -0.046746876 0.21234599 0.070473455 -0.11648811 0.043803215 0.046244957 -0.11470632 -0.08534047 0.07473455 -0.094855405 0.20952228 0.056221686 -0.025094703 0.073317274 0.0033550125 -0.06219133 0.017835988 0.07076004 -0.052432362 0.013676401 -0.037060253 0.0060192393 -0.0052435184 -0.06541095 -0.08027451 0.07964311 -0.116202585 0.10305449 0.1357114 -0.056124706 -0.13171694 -0.11455333 0.095062986 0.039755154 0.12948807 -0.061087325 -0.11923822 0.21244581 0.0016706313 0.16545019 0.058440655 0.0076481174 0.01051468 0.06479191 -0.061038077 -0.0501085 -0.03229056 0.15025009 -0.16581425 -0.053514477 -0.1547948 -0.093469 0.029216321 0.043109883 0.013204946 0.06563607 -0.23505194 0.040875446 0.0707396 -0.055925045 0.029799115 0.08142451 0.13820416 -0.13299276
http://data.doremus.org/vocabulary/function/performer 0.028280485 0.080199905 -0.19633138 0.04657155 0.22084795 0.04694695 0.020429768 -0.021333773 0.21449187 -0.09935739 -0.06998217 -0.06427536 0.03781834 -0.059200432 0.09009145 -0.13517378 -0.28333107 -0.0084345285 -0.0072239256 0.1098238 0.12554255 0.17704076 0.08974504 -0.017367726 0.040385235 0.06930058 0.004683214 -0.023159709 -0.067143366 -0.004721806 0.017926164 -0.049710225 -0.18644531 0.060346793 -0.014811819 0.018642057 -0.06322086 0.19856364 0.03955095 -0.14232202 -0.065214895 0.09116626 -0.119455986 -0.05678678 0.033728007 -0.07935948 0.12824224 -0.0028850748 -0.057410523 0.06584035 -0.030319706 -0.042279508 -0.043977905 -0.038343154 -0.063516185 -0.03587488 -0.06091099 -0.0242817 -0.020393454 -0.061269514 -0.10423256 0.057263754 -0.022455186 0.08751425 0.13653742 -0.04990866 -0.04695696 -0.13002825 0.09121875 0.062476315 0.14466771 -0.12300304 -0.036780443 0.22414732 0.08955508 0.16330308 -0.026098106 -0.04225717 0.0035272434 0.031852864 -0.034759663 -0.1304363 0.0024137595 0.2028408 -0.048574217 -0.01615296 -0.14786251 -0.082946256 0.01077676 0.030783588 0.0462328 -0.011545358 -0.30318025 0.049223807 0.040204614 0.032556135 0.085590295 0.07505247 0.09272467 -0.20684245
http://data.doremus.org/vocabulary/function/chief_conductor 0.008476555 0.04314019 -0.093416676 0.13379398 0.27146512 0.08958301 -0.10429334 0.03792777 0.13194868 -0.10798243 -0.028627349 0.0044475794 -0.035607215 -0.028033953 0.04036951 -0.123600595 -0.26268446 -0.010247156 -0.051853087 0.0293981 0.12439604 0.2216799 0.12683558 0.012010103 0.06845577 0.026094988 0.06306142 -0.0586613 0.007391215 0.023414563 0.030829994 -0.054042716 -0.0961621 0.069725804 0.0826135 0.0023497075 -0.083364174 0.1696825 0.08144714 -0.14483868 -0.04298644 0.046538923 -0.12023366 -0.028273635 -0.01462055 -0.068876915 0.17987764 0.050714213 0.034033775 0.05563653 -0.09905855 0.0054005967 -0.082869284 0.038921203 0.03408993 -0.040856298 -0.07749937 0.09333483 -0.06047911 -0.12500721 -0.07083697 0.060307696 -0.06526953 0.09792911 0.16817258 0.049589094 -0.12361043 -0.11346247 0.1329925 0.08847709 0.17833483 -0.0057942886 -0.027856642 0.25579166 -0.030714896 0.16021672 0.023169735 -0.032245703 -0.04913484 -0.023066396 0.025298335 -0.16163604 -0.04020811 0.12009077 0.0015616257 0.050213937 -0.1544343 -0.041217424 0.009091378 -0.03940627 0.120258 0.07832186 -0.29640004 0.07831704 0.078735724 0.07749053 0.0873519 0.024122126 0.058199175 -0.08953322
http://data.doremus.org/vocabulary/function/sound_operator -0.05349275 -0.008771887 -0.13109732 -0.0030777592 0.21562561 0.07067658 -0.0074645793 -0.03707408 0.1594806 -0.08836419 -0.091392584 0.015570816 0.0291173 -0.026424887 0.058969334 -0.19447216 -0.28055298 -0.14325663 -0.08770633 0.008578847 0.08270777 0.16525987 0.174599 -0.00096520607 0.10046771 0.15127608 0.018892618 0.0111155445 -0.13402429 -0.013016607 -0.11670689 -0.08248477 -0.15239897 0.1599776 0.015903473 0.04905706 -0.042458102 0.17982283 0.045613665 0.007204909 -0.13419048 0.09166514 -0.18417443 0.031256165 0.07625333 -0.024098204 0.058781527 -0.07606807 0.0021747502 -0.03595337 -0.0186929 -0.09005306 -0.039245363 -0.040121313 0.016469643 0.020338694 -0.10544035 0.088749275 -0.117869005 -0.1363854 -0.055661343 0.12654518 -0.09741575 0.16053566 0.0866895 -0.07205997 -0.1077038 -0.022155114 0.15588655 0.11392575 0.12418041 -0.07114455 0.029779846 0.105191946 -0.07068469 0.22365168 0.08125996 0.09223633 0.028669665 -0.031955067 -0.004096964 0.010158625 0.043077316 0.08143831 -0.030616079 0.04203174 -0.075993836 0.05685794 -0.0001949396 -0.08922448 0.09070181 0.06586128 -0.20233291 0.025984779 0.009893723 0.10670156 0.114530936 0.16892809 0.09874529 -0.05137541
http://data.doremus.org/vocabulary/function/librettist -8.700809e-05 0.12741233 -0.21567018 0.07202301 0.26696506 0.010751601 0.06532932 -0.0063900766 0.1687363 -0.05850403 -0.06648288 0.015346813 -0.013373036 -0.025679296 0.033310875 -0.15184794 -0.2112636 -0.12736903 0.012464279 0.021784993 0.044607654 0.14153947 0.077625155 0.063033886 0.12817554 0.13683751 0.096175484 -0.07238405 -0.045061417 -0.07011652 -0.052074257 -0.08415602 -0.049670573 0.02652845 -0.037642993 -0.04173906 -0.11387318 0.10127545 -0.0024667347 -0.00028134286 0.075016685 0.04630398 -0.21111381 -0.04500573 -0.049245216 0.063953914 0.12598713 0.053261336 -0.008312608 0.0046906564 -0.098073736 -0.041086253 0.043192506 0.0031529428 -0.13015433 0.005511416 -0.11609399 -6.7440575e-05 -0.054645386 -0.05605728 0.027469551 0.096099 -0.165569 0.17121094 0.025347054 0.05069132 -0.07450338 -0.21015917 -0.0063735074 0.12477694 0.18228331 0.028230792 -0.08583409 0.2177637 -0.0629031 0.20089675 0.08739422 -0.051080927 0.12631439 -0.07916222 -0.07910063 -0.1663399 0.013299832 0.11533137 0.0006763588 -0.03134378 -0.067323856 -0.12215376 0.002786459 -0.04836481 -0.0024950018 -0.007346168 -0.11484682 0.088036 0.09586818 0.07011398 0.112475365 0.1162109 0.031956285 -0.20639156
http://data.doremus.org/vocabulary/function/author 0.035948854 0.09412153 -0.21884486 0.08486427 0.25023428 0.078951545 -0.08317803 0.035563495 0.11297234 -0.094109915 0.0023440905 -0.07658921 -0.070351675 -0.054794542 0.113252826 -0.15087609 -0.1923119 -0.073907 -0.08227425 0.074885555 0.007866051 0.19763306 0.09820153 -0.020706309 0.0548635 0.034777883 -0.025173385 0.09170289 -0.055997755 0.07246648 -0.012656283 -0.09705162 -0.17543235 0.12340671 0.12444846 -0.05530498 -0.09588473 0.24793737 0.08725545 -0.067193866 -0.048024494 0.059490036 -0.12821236 -0.022465914 -0.083940536 -0.05113979 0.12707873 -0.03099975 0.052242626 0.019394368 -0.013848752 -0.06736412 -0.039431527 -0.035403173 -0.084931634 -0.07405132 -0.115729086 -0.044087626 -0.08509822 -0.13192819 -0.09508835 0.072021395 -0.16197014 0.13513151 0.17462622 0.07085544 0.032166 -0.0570007 0.07652471 0.12225571 0.11127253 -0.10336985 -0.07665497 0.24079667 0.052095655 0.13117445 -0.026492648 -0.02694472 -0.022923542 0.073440745 -0.016424395 -0.071817055 0.025997689 0.18709926 -0.006725912 -0.036014374 -0.008562924 -0.08341232 0.01694208 -0.054207467 0.079842135 0.008859704 -0.18896718 0.055884596 -0.015860546 -0.06653106 0.05238355 0.1047471 0.12208458 -0.16248551
http://data.doremus.org/vocabulary/function/audio_producer 0.086250946 0.034353994 -0.18346488 0.082034886 0.29704344 0.11892123 -0.04846736 -0.032998428 0.12516983 -0.14067629 -0.009017406 -0.04391715 0.056556735 -0.07578309 0.10463042 -0.17550176 -0.25170532 -0.047024414 -0.010610939 0.047596194 0.027445916 0.17760946 0.11959631 0.12681648 0.04483085 0.0739874 -0.014163052 -0.049878623 0.011383128 0.020262342 -0.01409772 -0.0024663133 -0.2042027 0.07372711 0.031374667 0.034556884 -0.030749947 0.2254259 0.07123815 -0.124619074 0.030188678 0.016583877 -0.101680666 -0.0016129706 0.0072649973 -0.12160874 0.08973216 -0.028212596 0.0014180682 0.05929383 -0.08057689 -0.13533543 0.040544737 0.09027395 -0.15708989 -0.07108209 -0.057797115 0.0287006 0.011828162 -0.067290425 -0.020865025 -0.043263413 -0.013325245 0.1510185 0.10969214 -0.07827578 -0.025740704 -0.10942113 0.11141835 0.09046224 0.15516825 -0.13198783 0.032136586 0.19642732 0.00946958 0.171665 -0.023840006 0.04944188 -0.06639456 -0.03281322 -0.024678307 -0.14227794 -0.0024195316 0.172806 -0.09380923 0.0031933864 -0.11193361 0.061910093 -0.014912408 0.0023646234 0.13932556 0.002359277 -0.23449372 0.026548492 0.11461688 -0.028728561 0.06098756 0.03433219 0.095296174 -0.08287402
http://data.doremus.org/vocabulary/function/publisher 0.08042316 0.060803425 -0.15541862 0.03479052 0.26823878 0.06731201 -0.01651026 -0.04473833 0.16247843 -0.08677652 -0.053394143 -0.069009684 0.0015464257 -0.072927296 0.06626408 -0.11895629 -0.21645713 -0.05686322 -0.00058044447 0.05586014 0.088424385 0.20278473 0.08178552 0.05275508 0.050080087 0.06455621 0.012730764 -0.011130149 -0.065071054 0.09790774 -0.03734824 -0.059088275 -0.1744057 0.10800546 0.04963043 -0.03445807 -0.11792822 0.2417747 0.005240897 -0.10117168 -0.007268763 0.013226425 -0.14441735 -0.052713856 -0.046309367 -0.101635166 0.09021327 -0.040380813 0.0021770885 0.01715589 -0.1260703 0.014347187 -0.050470922 0.032069623 -0.10518055 -0.043999787 -0.052392032 -0.01722857 0.033016514 -0.040079236 -0.11251008 0.059523758 -0.11714447 0.12697886 0.14459364 -0.00899294 -0.047683343 -0.14340845 0.09998557 0.09704954 0.16643052 -0.10464498 -0.06807923 0.23689404 0.03470012 0.16507897 -0.03968702 -0.037533708 0.040349387 0.051888175 0.0395163 -0.14417808 -0.018320702 0.13644631 -0.051890064 0.001603308 -0.11909269 -0.013573166 0.072091736 -0.00040851822 0.086846285 0.024498586 -0.29428923 0.031421654 0.03271019 -0.031028226 0.042422652 0.14506015 0.118352935 -0.16495094
http://data.doremus.org/vocabulary/function/radio_producer 0.072434165 0.038662635 -0.14623246 0.058359973 0.26594114 0.09086455 -0.009490189 -0.026337318 0.19762567 -0.0691382 -0.06022031 -0.09888015 -0.011898166 -0.08455056 0.06741589 -0.11210029 -0.25515983 -0.0622834 -0.0066616777 0.037090752 0.10929812 0.22693908 0.10210493 0.072217725 0.06430318 0.029529529 0.04196053 0.013411551 -0.06201279 0.06889833 -0.02764878 -0.029344656 -0.17052068 0.09870876 0.0358027 -0.02705211 -0.1350069 0.2244899 -0.02277549 -0.13096938 0.011356773 0.020071523 -0.1615128 -0.057434514 -0.05491234 -0.09889817 0.08771269 -0.020528585 -0.013096032 0.02125284 -0.09297566 -0.0060675624 -0.017260779 0.02423109 -0.11809621 -0.017373936 -0.048383426 -0.02773605 0.038248245 -0.046796355 -0.113943234 0.04208143 -0.098328404 0.10950327 0.14885888 -0.018542241 -0.078226075 -0.12640034 0.1295136 0.082785845 0.15223363 -0.10580672 -0.09461921 0.20681904 0.0424946 0.15811601 -0.010987175 -0.032389164 0.029391252 0.076795384 0.015210089 -0.12265722 -0.04501805 0.15225032 -0.06560977 0.027658528 -0.1267789 -0.017529748 0.0552816 -0.032705165 0.07944781 0.017029686 -0.2867977 0.014896719 0.07140479 -0.046038613 0.02817448 0.11301937 0.08911843 -0.14801213
http://data.doremus.org/vocabulary/function/choral_director 0.05600489 0.039411236 -0.1791788 0.079496644 0.28850144 0.081130974 -0.029986357 -0.086263776 0.1877368 -0.10003726 -0.055290967 -0.06341393 -0.0020792754 -0.08290862 0.07530919 -0.14009391 -0.25731745 -0.055336136 -0.039063524 0.044140577 0.08439342 0.21861385 0.1356224 0.041249726 0.09230782 0.10098379 0.047419388 -0.0039121993 -0.027384514 0.06848116 -0.007499166 -0.060842358 -0.15968251 0.099953406 0.06387173 0.01840713 -0.08434974 0.21052474 0.027887065 -0.12373096 -0.04489408 0.015711693 -0.12276895 -0.026263366 -0.008256662 -0.06493234 0.13086605 0.027305208 -0.046899278 0.025574103 -0.079921566 -0.050325114 -0.033370785 0.004400161 -0.06683875 -0.036457576 -0.07133606 0.026411775 -0.024817545 -0.0717449 -0.091040954 0.03465091 -0.12728983 0.12039421 0.14310905 -0.0113487 -0.02841349 -0.16489363 0.11123492 0.07309119 0.17224443 -0.099973395 -0.042534035 0.19944613 0.0639872 0.16914654 0.009947284 -0.0047413413 0.0048652687 0.026285345 0.0035610343 -0.10690881 0.0026663805 0.17346287 -0.03891345 -0.011124387 -0.12014018 -0.03183726 -0.0046487697 -0.0067335074 0.10936542 0.05197241 -0.28095058 0.021430515 0.063403666 -0.010239745 0.041370656 0.09788494 0.08109306 -0.14960639
http://data.doremus.org/vocabulary/function/74 0.049433872 0.045240346 -0.18993916 0.086809844 0.29358426 0.08863033 -0.020314392 -0.086773895 0.17440693 -0.09950936 -0.038505465 -0.07515973 -0.0055293855 -0.07619229 0.06791364 -0.14502382 -0.26285607 -0.064048946 -0.0455464 0.02406675 0.09026615 0.21423703 0.12053636 0.035884295 0.08913287 0.0855504 0.03594484 0.00052354386 -0.03885808 0.061098646 -0.019868659 -0.05479928 -0.154222 0.08145308 0.0521315 -0.0010466509 -0.08124319 0.22158106 0.027147988 -0.1291611 -0.04374034 0.0017705202 -0.13584295 -0.034179606 0.0011616267 -0.059431795 0.1345531 0.04636978 -0.025941294 0.044890687 -0.07177854 -0.043454826 -0.035952214 0.019345704 -0.07090566 -0.05686647 -0.058278292 0.022890322 -0.035555087 -0.09224285 -0.08745147 0.017481096 -0.12399501 0.10275126 0.13402289 -0.00030097264 -0.030916223 -0.16661713 0.10416463 0.06609084 0.15859501 -0.10699799 -0.04153184 0.19876583 0.059708364 0.17070574 0.014641822 -0.003546289 0.008494577 0.019117638 -0.010028161 -0.12670948 -0.00097583886 0.18003525 -0.054785755 -0.02094921 -0.10992345 -0.031072052 0.010147456 -0.008594988 0.112980194 0.054175887 -0.27085093 0.029019302 0.067467414 -0.013562734 0.055607215 0.10866414 0.0978365 -0.15428251
http://data.doremus.org/vocabulary/function/actor 0.049663212 0.04857495 -0.18176574 0.073874205 0.30091256 0.09725286 -0.01927701 -0.08541863 0.18737826 -0.088570826 -0.042073008 -0.07543877 0.011462019 -0.07477782 0.069932126 -0.14452802 -0.26291004 -0.065647475 -0.048036333 0.019909559 0.079282 0.20811437 0.12989116 0.03838108 0.08610798 0.081992194 0.03943803 -0.005848795 -0.03021455 0.055983324 -0.014020367 -0.058124878 -0.15813638 0.09264822 0.060740393 0.007328802 -0.09043812 0.20821781 0.031284634 -0.12898685 -0.04342755 0.016192593 -0.12576044 -0.028802685 -0.004583078 -0.05823082 0.13630556 0.032403767 -0.032991335 0.045025364 -0.07456586 -0.042047866 -0.030775983 0.013306837 -0.07607721 -0.059357587 -0.06368588 0.03457423 -0.023380868 -0.08516881 -0.10178552 0.017059557 -0.12476897 0.102703564 0.1358898 0.00024963918 -0.034131832 -0.16372065 0.11156192 0.06444534 0.15386942 -0.10630339 -0.044263218 0.20469433 0.06474521 0.17022084 0.012618794 -0.015867503 0.019610574 0.013092953 -0.006050648 -0.11735739 0.00022675323 0.1790474 -0.052556124 -0.02359163 -0.09713528 -0.032194424 0.0045718104 0.0021458897 0.11304849 0.041967854 -0.27969185 0.027161276 0.06496832 -0.013588442 0.057918336 0.09648597 0.09559021 -0.15887691
http://data.doremus.org/vocabulary/function/arranger 0.048729822 0.04374214 -0.18566546 0.08017509 0.29860538 0.09467062 -0.019462952 -0.08402659 0.18776624 -0.099963 -0.038066275 -0.07410385 0.004563584 -0.07159576 0.06798384 -0.13910495 -0.25881687 -0.058763787 -0.044466708 0.026242295 0.086133756 0.21736658 0.12310125 0.042924475 0.09750196 0.0740288 0.03607823 -0.0075202677 -0.032917805 0.056621093 -0.014272981 -0.050837934 -0.16052458 0.08687192 0.05617456 0.008152495 -0.08517699 0.21167749 0.034482732 -0.12616469 -0.044590913 0.010467078 -0.1326751 -0.02833903 -0.00033525168 -0.06716141 0.13697433 0.032245215 -0.0334133 0.037175365 -0.079645485 -0.037836384 -0.026525974 0.010654105 -0.07688868 -0.053619977 -0.06287955 0.024469323 -0.027406221 -0.09246705 -0.10197032 0.020472443 -0.12970623 0.11090799 0.130211 -0.002751456 -0.034563273 -0.16394813 0.109727964 0.066255674 0.15295167 -0.0987541 -0.041935485 0.20102657 0.06358893 0.17792302 0.0059958324 -0.009604529 0.020050498 0.019690257 -0.008505037 -0.11986257 -0.0022536141 0.17862341 -0.046387676 -0.017255822 -0.09873541 -0.030713614 0.0026664217 -0.006349585 0.11529066 0.040918935 -0.2729014 0.024268856 0.06697804 -0.0038997796 0.05483526 0.10103295 0.09399517 -0.16133289
http://data.doremus.org/vocabulary/function/sound_engineer 0.054647602 0.043498345 -0.18111084 0.08268161 0.30584237 0.0889958 -0.026414845 -0.08138137 0.18215314 -0.10213498 -0.041315485 -0.08141908 0.0058461865 -0.06789516 0.059218686 -0.14169917 -0.26395425 -0.06336445 -0.037844934 0.02121291 0.08792632 0.21354735 0.12733625 0.03873931 0.087578714 0.08261396 0.040738396 -0.0038728206 -0.03632376 0.060260322 -0.015879385 -0.051848326 -0.15180323 0.084914915 0.057209186 0.0075341603 -0.090668514 0.21761283 0.03069757 -0.13220175 -0.041511167 0.012968885 -0.1307389 -0.032509863 -0.003421869 -0.06460227 0.13134302 0.039355256 -0.035729233 0.046485927 -0.0829443 -0.041782003 -0.025698634 0.009876811 -0.07864281 -0.058974236 -0.06512743 0.029556775 -0.025133565 -0.08980813 -0.100721054 0.014347139 -0.124262184 0.11291572 0.12867698 -0.010285394 -0.036591467 -0.16192032 0.1012337 0.059552226 0.15326953 -0.094161354 -0.04437517 0.19870602 0.06697162 0.17649011 0.0025327299 -0.01785837 0.0136203095 0.018291732 -0.005208819 -0.1233277 -0.0012975612 0.18046668 -0.04288531 -0.013720446 -0.10234083 -0.0307471 0.0104164 -0.003919033 0.12614647 0.040369414 -0.27314925 0.025952172 0.062262177 -0.011751155 0.051476818 0.09801624 0.087868646 -0.15460299
http://data.doremus.org/vocabulary/function/narrator 0.053358547 0.042852603 -0.18774275 0.086935714 0.3023492 0.09360096 -0.021701617 -0.08483961 0.18591772 -0.1020782 -0.04082611 -0.08068636 0.007398618 -0.07354545 0.061338525 -0.14107601 -0.26175356 -0.061005704 -0.037080564 0.028210096 0.08619994 0.21441595 0.12477092 0.04030004 0.089922756 0.07976894 0.038628437 -0.0063644922 -0.032367736 0.06279571 -0.0139091145 -0.056453224 -0.1598157 0.08770169 0.057954066 0.0076914798 -0.08792275 0.2151697 0.034314126 -0.12290034 -0.043712687 0.008070066 -0.13064751 -0.024742702 -0.0033579755 -0.066535115 0.12922788 0.035394214 -0.029897418 0.045748685 -0.078798585 -0.03908752 -0.027947465 0.007833518 -0.080859095 -0.04966694 -0.067121536 0.028800279 -0.032414567 -0.08496076 -0.09414426 0.019438218 -0.124725915 0.11408365 0.12745865 -0.0016068292 -0.03603856 -0.16738263 0.10386003 0.06560133 0.15552957 -0.09637277 -0.044159885 0.19464362 0.065202184 0.17358686 0.003102328 -0.01313981 0.021758653 0.022160007 -0.002117416 -0.115011945 -0.0041985884 0.1763089 -0.050405703 -0.016270014 -0.10134853 -0.026393063 0.004306498 -0.0026291774 0.1169912 0.0408049 -0.27827644 0.023878498 0.063129045 -0.0132945245 0.051153872 0.09660851 0.09479947 -0.16103202
http://data.doremus.org/vocabulary/function/dancer 0.055621687 0.049253825 -0.18282025 0.07796523 0.30048087 0.094831 -0.020742325 -0.08219983 0.18673326 -0.09585126 -0.035760164 -0.077151045 0.0013911146 -0.073072664 0.066835426 -0.14576235 -0.25827003 -0.058993302 -0.037991144 0.020974731 0.08467105 0.2131836 0.1254287 0.037784804 0.08902014 0.075261764 0.0413606 -0.0076888255 -0.0357381 0.061813217 -0.011955551 -0.052627422 -0.16095306 0.08548426 0.059254404 0.0064885654 -0.08372881 0.21182086 0.03173556 -0.1228408 -0.04260295 0.010744685 -0.13632785 -0.033944167 0.00061254925 -0.06681874 0.13706061 0.03535497 -0.03271567 0.04335417 -0.0805257 -0.039766863 -0.029848512 0.010893103 -0.083814755 -0.05768365 -0.060277894 0.0320041 -0.02744302 -0.09158588 -0.095132366 0.016323298 -0.12561938 0.107007466 0.13153842 -0.004032024 -0.035321712 -0.16293275 0.10297089 0.062573306 0.15963043 -0.099430494 -0.03722568 0.19815886 0.0642286 0.17774585 0.007911031 -0.017764827 0.016917527 0.024074145 -0.004693377 -0.11948505 -0.0030646524 0.17340842 -0.048170034 -0.02165607 -0.10587019 -0.035005715 0.0067165787 -0.0058379546 0.12033556 0.040629987 -0.2797805 0.022211298 0.06338885 -0.009676211 0.051478628 0.103447616 0.08622963 -0.15881415
http://data.doremus.org/vocabulary/function/lyricist 0.05518418 0.046985522 -0.18510427 0.08284274 0.3018233 0.09575007 -0.026231201 -0.07614681 0.18225712 -0.09985701 -0.03522411 -0.080892116 0.008882637 -0.06609757 0.06795351 -0.14097793 -0.26192302 -0.058267675 -0.03537967 0.026388159 0.08136593 0.21602532 0.12920572 0.037076272 0.09424293 0.07842658 0.040770367 -0.0070985374 -0.031611178 0.061637077 -0.009372384 -0.058110088 -0.15913868 0.084788196 0.056921143 0.0015889185 -0.08331556 0.21520908 0.03122685 -0.12801716 -0.039301604 0.011855695 -0.13094941 -0.026026366 0.004776624 -0.062158793 0.13597818 0.0421929 -0.037354317 0.04490144 -0.08210564 -0.04150659 -0.035146847 0.0039795735 -0.08120079 -0.055216413 -0.062986135 0.030926885 -0.032263484 -0.089273326 -0.09506671 0.015107743 -0.13221516 0.11030093 0.13423292 -0.0071190484 -0.031340007 -0.163789 0.1019083 0.058551885 0.15517683 -0.09506139 -0.04022551 0.19570488 0.06409859 0.173969 0.0032334395 -0.010916656 0.017308045 0.019199226 -0.0018478316 -0.11857801 -0.0019123907 0.17336461 -0.050464742 -0.020331945 -0.10180545 -0.028021384 0.012586328 -0.012215329 0.11811496 0.040882565 -0.2808094 0.018015712 0.066386506 -0.0040962067 0.04745027 0.10544188 0.088568754 -0.15526105
http://data.doremus.org/vocabulary/function/transcriber 0.05393724 0.045731284 -0.18067093 0.082742624 0.30331567 0.09182565 -0.021040687 -0.08091372 0.18207404 -0.09944946 -0.039300263 -0.08015986 0.006467625 -0.06758997 0.06325896 -0.14113958 -0.2606322 -0.06531901 -0.040780496 0.020556564 0.08220018 0.21671301 0.12981078 0.037699725 0.094092764 0.076002486 0.03672033 -0.004657207 -0.03427334 0.061777975 -0.013263052 -0.054551184 -0.15333492 0.08998821 0.05649622 0.0020265256 -0.08252239 0.214183 0.03245458 -0.1256969 -0.041581612 0.00712616 -0.13293962 -0.028767101 -0.0029103423 -0.06273074 0.13271344 0.04158318 -0.033286836 0.042075884 -0.080431 -0.036400493 -0.031435456 0.008214803 -0.08054848 -0.057555128 -0.06461472 0.030916551 -0.027481107 -0.089275464 -0.09494545 0.016485156 -0.1300916 0.109357074 0.13190621 -0.0044662966 -0.03470958 -0.16472854 0.10422927 0.059566982 0.16092649 -0.101421446 -0.039648477 0.19951715 0.06662528 0.17316878 0.0041818935 -0.013237853 0.01789414 0.020631822 -0.003635945 -0.118766546 6.1099025e-05 0.17356688 -0.04445398 -0.022484867 -0.10250858 -0.030302322 0.006524885 -0.0074400897 0.12322549 0.041559022 -0.27750203 0.020398404 0.06358648 -0.006872317 0.052504934 0.102533385 0.08850381 -0.16058438
http://data.doremus.org/vocabulary/function/musician_(performer) 0.050356477 0.04671701 -0.18543181 0.08416071 0.30364823 0.09458554 -0.022616904 -0.07932046 0.18316117 -0.09928289 -0.03596328 -0.08175331 0.0038334625 -0.06714677 0.06162451 -0.14258267 -0.25845215 -0.061456632 -0.038308732 0.023297206 0.08404273 0.21505989 0.12902746 0.0352894 0.09020126 0.07781541 0.038138967 -0.004818998 -0.034254573 0.060256485 -0.0130888475 -0.055357106 -0.15492615 0.085627936 0.05511885 0.0061007906 -0.08284902 0.21140346 0.03349589 -0.12592866 -0.041276105 0.008737556 -0.13134412 -0.027956475 -0.0028597852 -0.062876076 0.13088197 0.03909621 -0.03299019 0.040595025 -0.08196667 -0.037185043 -0.030054344 0.0070468304 -0.081136756 -0.0555422 -0.06706315 0.029930955 -0.030562004 -0.08705726 -0.09697143 0.017370112 -0.12914987 0.11049326 0.12936597 -0.004324672 -0.031081012 -0.16840027 0.10684651 0.062050287 0.15932216 -0.100763366 -0.040626362 0.20001848 0.064022824 0.17496495 0.0080804685 -0.014027064 0.018158955 0.018165566 -0.00473737 -0.1211895 -0.00088727963 0.17471291 -0.04802315 -0.01826566 -0.101786084 -0.028845428 0.009173777 -0.008856304 0.12250689 0.045504823 -0.2766721 0.021489568 0.06415052 -0.008373391 0.052350108 0.104511105 0.088332675 -0.16077587
http://data.doremus.org/vocabulary/function/sound_engineering_technician 0.051599637 0.044920422 -0.18383737 0.08331478 0.3047073 0.09475237 -0.02472966 -0.08156245 0.18360795 -0.09837953 -0.037061997 -0.08077196 0.00624044 -0.0690773 0.06438836 -0.14431334 -0.2569772 -0.06380754 -0.037675887 0.020672066 0.08184724 0.21403317 0.1280534 0.0382149 0.09041078 0.07790612 0.04079877 -0.005250788 -0.03283549 0.058625504 -0.012826512 -0.054614045 -0.15712799 0.08690199 0.05495346 0.00647804 -0.08336526 0.2110841 0.034581676 -0.12931974 -0.04282011 0.009397235 -0.1297153 -0.030158306 -0.0010094258 -0.06420452 0.13376781 0.039736915 -0.03233233 0.040753886 -0.08112233 -0.037226893 -0.031431176 0.0074375947 -0.08098241 -0.055170525 -0.06381059 0.029637158 -0.028770622 -0.087815545 -0.09713312 0.019070107 -0.13098177 0.11119851 0.13063397 -0.0034819779 -0.031934522 -0.16751364 0.106726795 0.061958283 0.15967855 -0.09998125 -0.040950928 0.19959225 0.06469202 0.17328627 0.007598924 -0.013456979 0.018808031 0.017365225 -0.0054751914 -0.11900738 0.0015667633 0.17718834 -0.04749565 -0.02191559 -0.10358836 -0.029148392 0.009141781 -0.0059940093 0.1217436 0.04323147 -0.27551886 0.018277025 0.06547257 -0.009968234 0.049253356 0.103708796 0.08666753 -0.15763685
http://data.doremus.org/vocabulary/function/producer_(sound) 0.052601866 0.04866069 -0.18111259 0.08307232 0.30264032 0.09499741 -0.02152118 -0.08087728 0.18519205 -0.09538234 -0.037086762 -0.08125123 0.004323344 -0.07039606 0.06494271 -0.14040954 -0.25987992 -0.061281875 -0.038286928 0.022392549 0.083908975 0.21485385 0.12897404 0.03497817 0.09392098 0.078310415 0.038750395 -0.0028821873 -0.032755185 0.061221708 -0.009942868 -0.055904005 -0.15597801 0.08542068 0.056571703 0.0026122709 -0.083603516 0.21414778 0.031763107 -0.1284799 -0.04381989 0.008199123 -0.13409327 -0.02955738 0.0011608184 -0.06426613 0.13342719 0.03931701 -0.03426576 0.041721582 -0.078805685 -0.03809643 -0.030856326 0.007740144 -0.08104305 -0.0557591 -0.06533479 0.02761338 -0.03071857 -0.08634448 -0.097740404 0.016295915 -0.13023788 0.11115367 0.13227887 -0.0036304644 -0.030856097 -0.16644089 0.105059855 0.062369093 0.15644288 -0.09814553 -0.037976887 0.19908045 0.063697994 0.17184205 0.006971796 -0.015156096 0.017439997 0.018266562 -0.0054431576 -0.118765995 0.0022647425 0.17715268 -0.045949787 -0.0208862 -0.10245261 -0.032667052 0.0073815878 -0.008395896 0.12106261 0.045446724 -0.27485064 0.022559475 0.06726774 -0.0076142987 0.052264605 0.103900015 0.0888643 -0.16051644
http://data.doremus.org/vocabulary/function/orchestrator 0.052372877 0.04874578 -0.18221092 0.08246736 0.30272505 0.09549187 -0.024706218 -0.0802974 0.18226467 -0.09593457 -0.035600413 -0.08117393 0.0029949024 -0.06846369 0.06460187 -0.1439555 -0.25987023 -0.064017504 -0.038828034 0.020888885 0.08314045 0.2137086 0.12739775 0.03491837 0.09430073 0.07765039 0.036536537 -0.005321854 -0.035608754 0.06194648 -0.010307652 -0.0553534 -0.15763697 0.08703738 0.057232674 0.005966844 -0.08654898 0.21369162 0.030750854 -0.12717706 -0.04238117 0.0086055845 -0.1340224 -0.03100305 8.6727356e-05 -0.0639596 0.1332116 0.039305963 -0.031615417 0.039411683 -0.080336355 -0.038478166 -0.032649487 0.008373935 -0.08218025 -0.053604793 -0.06508448 0.029052524 -0.028397193 -0.08707769 -0.09580059 0.017240888 -0.12823729 0.11161384 0.13135362 -0.000117075295 -0.030574894 -0.16580586 0.10551967 0.061524205 0.15895154 -0.09844841 -0.039596073 0.19594298 0.06589202 0.17312387 0.0042529227 -0.016445385 0.016626103 0.01790271 -0.0027393452 -0.11948584 0.0022244188 0.17752533 -0.045340594 -0.021385651 -0.101202495 -0.031338032 0.010110529 -0.009576142 0.12380186 0.04581588 -0.27604127 0.022222728 0.06826782 -0.0096209375 0.053013805 0.10504953 0.089213714 -0.15686111
http://data.doremus.org/vocabulary/function/sponsor 0.051620316 0.04845848 -0.18401958 0.08337241 0.30125415 0.09422529 -0.022376217 -0.07988051 0.18353249 -0.098882094 -0.038800426 -0.08282922 0.0063473512 -0.06935591 0.06227916 -0.14304708 -0.25745812 -0.061974205 -0.039422538 0.021980643 0.0819629 0.21662985 0.1267708 0.037231237 0.092085 0.07723757 0.037533995 -0.0030560067 -0.03336607 0.06253612 -0.010267078 -0.05536506 -0.1556761 0.08849868 0.055635925 0.003331592 -0.0853537 0.21191262 0.03043078 -0.12681367 -0.043566294 0.0073524923 -0.13254943 -0.027921543 -0.0011330819 -0.06677046 0.13191652 0.039313093 -0.031862468 0.040936753 -0.07955023 -0.03721916 -0.033391953 0.008257535 -0.08138999 -0.05532429 -0.06660238 0.027459307 -0.029616639 -0.088874385 -0.09548304 0.01872841 -0.13035622 0.11107593 0.1323129 -0.00051518006 -0.03185444 -0.16677973 0.10456053 0.062103845 0.15911768 -0.10071682 -0.03916621 0.1999929 0.06660891 0.1726335 0.00691826 -0.01403556 0.018003302 0.018953042 -0.005237478 -0.119869284 -0.0015523193 0.1754162 -0.046479754 -0.019920874 -0.10343371 -0.03056786 0.010972078 -0.0095673315 0.11940044 0.042341564 -0.27712715 0.021964127 0.06445055 -0.010708406 0.05146943 0.10298972 0.088834025 -0.15996908
http://data.doremus.org/vocabulary/function/creator_of_musical_reduction 0.05268562 0.046040762 -0.18397021 0.081670396 0.30375177 0.09321136 -0.022842763 -0.08024938 0.18289071 -0.09876596 -0.038245108 -0.08047412 0.0068268455 -0.07001708 0.064605035 -0.14105876 -0.26124993 -0.062219895 -0.0391021 0.022502886 0.08337486 0.21589474 0.1262974 0.03709656 0.09255754 0.07649392 0.038355716 -0.0032648894 -0.034247175 0.059189703 -0.009619545 -0.057721775 -0.15597524 0.08636148 0.05567065 0.0053225975 -0.08435053 0.21305758 0.032944884 -0.12569714 -0.042928446 0.007963196 -0.13375017 -0.029052097 -0.0024462542 -0.06428164 0.13207251 0.04094603 -0.03444138 0.041557554 -0.08133949 -0.038597297 -0.03048123 0.007585917 -0.08086138 -0.053924713 -0.06526775 0.030375762 -0.029464304 -0.08867483 -0.09912797 0.018772956 -0.12845175 0.10806961 0.12919262 -0.0030327798 -0.033345968 -0.16843353 0.1067083 0.06153482 0.1582918 -0.09979127 -0.03807765 0.1961618 0.066688575 0.17332396 0.0071658636 -0.014736773 0.019134143 0.019566318 -0.004744824 -0.11972379 0.0017332423 0.17541045 -0.046438027 -0.020792345 -0.10316171 -0.031531505 0.007788319 -0.006755959 0.12049379 0.045328215 -0.27754018 0.018670522 0.0653218 -0.008663455 0.050984215 0.102328554 0.0883 -0.1584603
http://data.doremus.org/vocabulary/function/mixing 0.05341019 0.047109902 -0.18314081 0.08280182 0.30316398 0.09482554 -0.022641562 -0.07969483 0.18513809 -0.09762493 -0.03750639 -0.08051539 0.0045795618 -0.06976227 0.061146412 -0.14338814 -0.25928932 -0.06449995 -0.039179083 0.020180453 0.0837494 0.21700181 0.12841383 0.036163952 0.09194506 0.07828971 0.037415076 -0.0037588754 -0.03432897 0.060797945 -0.012610611 -0.057604868 -0.15588327 0.08823193 0.05629276 0.0030285167 -0.0842266 0.21437927 0.033415433 -0.1272873 -0.041015305 0.009739121 -0.1317119 -0.027450033 0.00085277366 -0.06606832 0.13096552 0.039193287 -0.034012463 0.039785262 -0.08020779 -0.037311815 -0.030023275 0.0055414974 -0.08130677 -0.056225654 -0.06446878 0.031086128 -0.02960151 -0.08722293 -0.09848114 0.016421683 -0.12894121 0.110081755 0.13201044 -0.0008741397 -0.034145135 -0.16456066 0.10377125 0.060037833 0.15777361 -0.0994003 -0.037403293 0.19610438 0.06438735 0.17547022 0.007087021 -0.013401757 0.015575867 0.018979888 -0.0051930943 -0.1183774 0.0003765766 0.17619683 -0.046358548 -0.021693172 -0.10004279 -0.029557865 0.0089053055 -0.007932064 0.120998815 0.046184473 -0.2779364 0.019923985 0.068156265 -0.010546708 0.051330946 0.104468584 0.086613834 -0.15730698
http://data.doremus.org/vocabulary/function/art_director 0.05364838 0.045518152 -0.18233865 0.083717115 0.30514738 0.09421644 -0.023570897 -0.081269756 0.18233438 -0.098149255 -0.035525728 -0.08273548 0.0059888368 -0.0684033 0.06100579 -0.14356172 -0.26032037 -0.06243867 -0.038389947 0.02221698 0.0806764 0.21416932 0.12940934 0.036602493 0.09053529 0.078899145 0.037030365 -0.0028464107 -0.034973044 0.059163142 -0.011256986 -0.055997834 -0.15622844 0.08674748 0.056940205 0.0031848268 -0.0834765 0.21157902 0.034225497 -0.1275405 -0.043168217 0.006267178 -0.1313282 -0.028049543 -0.0023645784 -0.064528674 0.13291222 0.0389317 -0.031990755 0.040531818 -0.08029412 -0.03866884 -0.033628523 0.0067366175 -0.083123736 -0.055112105 -0.06565475 0.027729267 -0.02903158 -0.09030395 -0.095495895 0.016882505 -0.12866248 0.109566465 0.12931219 -0.00038211772 -0.03116467 -0.16785228 0.10550446 0.060153324 0.1588374 -0.0988914 -0.037468422 0.19776796 0.06595247 0.1752766 0.005157317 -0.015467997 0.016939707 0.019504596 -0.00403321 -0.11922807 0.002425643 0.17566231 -0.046816718 -0.02069862 -0.10220034 -0.030125337 0.00816525 -0.007822526 0.12094326 0.043943148 -0.2777024 0.019709365 0.06479832 -0.008911047 0.05191191 0.10325337 0.08748266 -0.160045
http://data.doremus.org/vocabulary/function/director 0.051571496 0.04683661 -0.18278961 0.08434026 0.30297592 0.09414559 -0.022807652 -0.08186776 0.18272007 -0.096174814 -0.037101407 -0.080966 0.003376533 -0.069541566 0.061423652 -0.14116 -0.25869465 -0.06357354 -0.04093865 0.02343323 0.081395224 0.21570078 0.1261053 0.036354765 0.0940766 0.078429244 0.039515223 -0.0038828647 -0.03332569 0.062123567 -0.0110131735 -0.054996602 -0.15774949 0.08814019 0.0587241 0.005420606 -0.08419377 0.21186744 0.033393342 -0.12547076 -0.040839836 0.0077080117 -0.13143566 -0.02883004 7.837212e-05 -0.06612699 0.13366441 0.039794933 -0.03362763 0.040857665 -0.08227169 -0.03717641 -0.03180734 0.0064945035 -0.08092915 -0.054732807 -0.064751714 0.029867638 -0.028056694 -0.09046699 -0.097414725 0.019561827 -0.1280167 0.11080386 0.13088492 -0.0007832096 -0.03193071 -0.16556118 0.10401079 0.062225483 0.1572223 -0.09951371 -0.037355058 0.19801696 0.06427503 0.17475514 0.0054541104 -0.0134351 0.016756104 0.021101644 -0.00423994 -0.12097623 1.2059221e-05 0.1755728 -0.04623842 -0.019578135 -0.10349594 -0.03114244 0.007889656 -0.0065591084 0.12343809 0.04286933 -0.27688715 0.021731772 0.06457029 -0.0077603706 0.05214154 0.10384297 0.08980584 -0.16036262
http://data.doremus.org/vocabulary/function/translator 0.053037178 0.046112627 -0.182463 0.08195292 0.30494907 0.09543684 -0.024157463 -0.082952335 0.18368363 -0.097935505 -0.03559502 -0.0814382 0.00459906 -0.069420904 0.06193235 -0.14435028 -0.2580664 -0.064047694 -0.037540272 0.021582423 0.082553536 0.21436006 0.1269808 0.03756433 0.090990394 0.07847035 0.038001534 -0.0032773793 -0.034978267 0.059128325 -0.011113581 -0.057732593 -0.15503599 0.08631289 0.058158793 0.0033676908 -0.08352411 0.21354292 0.033188257 -0.12674433 -0.04352825 0.008261254 -0.13262221 -0.029471964 -0.0023234452 -0.0630778 0.13256659 0.03835993 -0.032324977 0.04256034 -0.079733625 -0.038393565 -0.032769546 0.0057102516 -0.0822649 -0.05646317 -0.06390187 0.029379737 -0.029337512 -0.087877855 -0.09624193 0.01621448 -0.12996635 0.11157866 0.1284091 -0.0023360096 -0.033750936 -0.16499197 0.10422173 0.060360786 0.16058448 -0.10090784 -0.03752189 0.19642152 0.06440584 0.17364034 0.005108274 -0.016337737 0.018054452 0.01787972 -0.005657144 -0.118324846 0.0020318355 0.17777377 -0.045346826 -0.019224647 -0.10333412 -0.031236125 0.008473988 -0.0068295416 0.122298665 0.0463665 -0.27733946 0.019201623 0.06516288 -0.009949649 0.052253217 0.10425944 0.08950846 -0.15758409
http://data.doremus.org/vocabulary/function/collector_of_field_material 0.05299982 0.044809747 -0.1829939 0.0827903 0.3029058 0.092547074 -0.021462236 -0.08125122 0.1834384 -0.09967956 -0.037569135 -0.08046402 0.0037180237 -0.067406 0.062487014 -0.14432421 -0.26066458 -0.06480334 -0.038763765 0.022561803 0.080643624 0.21758778 0.12646005 0.037599973 0.09231839 0.080039695 0.038516268 -0.0062155616 -0.03327369 0.060848452 -0.013042841 -0.05527818 -0.15535548 0.08778142 0.05706017 0.0058590067 -0.08672693 0.21408588 0.033325735 -0.12769422 -0.042404108 0.00959946 -0.13291994 -0.027851587 -0.0007564925 -0.06654089 0.13317579 0.04058879 -0.03425131 0.03966961 -0.079700366 -0.03799133 -0.031292215 0.008439022 -0.08257657 -0.054647986 -0.06419388 0.029531805 -0.030682946 -0.088358775 -0.096398234 0.016206479 -0.12957048 0.10855254 0.13109371 -0.00407969 -0.03342218 -0.16479549 0.10685612 0.061152976 0.15736768 -0.09934912 -0.03752438 0.19661042 0.06655738 0.17468722 0.0046197926 -0.013728717 0.016118487 0.020806748 -0.0036368037 -0.1181099 0.00089330965 0.17516576 -0.044336356 -0.01862383 -0.10335546 -0.029844977 0.0082268575 -0.008497034 0.12249901 0.0438213 -0.2752854 0.018934945 0.065866545 -0.0075212084 0.051657215 0.10357963 0.08993182 -0.15712245
http://data.doremus.org/vocabulary/function/presenter 0.050509516 0.047812555 -0.18318811 0.08358657 0.3038446 0.0946042 -0.02386821 -0.07950991 0.1825399 -0.09834651 -0.03664498 -0.08077539 0.0032404393 -0.06934925 0.06450457 -0.14193457 -0.25901753 -0.06373471 -0.040726367 0.020774227 0.083675064 0.21453401 0.12787922 0.03688151 0.09380141 0.0768242 0.040434558 -0.0028586127 -0.033946764 0.061635174 -0.012188543 -0.057626266 -0.15650694 0.088015206 0.05512283 0.0055682054 -0.08561579 0.21248928 0.033829067 -0.12885404 -0.043202367 0.008842258 -0.13223982 -0.029448295 -0.00234468 -0.06300508 0.13236953 0.04007635 -0.032145925 0.04208331 -0.07999366 -0.038905676 -0.03280971 0.0055829794 -0.07987972 -0.054562923 -0.06662506 0.030474197 -0.030572616 -0.08990211 -0.09650211 0.018626394 -0.12988614 0.10793021 0.12947597 -0.00073319284 -0.033517182 -0.16573873 0.10445428 0.062193703 0.16003461 -0.099868655 -0.039722193 0.1974491 0.06640786 0.17185794 0.0050500655 -0.013626843 0.01812589 0.021356424 -0.0035541896 -0.120723225 0.000545965 0.1770298 -0.044774618 -0.019028032 -0.101538464 -0.029308828 0.007218548 -0.007993686 0.121009745 0.044630468 -0.27749264 0.019062072 0.06445693 -0.009513108 0.05011734 0.10445896 0.08692951 -0.1581246
http://data.doremus.org/vocabulary/function/video_producer 0.05161466 0.045117166 -0.18279316 0.08241909 0.30489793 0.09289891 -0.021785052 -0.08159518 0.1841596 -0.099302396 -0.03784762 -0.08202158 0.0033975013 -0.069196664 0.06459087 -0.14332059 -0.25757745 -0.062300626 -0.040578734 0.020956209 0.081563644 0.21371177 0.12815306 0.035970815 0.093002334 0.07667264 0.037806604 -0.004988881 -0.03277844 0.061443422 -0.009711594 -0.058024928 -0.15536416 0.08604634 0.05644313 0.0025132254 -0.08368524 0.21217582 0.034525197 -0.12654288 -0.040931027 0.009211074 -0.1325969 -0.027806118 -0.00023259525 -0.06340747 0.13368085 0.039914776 -0.034887925 0.040980596 -0.080023676 -0.037713706 -0.031103162 0.0060557476 -0.08048874 -0.05551809 -0.064215496 0.031211572 -0.030529102 -0.0875188 -0.09671838 0.017580004 -0.1311154 0.10859413 0.13128033 -0.0026295779 -0.031279474 -0.16663758 0.105699874 0.06040422 0.15830049 -0.10037583 -0.037486218 0.19611645 0.064564586 0.17259312 0.007031456 -0.014619649 0.016018365 0.020383934 -0.0031180037 -0.12015351 0.0005922281 0.17805792 -0.04592438 -0.021373294 -0.103058375 -0.032420073 0.0086782565 -0.008675484 0.12336201 0.04635884 -0.27851856 0.019189714 0.06700443 -0.0072052 0.05112536 0.10424744 0.08715782 -0.1578495
http://data.doremus.org/vocabulary/function/creative_work 0.051755812 0.047900435 -0.18184401 0.08286742 0.30309665 0.0925673 -0.022541605 -0.08261271 0.18293019 -0.09647951 -0.038267303 -0.08297837 0.0063481405 -0.07019733 0.061325032 -0.14397557 -0.25957146 -0.06325249 -0.04096258 0.02104701 0.08173237 0.2156737 0.12864049 0.036777593 0.091316655 0.077797785 0.037032377 -0.0038717657 -0.034025185 0.059676833 -0.011498712 -0.056258783 -0.15622224 0.08894233 0.05819806 0.0057051103 -0.08692747 0.21428202 0.03352779 -0.1260941 -0.042470336 0.008604646 -0.13046773 -0.030557107 -1.3542702e-05 -0.06497987 0.13105312 0.04142304 -0.032634713 0.039176963 -0.08163053 -0.03923129 -0.032263637 0.005358162 -0.080728136 -0.05714376 -0.06571648 0.030550243 -0.030443765 -0.088417366 -0.09695257 0.019397011 -0.12821876 0.1090104 0.13017535 -0.0016316943 -0.032572847 -0.16671513 0.10452589 0.06265536 0.15939683 -0.100145765 -0.040872097 0.19703744 0.06389157 0.17381722 0.0047431774 -0.014271258 0.016084459 0.020581227 -0.0056550354 -0.11799754 0.001677328 0.17469051 -0.046279456 -0.021432843 -0.10041841 -0.030541519 0.009629994 -0.0091705555 0.12340719 0.044716254 -0.27712396 0.021485332 0.06561619 -0.010227082 0.051823787 0.10352049 0.08895191 -0.15860078
http://data.doremus.org/vocabulary/function/creator_of_musical_revision 0.052699935 0.045800135 -0.18285963 0.082542226 0.3021352 0.09363671 -0.024254018 -0.07936473 0.18253227 -0.09713553 -0.03590912 -0.08197476 0.004544657 -0.069917776 0.061255477 -0.14374837 -0.25882274 -0.06383311 -0.038230233 0.020776158 0.0805146 0.21400782 0.12905827 0.037313737 0.091399565 0.07944705 0.03909334 -0.0034748379 -0.032731276 0.061505858 -0.009977668 -0.055846762 -0.15688118 0.088571265 0.05543324 0.005690316 -0.08706052 0.21344258 0.033566218 -0.12679031 -0.04388219 0.010176019 -0.13242504 -0.028248826 -0.0017596994 -0.06315437 0.13301055 0.04116253 -0.034489818 0.040106773 -0.07881909 -0.037188686 -0.032755427 0.00728516 -0.0820348 -0.055064455 -0.06568364 0.029560609 -0.027961379 -0.089073256 -0.09756589 0.018456848 -0.13026744 0.11035643 0.13205448 -0.0017381366 -0.030830858 -0.1660271 0.10605697 0.060793806 0.15991502 -0.10163809 -0.03888261 0.19613944 0.064618304 0.17293216 0.005008545 -0.015831802 0.018887762 0.020280898 -0.003947703 -0.12081926 0.002875302 0.17675257 -0.04720531 -0.018301936 -0.10136472 -0.030684602 0.00707343 -0.006823686 0.12370786 0.046092633 -0.2752873 0.02005921 0.06540815 -0.007212535 0.0519395 0.10419568 0.089116484 -0.15922746
http://data.doremus.org/vocabulary/function/author_of_argument 0.05112398 0.04742614 -0.18275844 0.08337733 0.3023396 0.09370375 -0.021663856 -0.08165427 0.1844511 -0.09721393 -0.036324635 -0.080413006 0.004391559 -0.067389674 0.06159498 -0.14086713 -0.26094827 -0.061770756 -0.038932517 0.023100585 0.08076077 0.21403354 0.12611817 0.03761025 0.093881786 0.07889337 0.037589874 -0.004587701 -0.033410493 0.060104106 -0.0102188345 -0.055792633 -0.15731056 0.086439356 0.05591618 0.003146488 -0.08588669 0.21368735 0.03222379 -0.12834682 -0.04410309 0.010124103 -0.13157152 -0.029683148 0.0003910237 -0.06522528 0.1325931 0.04136451 -0.03354018 0.04246824 -0.07907513 -0.039182197 -0.02973576 0.007253552 -0.0809491 -0.057404682 -0.06330292 0.029984994 -0.027582543 -0.088787206 -0.097063325 0.018217057 -0.13148603 0.1082999 0.13027076 -0.002654369 -0.033055533 -0.16831383 0.10601435 0.060760885 0.15949558 -0.10033223 -0.037891068 0.19941553 0.066901855 0.1721754 0.0061199944 -0.015192684 0.016141249 0.021395579 -0.004687497 -0.119603075 0.0003000359 0.17756021 -0.045809172 -0.021408267 -0.10047926 -0.031812035 0.009412608 -0.0068617454 0.12006656 0.046162248 -0.27674028 0.021018706 0.06734026 -0.009095739 0.05162122 0.10153509 0.08836109 -0.15711358
http://data.doremus.org/vocabulary/function/adapter 0.052412257 0.048211545 -0.18361959 0.08276706 0.30255234 0.09505125 -0.024557216 -0.08254305 0.18339397 -0.09893983 -0.03703035 -0.08255595 0.006550271 -0.06830893 0.061282434 -0.14185469 -0.25797835 -0.064763784 -0.04053903 0.022628376 0.08280239 0.21448156 0.12917978 0.036752142 0.09180049 0.076520115 0.037978675 -0.0049311304 -0.034918 0.059396148 -0.011146277 -0.05724075 -0.15575808 0.086515605 0.057245802 0.0032561782 -0.08704613 0.21271242 0.033460706 -0.12582591 -0.04181105 0.009298998 -0.1314498 -0.029455492 0.0006599169 -0.06433825 0.13371669 0.03814343 -0.032884598 0.04063307 -0.08007899 -0.037441183 -0.030445963 0.008335553 -0.08068478 -0.05441267 -0.06346651 0.030392217 -0.02890048 -0.08885251 -0.09682344 0.017099287 -0.13095623 0.11153026 0.13004205 -0.001099705 -0.033095554 -0.16813983 0.10491019 0.062067803 0.16042575 -0.09869561 -0.037622783 0.19832072 0.066006996 0.17223863 0.007824978 -0.015348266 0.016085956 0.020416949 -0.0034399198 -0.11947753 0.0020645245 0.17741995 -0.04770004 -0.018329235 -0.1017891 -0.030909492 0.0070552663 -0.007972974 0.12229986 0.04617278 -0.27556878 0.02051654 0.0660772 -0.010730108 0.052191906 0.10359659 0.08699083 -0.15856934
http://data.doremus.org/vocabulary/function/performance 0.052674647 0.04855917 -0.18241988 0.08192416 0.30311793 0.09392304 -0.02428399 -0.07987086 0.18110771 -0.098637626 -0.03728552 -0.08267091 0.0067789014 -0.0689282 0.063450634 -0.14274772 -0.26043817 -0.061493613 -0.03774293 0.022509946 0.08155769 0.21319653 0.124924526 0.037816435 0.094352454 0.07572006 0.03906626 -0.005836855 -0.0316279 0.060919635 -0.013635652 -0.054856744 -0.15618587 0.08827165 0.056844402 0.0034511376 -0.08698636 0.2121833 0.03180609 -0.12913531 -0.04094057 0.0073465006 -0.13067009 -0.026976978 0.0006841208 -0.06626854 0.13320087 0.041489024 -0.033333097 0.04123061 -0.08120605 -0.036845293 -0.029840311 0.00593438 -0.081096165 -0.054535422 -0.06415585 0.030157438 -0.029161569 -0.09056687 -0.09851689 0.017987434 -0.12987839 0.10947669 0.13080513 -0.0011207499 -0.03317466 -0.16769612 0.10373098 0.061559428 0.16042155 -0.101191275 -0.037988868 0.19704714 0.06435461 0.17296661 0.0061866073 -0.013333217 0.016394043 0.021316491 -0.0027799103 -0.11992524 0.0028318567 0.17720328 -0.047197837 -0.018929482 -0.10276279 -0.03175362 0.007212675 -0.006168945 0.12200585 0.04368097 -0.27766746 0.021186395 0.06463573 -0.008816694 0.05200515 0.10207075 0.08935561 -0.15906206
http://data.doremus.org/vocabulary/function/musical_work 0.05431277 0.04608231 -0.18469188 0.082142256 0.30331418 0.09327819 -0.022110537 -0.07950085 0.18204713 -0.0995196 -0.03645128 -0.079446524 0.0030523662 -0.06795117 0.06391758 -0.14327021 -0.2601189 -0.06474525 -0.03976354 0.022921748 0.08323008 0.21731742 0.12837186 0.03801374 0.09250965 0.07970007 0.039406266 -0.0042274557 -0.033370953 0.059244566 -0.009943515 -0.056643687 -0.15484242 0.08619698 0.05493463 0.004463037 -0.08629284 0.21338977 0.030811688 -0.12632772 -0.041768815 0.0080115115 -0.13334441 -0.030147197 -0.0004534253 -0.063444585 0.13116936 0.0383807 -0.033211432 0.040112693 -0.07848251 -0.038234647 -0.030031918 0.0060020075 -0.08358037 -0.054048043 -0.063786425 0.028455209 -0.029748283 -0.08957265 -0.096115634 0.016623903 -0.12814064 0.11158358 0.13147691 -0.0024960656 -0.033877064 -0.16582954 0.10530703 0.05949884 0.15961276 -0.09958135 -0.040691152 0.19603842 0.06509971 0.1745675 0.006937104 -0.016206196 0.018825281 0.019608555 -0.004232429 -0.117545746 0.0017146573 0.1770159 -0.04783897 -0.021342885 -0.100329295 -0.03211667 0.007871942 -0.0077991267 0.12222888 0.044126555 -0.27614197 0.02230395 0.06680455 -0.008746733 0.052097637 0.10134776 0.08803313 -0.15949003
http://data.doremus.org/vocabulary/function/publication 0.050969113 0.047191393 -0.1844019 0.083826914 0.30414817 0.09233774 -0.020939328 -0.08000895 0.18228026 -0.097350314 -0.038981903 -0.07959281 0.006607456 -0.06988509 0.06401244 -0.14148003 -0.25863442 -0.0653434 -0.040299464 0.022371925 0.083763264 0.21573387 0.1289372 0.03763448 0.09110481 0.077301 0.037531864 -0.0038587567 -0.03456746 0.06133262 -0.010863943 -0.055625252 -0.15489769 0.08638638 0.05509509 0.0057976157 -0.08474831 0.2135723 0.03322795 -0.12875906 -0.043868687 0.009048646 -0.13117468 -0.027025608 0.0007134594 -0.06648264 0.13274184 0.03886451 -0.034290656 0.038538776 -0.079615384 -0.039301567 -0.03200502 0.0048588053 -0.08267048 -0.057366583 -0.06360115 0.02906967 -0.02966489 -0.08770405 -0.098819435 0.018486671 -0.12961893 0.108386904 0.12944803 -0.0015564822 -0.031672195 -0.16509677 0.10628028 0.060639154 0.16016881 -0.0988064 -0.03967202 0.19921893 0.0665228 0.17523243 0.0044374396 -0.014234173 0.015464303 0.017622327 -0.005345829 -0.118755445 0.0005175548 0.17663291 -0.047302146 -0.019890258 -0.09968148 -0.029963804 0.009220394 -0.00761338 0.12031102 0.042935237 -0.27738678 0.020672616 0.06611491 -0.010460611 0.049704265 0.10399467 0.0895931 -0.15680712
http://data.doremus.org/vocabulary/function/casting 0.0506356 0.046435133 -0.18524341 0.08192982 0.30245999 0.09394132 -0.022760382 -0.08181787 0.18407825 -0.09864606 -0.036678553 -0.081118286 0.003101166 -0.06689261 0.062094133 -0.14374052 -0.25723004 -0.06219874 -0.040452033 0.020772323 0.08019048 0.2163705 0.12952337 0.035614613 0.09158001 0.07866697 0.0371597 -0.0049265316 -0.034994382 0.060950477 -0.009786453 -0.05535806 -0.15778476 0.0880331 0.055904046 0.005709978 -0.08533353 0.21298444 0.034228448 -0.1253651 -0.042059433 0.009893044 -0.13231836 -0.031125698 -0.002786823 -0.06463795 0.13298075 0.04200479 -0.034050737 0.041121718 -0.0799669 -0.037019987 -0.033284895 0.00797013 -0.082091324 -0.054850116 -0.06703012 0.027903292 -0.031049471 -0.09072061 -0.095280975 0.019383833 -0.12968197 0.11134754 0.12983562 -0.00092161493 -0.033324722 -0.16519046 0.10577282 0.059332985 0.1597912 -0.100498594 -0.036920954 0.198624 0.066860996 0.175353 0.00528027 -0.016203683 0.016777392 0.018735265 -0.0068183457 -0.11968765 0.0010929697 0.17701973 -0.04440562 -0.021832652 -0.0997897 -0.03193909 0.0077155577 -0.009208076 0.12048176 0.04649533 -0.27517974 0.01955345 0.06743544 -0.010504827 0.051568303 0.10243334 0.08774303 -0.15685555
http://data.doremus.org/vocabulary/function/remixer 0.052723605 0.045592494 -0.18390341 0.0813504 0.30572194 0.093970805 -0.02221244 -0.08340438 0.18452421 -0.09971928 -0.03526224 -0.082978554 0.005253344 -0.07091494 0.06249227 -0.14036785 -0.25856364 -0.06273843 -0.038203266 0.02035375 0.082169116 0.21737404 0.12589543 0.03660888 0.09259111 0.07675681 0.039317697 -0.003370663 -0.034953047 0.060410112 -0.012672881 -0.056203328 -0.1542613 0.0865939 0.05618615 0.0019290315 -0.08468119 0.21505894 0.030803233 -0.12747113 -0.04095325 0.009398644 -0.13076878 -0.030798703 -0.0014935002 -0.0661874 0.13184342 0.037909288 -0.035047308 0.041084558 -0.07995994 -0.03634448 -0.032777764 0.0086248545 -0.083576515 -0.058094963 -0.06335495 0.027629238 -0.027843775 -0.088362224 -0.09811947 0.020013131 -0.13208298 0.108719066 0.12811302 -0.0030729915 -0.03208509 -0.1639668 0.10541421 0.06213728 0.15974092 -0.09896711 -0.039358646 0.19603334 0.064813286 0.17271875 0.00869234 -0.016663747 0.015519476 0.017359715 -0.0035211646 -0.11946164 0.0022112096 0.1777354 -0.04771845 -0.020802852 -0.101447545 -0.02935964 0.009193011 -0.0074119987 0.12072982 0.046040412 -0.27695772 0.018989647 0.06446058 -0.007092198 0.051757503 0.10444246 0.08691517 -0.15715161
http://data.doremus.org/vocabulary/function/storyteller 0.053839292 0.04535715 -0.18378223 0.082613915 0.30515346 0.093305714 -0.02400972 -0.08123029 0.18289872 -0.09898492 -0.036695957 -0.082603015 0.0067532305 -0.06974109 0.061172206 -0.14219561 -0.2605332 -0.06429312 -0.038750358 0.023210568 0.08313243 0.21726769 0.1288039 0.03820106 0.090568274 0.07841236 0.037094623 -0.0037264163 -0.033171333 0.059785694 -0.012911661 -0.057499602 -0.15665585 0.0900131 0.056825336 0.0051380247 -0.08444316 0.21331403 0.034428418 -0.12807335 -0.041260075 0.009747836 -0.13439353 -0.028807357 -0.0032465723 -0.0648083 0.1311074 0.039452966 -0.031665724 0.03895211 -0.078297675 -0.037841175 -0.02971502 0.0071857474 -0.081316486 -0.05577433 -0.06602067 0.030332945 -0.027192686 -0.08881566 -0.09539124 0.019275324 -0.12850858 0.11174046 0.13192749 -0.0018661721 -0.031098993 -0.1662443 0.10293363 0.06166709 0.15631227 -0.09763139 -0.03864703 0.19597006 0.06729105 0.17174289 0.006828187 -0.013673182 0.016630517 0.02114567 -0.0048267785 -0.12134047 0.0012680471 0.17438509 -0.045044262 -0.019947104 -0.10201432 -0.029290609 0.009136219 -0.006628409 0.121780954 0.04227798 -0.27512938 0.019633036 0.06424181 -0.008681938 0.05271069 0.10434277 0.08756438 -0.16029514
http://data.doremus.org/vocabulary/function/creator_of_musical_reconstruction 0.05379636 0.04703742 -0.1835073 0.08162619 0.3042875 0.09642517 -0.021933308 -0.08038003 0.18191917 -0.098997615 -0.035386484 -0.0826795 0.0034409177 -0.065964326 0.060970392 -0.14085473 -0.26088098 -0.064213656 -0.036877647 0.019389354 0.0816786 0.21546434 0.12771718 0.035740905 0.09436155 0.07932513 0.039014164 -0.0023528982 -0.03382764 0.06127775 -0.010896648 -0.05721424 -0.15689461 0.08666234 0.05604766 0.0031329372 -0.0828956 0.21495761 0.031321164 -0.12592073 -0.041436095 0.0064605353 -0.1307076 -0.027038198 -0.0018237665 -0.06510355 0.13259064 0.037507802 -0.031860188 0.040349443 -0.08254458 -0.036189094 -0.030248499 0.00454145 -0.08282494 -0.05821508 -0.064210154 0.03189574 -0.028008642 -0.08890849 -0.09685538 0.020684289 -0.12825902 0.109972425 0.13007866 -0.004552283 -0.031368166 -0.16481212 0.10710657 0.058750212 0.15871973 -0.10157894 -0.03694712 0.1997594 0.06650677 0.1742722 0.0070539145 -0.015827313 0.014910846 0.019537952 -0.0068616434 -0.12043969 0.0026097926 0.17660135 -0.047559667 -0.01810337 -0.0991457 -0.033262193 0.009474525 -0.006188229 0.11964399 0.044699132 -0.27492738 0.019484324 0.06605995 -0.007919761 0.050572373 0.104077116 0.089512385 -0.15835297
http://data.doremus.org/vocabulary/function/performance_plan 0.054005202 0.046450537 -0.18430124 0.08494903 0.3039245 0.09211454 -0.02295331 -0.07963469 0.18251519 -0.09620265 -0.038934108 -0.083085276 0.0035734056 -0.06728676 0.06496051 -0.1423233 -0.26108506 -0.0649154 -0.040533993 0.02002417 0.08280089 0.21702515 0.12763721 0.035964713 0.09114454 0.07928028 0.0403263 -0.005923256 -0.03267827 0.060561046 -0.009594591 -0.05467859 -0.15433899 0.08521128 0.056274816 0.006115898 -0.085630625 0.2099029 0.033321377 -0.12771198 -0.044186305 0.007033877 -0.132717 -0.028911976 0.0005673292 -0.066096775 0.13471568 0.038091656 -0.03516942 0.040554028 -0.08080167 -0.038061503 -0.032912888 0.00908356 -0.08043359 -0.05620444 -0.06719714 0.027802976 -0.027669039 -0.08611174 -0.097433046 0.01954375 -0.1276946 0.11124118 0.13177499 -0.0018440766 -0.032301184 -0.1669846 0.102624334 0.06148885 0.15918954 -0.09785497 -0.040646918 0.19780645 0.06615112 0.17432755 0.005559681 -0.015079476 0.017585952 0.017416708 -0.004663513 -0.11749506 0.0027368604 0.17618188 -0.04448753 -0.022010932 -0.09911261 -0.029574964 0.0073077367 -0.010276496 0.122376636 0.04453498 -0.27839753 0.020195412 0.06837205 -0.008251492 0.053353973 0.100558214 0.08796198 -0.15600489
http://data.doremus.org/vocabulary/function/parodist 0.05248609 0.045155063 -0.18424775 0.08414589 0.30548266 0.09629392 -0.022581985 -0.08267216 0.18566681 -0.09536388 -0.03713697 -0.08280429 0.007152789 -0.06592133 0.062362593 -0.1420417 -0.26077747 -0.06557611 -0.038457338 0.019890158 0.07961243 0.21513788 0.12592615 0.038839422 0.093801215 0.07943769 0.03864277 -0.005430121 -0.031505536 0.058834545 -0.010501502 -0.054856237 -0.15461154 0.08859228 0.055724625 0.0018933412 -0.083703525 0.21308777 0.034762993 -0.12524998 -0.04055403 0.01058681 -0.12996283 -0.029591596 -0.0018127201 -0.06589857 0.1326972 0.03936262 -0.03275473 0.041838743 -0.07970091 -0.038646586 -0.029527782 0.005010322 -0.081423305 -0.058197536 -0.06650636 0.03104459 -0.027150307 -0.09047358 -0.09595244 0.017160792 -0.12903883 0.107890636 0.1323773 -0.0022874707 -0.03252614 -0.16743167 0.10226838 0.060633313 0.1591307 -0.099636875 -0.04096789 0.19806932 0.066191986 0.1747215 0.007944242 -0.015044408 0.018719226 0.017270455 -0.007173856 -0.1192279 0.0009862087 0.1742673 -0.046651997 -0.020411642 -0.098861866 -0.029025776 0.008994101 -0.00955506 0.122759156 0.043401785 -0.27570087 0.020837296 0.065248385 -0.0076128147 0.049032826 0.105248824 0.08988141 -0.15705696
http://data.doremus.org/vocabulary/function/recording 0.05311687 0.044884767 -0.18429251 0.08389604 0.30555436 0.09267088 -0.023366611 -0.08019039 0.18237475 -0.09542653 -0.03767446 -0.07974078 0.004094975 -0.07016415 0.064009994 -0.14479592 -0.25799567 -0.06050505 -0.04179492 0.02012247 0.0796727 0.21683621 0.12917769 0.037584804 0.091874145 0.07774369 0.035801742 -0.004496246 -0.034094725 0.061395835 -0.012553715 -0.054291528 -0.15434164 0.08978344 0.05534836 0.0026297257 -0.088061094 0.21306503 0.032203376 -0.1257331 -0.040725723 0.008237303 -0.13331597 -0.029527256 -0.002249514 -0.06636228 0.13177522 0.039712068 -0.034368187 0.042265564 -0.08194227 -0.038714208 -0.031216074 0.0063019893 -0.08181932 -0.05842018 -0.06516871 0.027474064 -0.03174222 -0.08719826 -0.0953407 0.021013508 -0.12783249 0.109978564 0.12801449 -0.00049041543 -0.03226538 -0.16431636 0.10735973 0.061684772 0.15984705 -0.09935242 -0.041294266 0.19764842 0.06479454 0.17291611 0.004675843 -0.013434763 0.018301612 0.021769248 -0.004655983 -0.121079706 -0.0014383261 0.17667551 -0.044549335 -0.017607091 -0.099924274 -0.032978583 0.009804028 -0.006289473 0.12352894 0.04436803 -0.27617276 0.020195937 0.064231865 -0.0068583963 0.050334495 0.10162544 0.086448416 -0.16121413
http://data.doremus.org/vocabulary/function/sound-effects_engineer 0.050022945 0.046518534 -0.1810283 0.08374405 0.3024186 0.09140794 -0.020831846 -0.08374819 0.18151972 -0.0969607 -0.035097532 -0.082812354 0.0033550987 -0.0693726 0.06525896 -0.14080404 -0.25731084 -0.06224419 -0.040678557 0.021999767 0.08006518 0.21688819 0.13009255 0.037712947 0.09196824 0.077367134 0.037837245 -0.002531918 -0.031451188 0.06296886 -0.010243549 -0.05651056 -0.15594617 0.08561914 0.057472542 0.006486396 -0.08516821 0.21436648 0.030181812 -0.1253859 -0.044680834 0.006676182 -0.13365792 -0.027155504 -0.002569706 -0.06250905 0.1318667 0.041007604 -0.034104344 0.042217333 -0.078975074 -0.03729432 -0.031390756 0.0075039584 -0.07929436 -0.055709004 -0.06367946 0.030270187 -0.031640608 -0.090738036 -0.09581677 0.019863714 -0.12989601 0.11067142 0.12855272 -0.00057034084 -0.034635007 -0.16768385 0.106934726 0.060012728 0.15902206 -0.09736101 -0.0382098 0.19937941 0.067162976 0.17627205 0.008252705 -0.014595413 0.01819467 0.01747567 -0.002384055 -0.11961964 0.001119989 0.17779389 -0.045357823 -0.022051655 -0.10016851 -0.033105798 0.01073179 -0.009548404 0.123962834 0.044557948 -0.27684158 0.021788994 0.06690048 -0.007874637 0.05177177 0.10440609 0.08647482 -0.1587013
http://data.doremus.org/vocabulary/function/disc_jockey 0.052770294 0.04506282 -0.18145902 0.08245486 0.30450866 0.09307105 -0.021052994 -0.08375256 0.18664807 -0.09700801 -0.036358092 -0.08394236 0.0032159325 -0.067390844 0.061257124 -0.14163095 -0.26109904 -0.060993627 -0.04029672 0.01959222 0.08337315 0.21767844 0.12710497 0.034672067 0.092611775 0.07945136 0.03937114 -0.0021470638 -0.033987924 0.059617404 -0.010979965 -0.053598255 -0.1534835 0.08901227 0.055205125 0.0050271703 -0.08592921 0.21487169 0.029894669 -0.12547946 -0.040216323 0.010761028 -0.13404432 -0.030013852 0.00066907966 -0.06729614 0.13279678 0.037704803 -0.032480687 0.043283984 -0.077774934 -0.039616376 -0.0334242 0.0074035535 -0.082308166 -0.054138184 -0.06645321 0.028848944 -0.031994868 -0.08796801 -0.098681405 0.019652454 -0.1275643 0.10694174 0.12940148 0.00042409764 -0.030473141 -0.16848214 0.10784015 0.05926232 0.15618677 -0.09686393 -0.03862967 0.19901867 0.06670165 0.1717901 0.008082396 -0.014884209 0.018263014 0.021750541 -0.0039248685 -0.11838278 -0.00096486945 0.17788993 -0.047538854 -0.020095697 -0.099536315 -0.028779157 0.009888034 -0.010251687 0.12181454 0.042915512 -0.27536243 0.019916268 0.06767786 -0.0063806046 0.053363126 0.10100291 0.08666415 -0.15873644
http://data.doremus.org/vocabulary/function/creator_of_musical_harmonization 0.05189378 0.046203405 -0.18201491 0.08181829 0.30442098 0.09401375 -0.023937263 -0.08003705 0.18633612 -0.09540315 -0.03845346 -0.08070314 0.0027792929 -0.07117109 0.061948434 -0.14485899 -0.2569779 -0.063638575 -0.03855462 0.023834668 0.084266454 0.2150386 0.12733987 0.036149275 0.09365747 0.07932421 0.039428752 -0.0020780757 -0.033017647 0.06329192 -0.010987264 -0.0575369 -0.15637922 0.08522214 0.05518115 0.0011527158 -0.084076665 0.21477966 0.035578124 -0.12651998 -0.04313618 0.009688072 -0.13135628 -0.026622035 0.001604608 -0.0639801 0.1324785 0.037781253 -0.033664286 0.04382357 -0.081518225 -0.038224686 -0.03064531 0.0096330475 -0.08307105 -0.054479342 -0.063975915 0.027334414 -0.0280805 -0.09146105 -0.09608016 0.0195551 -0.12770696 0.10743368 0.12760235 0.00012314577 -0.030476853 -0.1687468 0.1033654 0.058092672 0.15774986 -0.09830381 -0.038268425 0.197593 0.06378795 0.1721813 0.004999999 -0.0138998935 0.019612439 0.016991133 -0.0044652456 -0.11714945 0.0023523124 0.17797144 -0.043856137 -0.022902612 -0.10236606 -0.032763224 0.009505523 -0.008611567 0.123415776 0.04610998 -0.27785367 0.02087754 0.06576596 -0.009865164 0.052884858 0.102531925 0.08939155 -0.15978031
http://data.doremus.org/vocabulary/function/editing 0.054944217 0.047021013 -0.18593438 0.08584986 0.30643487 0.09539536 -0.02224543 -0.079433195 0.1825008 -0.09609629 -0.037357483 -0.08221908 0.0029769826 -0.06702412 0.06441769 -0.14350832 -0.2605086 -0.060810708 -0.036598213 0.023395713 0.08463611 0.2135573 0.12606758 0.034871567 0.091379 0.077762015 0.04161984 -0.0041868784 -0.032714047 0.060655225 -0.013534932 -0.053249236 -0.15312342 0.08521551 0.053926744 0.0013014853 -0.08387954 0.21440499 0.03248156 -0.12589884 -0.0421533 0.010082508 -0.1309351 -0.027718134 -0.004406909 -0.06167854 0.12981118 0.04028972 -0.03280372 0.041308474 -0.07768443 -0.039231896 -0.034286443 0.004897567 -0.08179246 -0.054885276 -0.066375576 0.02817056 -0.031046093 -0.087519154 -0.09560761 0.019239461 -0.13047929 0.10898224 0.1295346 -0.0007478328 -0.03164999 -0.16381042 0.1054453 0.058980096 0.16018179 -0.09869855 -0.04042417 0.19613121 0.06335497 0.17306788 0.0051457607 -0.017042777 0.018227471 0.017647943 -0.0035180443 -0.120890506 -0.00042562926 0.17939232 -0.048897814 -0.02277447 -0.10356777 -0.03152408 0.008644866 -0.006205175 0.123492256 0.0456558 -0.27590922 0.021515222 0.064451426 -0.0071382998 0.048310302 0.104839586 0.08935925 -0.16153288
http://data.doremus.org/vocabulary/function/drawer 0.049268585 0.04324339 -0.18092339 0.085501306 0.305842 0.09621935 -0.01883589 -0.07922762 0.18380645 -0.100000724 -0.036249038 -0.079821326 0.003567162 -0.06861928 0.060250666 -0.14361975 -0.25863343 -0.06052434 -0.0419539 0.018480476 0.08544545 0.21550585 0.12744196 0.033434656 0.09290908 0.07955514 0.04108072 -0.0063537643 -0.032274455 0.058606423 -0.012838612 -0.05441278 -0.15452865 0.0888542 0.055631254 0.006807783 -0.08625076 0.21127985 0.030499615 -0.13057147 -0.039945137 0.0081231855 -0.13056357 -0.02647991 -0.0011671432 -0.067481264 0.13120416 0.039151613 -0.0346323 0.039168652 -0.08272622 -0.041413575 -0.032293357 0.0042680227 -0.08181537 -0.056448195 -0.06411461 0.02642051 -0.026381401 -0.08829235 -0.09652242 0.020125354 -0.1284607 0.11308509 0.1336063 -0.0019751396 -0.030053882 -0.16275884 0.10517189 0.064384684 0.16138385 -0.10305245 -0.037887625 0.19731945 0.06362814 0.17617556 0.004664732 -0.015942795 0.01857272 0.021582829 -0.007994903 -0.11767304 -0.0011318821 0.17307182 -0.045395978 -0.023177557 -0.10010138 -0.026901094 0.012134665 -0.008000208 0.12400556 0.04207199 -0.27256078 0.023357343 0.0682611 -0.006321946 0.051946744 0.10657873 0.09113548 -0.15928908
http://data.doremus.org/vocabulary/function/publishing_director 0.052594204 0.047566704 -0.184764 0.085201986 0.30409953 0.09382026 -0.022372354 -0.08212717 0.18291773 -0.09764304 -0.034060564 -0.079035796 0.0049732076 -0.067442894 0.061105248 -0.14097314 -0.26089147 -0.063560806 -0.038728304 0.020758769 0.07904122 0.21520698 0.13041882 0.037726156 0.09435847 0.07452779 0.03862125 -0.006319612 -0.03534333 0.06309875 -0.0086121885 -0.05451559 -0.15847877 0.08921619 0.057866465 0.0043350714 -0.08650312 0.21356556 0.029586667 -0.12703161 -0.044162 0.011115587 -0.12920184 -0.029198702 -0.0041173194 -0.06612454 0.132552 0.041882955 -0.0332477 0.040596973 -0.07708145 -0.037012182 -0.03249885 0.0069095697 -0.08448372 -0.055056054 -0.0640456 0.030646795 -0.025847318 -0.08861559 -0.10000667 0.016464917 -0.12715574 0.10842461 0.13287416 -0.003154515 -0.0341749 -0.16465151 0.10485493 0.06117238 0.15747754 -0.10016592 -0.04136191 0.19599874 0.062406205 0.17504306 0.0036340854 -0.013723519 0.017814925 0.02192897 -0.0033896132 -0.11993766 0.0041478244 0.17687666 -0.0457304 -0.021064403 -0.10089057 -0.029612003 0.010895204 -0.009710843 0.12327348 0.04209141 -0.27348393 0.022644058 0.064719655 -0.009768672 0.0523194 0.10639335 0.09038299 -0.15727922
http://data.doremus.org/vocabulary/function/imitator 0.05133818 0.046796933 -0.18653508 0.083372794 0.3016295 0.09259321 -0.023835728 -0.08430298 0.1855589 -0.09877729 -0.038196363 -0.08116608 0.0044626812 -0.06934529 0.060727894 -0.14539401 -0.25679877 -0.061440144 -0.042384107 0.021919565 0.081747845 0.21391137 0.12564285 0.039424088 0.09117702 0.08003298 0.03907179 -0.0040459614 -0.031842798 0.06054325 -0.012215427 -0.053871773 -0.15871094 0.08954059 0.055789795 0.005004537 -0.087303236 0.21345295 0.03302547 -0.12681346 -0.042581405 0.0061817993 -0.13366085 -0.02690052 -0.002166125 -0.06541997 0.13354549 0.040148105 -0.03260497 0.043576993 -0.080225796 -0.040388446 -0.031992402 0.0041206614 -0.0847757 -0.056265913 -0.067817815 0.026910838 -0.030546574 -0.08786485 -0.099037275 0.015508111 -0.12844075 0.11107598 0.1274463 -0.0043007145 -0.030222932 -0.16506398 0.10214524 0.061074212 0.15717055 -0.09770267 -0.038778696 0.1970905 0.06662475 0.17140965 0.0069121937 -0.011894931 0.016371936 0.018239073 -0.005611653 -0.117035866 -0.00092087337 0.1765981 -0.046539154 -0.022761162 -0.09980509 -0.030453859 0.007358549 -0.0074261366 0.12048873 0.04590432 -0.27882126 0.019956635 0.0658465 -0.0066949697 0.05383413 0.10339507 0.088192485 -0.1596259
http://data.doremus.org/vocabulary/function/film_director 0.054733407 0.04466868 -0.18029226 0.08159343 0.30116338 0.09737981 -0.021708654 -0.079385884 0.18646216 -0.099660195 -0.034731504 -0.084866226 0.006210061 -0.071729794 0.059873465 -0.13976313 -0.25753486 -0.06476003 -0.037372675 0.019289192 0.08229505 0.21504778 0.12888469 0.035774015 0.09511958 0.076828696 0.040521465 -0.0029639455 -0.035535976 0.06311044 -0.013121396 -0.057757076 -0.15272209 0.08998241 0.058889788 0.0011645161 -0.0850509 0.21155538 0.030652829 -0.12896743 -0.044699423 0.0086210985 -0.12941803 -0.031544745 0.001173364 -0.068161406 0.13168374 0.03727547 -0.03604088 0.038985245 -0.081740215 -0.040587056 -0.03285587 0.0054673934 -0.0821028 -0.058569636 -0.06310189 0.02907489 -0.030245407 -0.08637576 -0.09691384 0.015231171 -0.13047728 0.10857133 0.13253348 -0.0031781222 -0.029336331 -0.16775975 0.1024189 0.062576845 0.15874246 -0.09692827 -0.037420306 0.19692475 0.0684101 0.17041282 0.0080918055 -0.017260076 0.016322896 0.017239083 -0.0062846206 -0.118848644 0.00038292352 0.17957887 -0.048303273 -0.022564199 -0.10019317 -0.029592006 0.009283273 -0.007421044 0.122809194 0.046706796 -0.27866986 0.021652913 0.069011614 -0.011422266 0.048814185 0.105949 0.089117646 -0.15705352
http://data.doremus.org/vocabulary/function/20 0.04910971 0.044660572 -0.1845615 0.07977331 0.30487892 0.09739667 -0.02039394 -0.08055448 0.18291749 -0.09631598 -0.03491363 -0.084067985 0.0040862383 -0.07153134 0.06507213 -0.1412957 -0.26020545 -0.06209744 -0.038689688 0.019620433 0.07930968 0.21860924 0.1251389 0.037327025 0.09155446 0.076483704 0.037224937 -0.004011011 -0.03009179 0.063333906 -0.008058465 -0.054072406 -0.15942563 0.0840725 0.056880977 0.0016807554 -0.08365995 0.21206778 0.03229905 -0.12895726 -0.038985427 0.011988651 -0.12886684 -0.02747469 -0.0011871078 -0.067826025 0.1294613 0.036779262 -0.034300577 0.044479713 -0.07751101 -0.039616484 -0.029261723 0.0035272955 -0.08073048 -0.05340105 -0.06324358 0.030327281 -0.026270946 -0.09058654 -0.09702926 0.020854868 -0.1328216 0.11089525 0.12849844 0.00092642463 -0.03598418 -0.16485606 0.106256686 0.05945435 0.15592246 -0.09644554 -0.040972326 0.20070814 0.063132584 0.17707324 0.008899942 -0.017473588 0.017349327 0.019354813 -0.0069826706 -0.11827991 0.0038777671 0.1771731 -0.04583025 -0.019324487 -0.1006557 -0.030702217 0.009325915 -0.010473024 0.11843359 0.047701117 -0.27867123 0.019937618 0.06943229 -0.011655544 0.047381513 0.10453388 0.0890918 -0.15579219
http://data.doremus.org/vocabulary/function/100 0.049644765 0.044248413 -0.18542062 0.08545396 0.3044047 0.096687615 -0.02398595 -0.078354605 0.18258457 -0.09446308 -0.03934016 -0.08319708 0.0021705518 -0.069471054 0.06030179 -0.14331993 -0.26086378 -0.06621161 -0.03857408 0.023604093 0.08475104 0.21678928 0.12662564 0.03586193 0.09046545 0.074936405 0.038278773 -0.0035357592 -0.034676656 0.061943725 -0.010399406 -0.055595215 -0.15733936 0.089583315 0.05469952 0.0007898347 -0.08266604 0.213553 0.035295047 -0.1275672 -0.041854948 0.005600839 -0.13247542 -0.02925462 0.0018109758 -0.06430447 0.13347277 0.040475357 -0.03251783 0.038987726 -0.082250275 -0.041202255 -0.028412292 0.008466312 -0.079670504 -0.055464108 -0.066655114 0.02968507 -0.03168544 -0.090368465 -0.09897926 0.020861456 -0.13094373 0.11134787 0.1284581 -0.0033913185 -0.03430188 -0.16887408 0.105816424 0.05799103 0.16002898 -0.09751993 -0.03999245 0.19894259 0.06341371 0.17137718 0.007519976 -0.011494949 0.013974406 0.021074109 -0.007428556 -0.11694336 -0.0008132189 0.17339733 -0.043932397 -0.017194401 -0.09791367 -0.027763495 0.0099805305 -0.010292498 0.12049331 0.043416385 -0.27525875 0.017364442 0.06385575 -0.0086383885 0.050063275 0.10556291 0.09064734 -0.15635505
http://data.doremus.org/vocabulary/function/composer_of_cadenza 0.05026184 0.04408652 -0.18442142 0.08407134 0.3020071 0.095486104 -0.01974686 -0.078959 0.18231986 -0.09505188 -0.035748124 -0.08397005 0.005833238 -0.070440374 0.06442128 -0.140789 -0.25848117 -0.06593294 -0.0368774 0.022305684 0.083414346 0.21399145 0.12813033 0.037127767 0.09244099 0.07801308 0.036707662 -0.0015085873 -0.0352234 0.06261418 -0.012868299 -0.053272974 -0.15405868 0.09060148 0.0564905 0.0050271875 -0.08545734 0.21560356 0.035806086 -0.12469775 -0.04442762 0.006601026 -0.12965624 -0.0315878 0.0013310915 -0.063083425 0.1305816 0.037182692 -0.03204644 0.041100815 -0.08101191 -0.04156306 -0.03357064 0.0072200643 -0.07985538 -0.056800723 -0.064860776 0.028676158 -0.03130062 -0.08983482 -0.09704611 0.0209835 -0.13271643 0.111049324 0.1290935 -0.0033906854 -0.034918122 -0.16424108 0.10432864 0.064231284 0.16117068 -0.099516034 -0.040433694 0.19885223 0.06354673 0.17457472 0.007965991 -0.013065727 0.018332649 0.016462268 -0.0032946903 -0.117099755 0.0011063949 0.17814198 -0.04808308 -0.020600285 -0.10304167 -0.029417764 0.0049301255 -0.004665828 0.123473704 0.047605 -0.27454135 0.018263843 0.06503899 -0.010498939 0.050439693 0.105820596 0.08585915 -0.16073811
http://data.doremus.org/vocabulary/function/programming_work 0.049064945 0.046183877 -0.18199356 0.080038205 0.30407262 0.092533864 -0.02018046 -0.08430025 0.18253565 -0.09945676 -0.03624332 -0.08273406 0.0078123524 -0.07119662 0.06366737 -0.14389867 -0.2573559 -0.06399591 -0.03734199 0.022832772 0.0809056 0.21769308 0.1274477 0.038733136 0.09197991 0.07752693 0.040099956 -0.006289243 -0.030861728 0.05991826 -0.0132577745 -0.054455314 -0.1550439 0.09048124 0.053083867 0.0039349394 -0.08341217 0.2161021 0.034772854 -0.12981838 -0.039082464 0.009402855 -0.13048872 -0.030335223 -0.0016306787 -0.06542528 0.13192575 0.042014636 -0.035882223 0.043097947 -0.07861349 -0.041896418 -0.033976723 0.0047809053 -0.07965652 -0.05663817 -0.06410439 0.028134247 -0.028340926 -0.09067736 -0.096039504 0.019646568 -0.13063163 0.1075548 0.13256109 -0.0032159626 -0.03336658 -0.16650683 0.103359394 0.058362585 0.15719159 -0.09988858 -0.036259357 0.1995964 0.06817013 0.17256951 0.003393028 -0.015681501 0.019768553 0.019818433 -0.0042436714 -0.11771198 0.0024964989 0.17600614 -0.043973356 -0.022440117 -0.09902561 -0.03067847 0.010687839 -0.010972675 0.12057871 0.044172548 -0.27862942 0.023503471 0.064194754 -0.010430381 0.04796934 0.10141118 0.09059514 -0.15761057
http://data.doremus.org/vocabulary/function/author_of_afterword 0.05034139 0.0473452 -0.18120207 0.084629305 0.30623272 0.092185244 -0.023986347 -0.08451686 0.1860135 -0.09583276 -0.035455387 -0.08325777 0.002513371 -0.068962045 0.064308174 -0.1432113 -0.2619759 -0.06696878 -0.039711475 0.019106003 0.0789827 0.2148128 0.12496402 0.035713557 0.090138406 0.081007004 0.041979577 -0.00730071 -0.035712346 0.062455084 -0.008247326 -0.055358943 -0.15299276 0.08795911 0.053494222 0.0039827703 -0.08545821 0.21528389 0.031839833 -0.13011496 -0.046453513 0.009199876 -0.1324953 -0.032075625 -0.002466852 -0.06621366 0.13431115 0.038215604 -0.0354399 0.040154703 -0.07678758 -0.04197735 -0.03055873 0.010010112 -0.078182906 -0.05889908 -0.061824605 0.032710794 -0.031144472 -0.08893595 -0.09912097 0.0159156 -0.12672347 0.107330814 0.12790333 -0.0016827533 -0.034414977 -0.17041476 0.10604158 0.05876573 0.15604702 -0.09741678 -0.03773544 0.19491103 0.06654217 0.17066976 0.0095273685 -0.015144617 0.015240066 0.019228408 -0.0017600388 -0.118600234 0.0010402522 0.17636587 -0.04477881 -0.020011025 -0.09935533 -0.027373087 0.010974121 -0.0073349653 0.12522359 0.043334033 -0.27603745 0.016426753 0.06700266 -0.011627056 0.052257456 0.099207185 0.08643391 -0.16036463
http://data.doremus.org/vocabulary/function/video_designer 0.055005513 0.045251116 -0.18426792 0.08020841 0.3031958 0.09336511 -0.023131521 -0.07852291 0.18100077 -0.09943869 -0.03700614 -0.082419656 0.0056296214 -0.06771154 0.0644137 -0.1453805 -0.25636974 -0.064474255 -0.038392507 0.024240432 0.08273514 0.21823293 0.12944908 0.039765105 0.09266853 0.081052214 0.038819324 -0.0052298643 -0.032025874 0.057974983 -0.014534834 -0.058104664 -0.1592018 0.09105332 0.05649122 0.0061956616 -0.08197088 0.21138637 0.033527315 -0.12985028 -0.042367827 0.0059737507 -0.13147688 -0.0292725 -0.0013892638 -0.06334732 0.13261178 0.03776673 -0.03645975 0.038838517 -0.078794084 -0.041701734 -0.029476998 0.008372814 -0.07951499 -0.052504927 -0.06710803 0.031282194 -0.032389417 -0.08999547 -0.097231634 0.016535927 -0.12704225 0.112189 0.13304934 -0.0012894748 -0.03350573 -0.16832247 0.10276989 0.063882664 0.15576726 -0.09743514 -0.040240943 0.19531853 0.06528582 0.17708418 0.0056452947 -0.013782453 0.014443663 0.017869027 -0.004807739 -0.119452186 -0.0019745843 0.17683506 -0.04807829 -0.020820554 -0.10441061 -0.034108277 0.0063977456 -0.007728149 0.11916908 0.04476714 -0.27486977 0.017313946 0.06476876 -0.0077125817 0.05196728 0.10634828 0.08499598 -0.15555176
http://data.doremus.org/vocabulary/function/contributor 0.05486344 0.04555598 -0.18057247 0.08075987 0.3019596 0.09736786 -0.025096368 -0.08218242 0.18458275 -0.095548734 -0.035293516 -0.08024588 0.00443146 -0.06924141 0.060180128 -0.14034446 -0.2573693 -0.06422091 -0.042216636 0.021026284 0.08318473 0.21484967 0.13021962 0.039761554 0.08882559 0.07947214 0.03794372 -0.0059523913 -0.03725795 0.05941128 -0.011964782 -0.057597466 -0.15875001 0.08722251 0.05970322 0.0031684353 -0.082037844 0.20996849 0.029448135 -0.12760086 -0.04203705 0.011269066 -0.13203612 -0.0314408 0.001829934 -0.067662574 0.12897965 0.042827986 -0.033627234 0.03982772 -0.07915837 -0.039840225 -0.033642404 0.009784202 -0.08222909 -0.054180555 -0.06685868 0.03297908 -0.030213699 -0.08747244 -0.10024919 0.020386495 -0.13259776 0.108071074 0.12726568 -0.0043467274 -0.0330021 -0.16951932 0.106977805 0.060238328 0.1617372 -0.10160122 -0.037511438 0.19605984 0.06913532 0.17432757 0.008150984 -0.017608754 0.020521548 0.022802047 -0.0024531898 -0.11768682 0.0034064618 0.17435414 -0.043641903 -0.019428074 -0.10370993 -0.028488375 0.010294513 -0.0070848055 0.12413041 0.041684255 -0.27569005 0.018675156 0.06905991 -0.0062848325 0.05050524 0.10616 0.09162641 -0.15706788
http://data.doremus.org/vocabulary/function/composer_of_basso_continuo 0.052291155 0.04550622 -0.18162152 0.08380477 0.3064938 0.095984705 -0.01986637 -0.08114203 0.18708831 -0.09556914 -0.03621217 -0.08494174 0.0017586513 -0.07221637 0.06354055 -0.14120263 -0.26251498 -0.05888962 -0.037414186 0.021210015 0.08424268 0.21311575 0.12980981 0.03358437 0.09144119 0.07453116 0.040024947 -0.0042574904 -0.035342064 0.05978492 -0.012604336 -0.05710945 -0.15246715 0.085545674 0.05390834 0.0014672345 -0.08346302 0.21584962 0.03662076 -0.12634453 -0.039496727 0.0075828773 -0.13002597 -0.025398783 0.0008259673 -0.060519177 0.13313195 0.039245896 -0.03676851 0.038338438 -0.08270235 -0.035210308 -0.030313794 0.0074468 -0.081866644 -0.05286331 -0.061653007 0.030108424 -0.025233943 -0.08613733 -0.09467935 0.021547932 -0.1327393 0.11176424 0.12831798 -0.0043201414 -0.03641035 -0.17041633 0.10399785 0.059559483 0.15506542 -0.10027472 -0.038264014 0.20149022 0.064826526 0.17153442 0.0045267786 -0.013195303 0.013840262 0.016269842 -0.0062510055 -0.116827056 0.00082494295 0.17688112 -0.047506247 -0.019018464 -0.0998099 -0.030348146 0.011153777 -0.011427668 0.12044305 0.04095784 -0.27973506 0.01686072 0.06575139 -0.011904775 0.051661853 0.10146848 0.08942914 -0.15509121
http://data.doremus.org/vocabulary/function/editor_of_fingerings 0.05209978 0.047164835 -0.18134607 0.083582476 0.30609024 0.09782503 -0.023244204 -0.07763388 0.18738082 -0.094691664 -0.03705575 -0.08094931 0.0074443566 -0.06984375 0.06302225 -0.14055365 -0.26104036 -0.060142577 -0.03651193 0.020191466 0.07928743 0.21540846 0.12622884 0.037059527 0.09111728 0.080580674 0.03584765 -0.0047851866 -0.030790446 0.057372697 -0.011109616 -0.05255313 -0.15898375 0.08674136 0.056265153 0.0056153415 -0.0839021 0.21309774 0.03601151 -0.12651895 -0.044921502 0.006381399 -0.13174725 -0.026163042 0.00011799775 -0.062533595 0.13567013 0.0359932 -0.033051938 0.037865464 -0.07868154 -0.03550866 -0.029203705 0.003758853 -0.07980993 -0.057577774 -0.065047696 0.029682677 -0.027470361 -0.08939443 -0.10086443 0.017569251 -0.13194525 0.10936924 0.13404357 -0.005248009 -0.031498957 -0.16928697 0.10196489 0.063264616 0.15590444 -0.096548975 -0.04179099 0.19563055 0.06611522 0.17530042 0.0063067013 -0.01442437 0.015342615 0.022656642 -0.0054467265 -0.11643919 0.00022064964 0.17342082 -0.04762131 -0.0216819 -0.10337714 -0.027713895 0.0062096883 -0.007601166 0.123036414 0.046194974 -0.27609146 0.020573761 0.06250284 -0.00829536 0.049752384 0.10484719 0.08704591 -0.1599521
http://data.doremus.org/vocabulary/function/editor_of_the_bowing_marks 0.05584442 0.046082895 -0.18478474 0.08220197 0.30622512 0.09460331 -0.02365524 -0.08030113 0.18143356 -0.095098235 -0.04018955 -0.07935377 0.0036342014 -0.07148181 0.06570134 -0.13960299 -0.25587478 -0.06252635 -0.037230827 0.020645536 0.08360118 0.21499176 0.12621164 0.035218325 0.09505092 0.07443349 0.03939906 -0.005866489 -0.034253854 0.057635464 -0.0097835595 -0.05545784 -0.15232289 0.08826839 0.05835556 0.004614156 -0.087652035 0.20986074 0.034747493 -0.12880167 -0.045566186 0.01102414 -0.1278343 -0.031593308 -0.0015047236 -0.06241445 0.13422598 0.039579794 -0.035945944 0.04304979 -0.08183151 -0.03950528 -0.03202159 0.0039571053 -0.08087177 -0.055890974 -0.06726508 0.029819418 -0.031096095 -0.09113867 -0.09677086 0.018205894 -0.13232471 0.110498324 0.13394326 -0.00034947344 -0.032970987 -0.16497941 0.10814662 0.05772417 0.16087835 -0.10223484 -0.040720694 0.1957033 0.06845449 0.17616013 0.007761595 -0.012720793 0.015704306 0.020254474 -0.0034017914 -0.12069188 -0.00091031723 0.17960955 -0.045120254 -0.022565892 -0.10397638 -0.02798704 0.011706759 -0.006740792 0.11840173 0.047192123 -0.2735287 0.020840479 0.064742535 -0.011991303 0.055363405 0.10174629 0.09056519 -0.15482704
http://data.doremus.org/vocabulary/function/compiler 0.050035346 0.046037074 -0.18668568 0.08587521 0.30475134 0.091750756 -0.023117516 -0.0812866 0.18139075 -0.10089245 -0.037456103 -0.07721416 0.0026526756 -0.06619728 0.065562725 -0.14583968 -0.25602305 -0.062151037 -0.039929494 0.018861761 0.08400771 0.21838647 0.12768482 0.037549783 0.0918017 0.07514001 0.041275837 -0.00851485 -0.032315075 0.061961696 -0.009901783 -0.058788225 -0.1543636 0.08787715 0.059828237 0.0015113307 -0.082795046 0.21107003 0.03368872 -0.12796132 -0.038473427 0.004670467 -0.13026753 -0.028142171 0.0022681502 -0.061463874 0.13071917 0.036108956 -0.0302074 0.03812764 -0.07956473 -0.036704157 -0.030559612 0.0066288277 -0.081997916 -0.053805333 -0.06463196 0.02591803 -0.028224597 -0.08666504 -0.09828372 0.022375815 -0.12633118 0.107782476 0.12735844 -0.005884665 -0.03429779 -0.16886824 0.10504629 0.05946575 0.1583184 -0.096903734 -0.03916226 0.19660887 0.06418741 0.17592613 0.0038907852 -0.017318385 0.019110993 0.021355888 -0.0036825761 -0.1167883 0.0022037984 0.17824073 -0.04628111 -0.017478824 -0.1049288 -0.033099413 0.006583883 -0.010367457 0.124592274 0.041402362 -0.2792575 0.02005254 0.06941041 -0.009622017 0.051828504 0.10530068 0.09078366 -0.1585329
http://data.doremus.org/vocabulary/function/editor_of_pedal_markings 0.053190496 0.04827615 -0.18204004 0.07926281 0.30109522 0.09467293 -0.02117549 -0.08190315 0.18480162 -0.09453224 -0.039744515 -0.07841106 0.0076683997 -0.07180147 0.06643854 -0.14443229 -0.26072606 -0.063678674 -0.042815384 0.023887744 0.082048416 0.21418239 0.1270303 0.037505507 0.092279494 0.07561438 0.037346154 -0.0012321447 -0.03119255 0.061929543 -0.01305311 -0.056987878 -0.1594582 0.08914852 0.055500317 0.0071484083 -0.085315034 0.21240364 0.035176232 -0.12948582 -0.042857293 0.008111827 -0.1299561 -0.031329744 4.6320518e-05 -0.066406764 0.13558646 0.037317112 -0.031955436 0.043506287 -0.07849429 -0.038927577 -0.030532127 0.009908259 -0.07826007 -0.05446843 -0.068273515 0.028376006 -0.025934104 -0.085539736 -0.09447945 0.017091988 -0.13317259 0.10736546 0.12864326 0.0017006192 -0.03253378 -0.16845502 0.10509528 0.064810276 0.15812331 -0.10284428 -0.04060064 0.19745068 0.06205406 0.17454585 0.007093209 -0.014642307 0.014582447 0.021221217 -0.004395242 -0.11867588 0.00040425966 0.17424238 -0.043727465 -0.017583806 -0.10078998 -0.02852053 0.009189864 -0.005399269 0.12267958 0.042734675 -0.2753848 0.023613427 0.070109315 -0.0097504845 0.05137997 0.106022 0.08809882 -0.15810126
http://data.doremus.org/vocabulary/function/illustrator 0.05312635 0.047438398 -0.18027732 0.08443938 0.30275112 0.09416401 -0.018619228 -0.08321225 0.17935844 -0.094064966 -0.036790214 -0.08043648 0.0029140045 -0.064692885 0.06576267 -0.14400463 -0.26030838 -0.060687557 -0.03721962 0.020502545 0.085383676 0.21376097 0.12837952 0.037229303 0.09009767 0.07584385 0.037349135 -0.0048504374 -0.034122106 0.06229385 -0.011630097 -0.060513165 -0.15765949 0.08642729 0.05236105 0.0023920867 -0.082453616 0.214425 0.033025242 -0.12812124 -0.041116547 0.006674532 -0.13382709 -0.027744096 0.0016250261 -0.06862081 0.13134615 0.042573072 -0.036280733 0.044144757 -0.077239044 -0.042326335 -0.035345245 0.003801338 -0.0833984 -0.05126108 -0.06686348 0.03189114 -0.025858391 -0.08649135 -0.09446767 0.018530177 -0.13235179 0.1115029 0.12577085 0.0014257428 -0.03603176 -0.16933304 0.10346816 0.05944854 0.15462483 -0.10160908 -0.038538843 0.19911093 0.06648032 0.17432901 0.0024493511 -0.014873208 0.019935519 0.019402217 -0.0032446713 -0.11690698 0.003350708 0.17987145 -0.049656317 -0.024007056 -0.09961169 -0.029457953 0.005017013 -0.005739312 0.12386193 0.043241303 -0.27550852 0.018778568 0.06790892 -0.009905568 0.049646392 0.10707076 0.08577623 -0.16216548
http://data.doremus.org/vocabulary/function/author_of_preface 0.054762963 0.04441135 -0.18046667 0.0844522 0.30669 0.09466378 -0.019745573 -0.084256016 0.18242888 -0.100625664 -0.033882227 -0.07886445 0.004790254 -0.07225285 0.059964377 -0.1414698 -0.25943896 -0.06255678 -0.038886216 0.019790666 0.08090922 0.21620223 0.12834412 0.039562672 0.09336201 0.077449456 0.040579777 -0.0009776053 -0.03361572 0.06422102 -0.014161399 -0.054843027 -0.15880077 0.08857266 0.06003182 0.006883442 -0.08197089 0.21356045 0.029796245 -0.12336221 -0.04174253 0.012797396 -0.13481839 -0.025710719 -0.0032475465 -0.06519583 0.12900102 0.041124772 -0.032406915 0.040898822 -0.078937076 -0.037994698 -0.033200298 0.0032373283 -0.078565426 -0.053021807 -0.061173085 0.027351055 -0.02866142 -0.08584327 -0.09540064 0.020763326 -0.13149057 0.107732 0.13246872 0.0032264397 -0.02958062 -0.16583699 0.10693874 0.05902594 0.15811427 -0.09844351 -0.036496148 0.19594365 0.06926591 0.16915587 0.010407395 -0.018977473 0.017647998 0.017580431 -0.003898238 -0.119171284 0.0039099557 0.17243409 -0.046893198 -0.02326397 -0.10148291 -0.03261371 0.0051654354 -0.0051555485 0.12333835 0.048835836 -0.27813217 0.01795637 0.06754558 -0.006482629 0.052575804 0.10631059 0.089332834 -0.16126004
http://data.doremus.org/vocabulary/function/creator 0.053041413 0.04510533 -0.18381564 0.079723716 0.30464965 0.09507315 -0.019241517 -0.080857165 0.18252876 -0.10031806 -0.03963098 -0.08506323 0.0033010885 -0.06599923 0.061375074 -0.14045633 -0.25743726 -0.06375171 -0.03901644 0.022209276 0.08373941 0.21612087 0.12441407 0.03913922 0.08984865 0.0789005 0.037736766 -0.0034457955 -0.033649985 0.057693243 -0.012177162 -0.058789995 -0.15669338 0.09117981 0.05730856 0.0059709256 -0.08313647 0.21147062 0.034068134 -0.12445711 -0.041225903 0.0100982385 -0.1306875 -0.029319454 -0.0030763736 -0.06365906 0.13558897 0.04032419 -0.033082034 0.038150184 -0.08042713 -0.036833208 -0.03388427 0.0063114194 -0.07821308 -0.058738433 -0.067725666 0.027837085 -0.027471527 -0.091269046 -0.100614995 0.016521607 -0.13409348 0.11075673 0.12801483 -0.00047599777 -0.035851788 -0.16361487 0.10738365 0.06351187 0.15966538 -0.103660956 -0.040603377 0.19450074 0.06387871 0.17270464 0.0069453674 -0.015291099 0.018009985 0.02053104 -0.0027842084 -0.11950752 -8.4137944e-05 0.18062976 -0.0462328 -0.016675945 -0.100068666 -0.030570688 0.012123292 -0.010892784 0.12183518 0.045831785 -0.274595 0.023814544 0.070023425 -0.007711245 0.048364647 0.103124104 0.086029865 -0.15923262
http://data.doremus.org/vocabulary/function/auhor_of_annotations 0.05510842 0.04819967 -0.1819211 0.08160537 0.30591995 0.09385914 -0.01939671 -0.08062104 0.18531124 -0.09658337 -0.03635119 -0.07910104 0.0030189003 -0.06485623 0.06452646 -0.14170872 -0.25583792 -0.0645507 -0.03709648 0.023153936 0.08064726 0.21524812 0.12809056 0.039770678 0.09570112 0.075018115 0.03752015 -0.0015073109 -0.030392874 0.06073192 -0.014479977 -0.054902505 -0.15633741 0.08501163 0.054875243 0.00029953313 -0.08433052 0.21412799 0.03006456 -0.12799025 -0.043265563 0.007161254 -0.13216361 -0.03131092 0.0014430335 -0.065401144 0.13148163 0.04276396 -0.034080416 0.04123192 -0.07728763 -0.04061969 -0.03470012 0.0048477883 -0.08264473 -0.052666586 -0.06713367 0.029809276 -0.031682108 -0.08507096 -0.09622924 0.020849623 -0.1320329 0.108125545 0.13028039 -0.0034543183 -0.03137875 -0.16820225 0.10358227 0.061235886 0.1610153 -0.10126341 -0.042232934 0.19979914 0.065327324 0.17020117 0.005460441 -0.013892638 0.019367877 0.01981505 -0.0049201767 -0.11821773 0.0033137163 0.17536841 -0.04215696 -0.022249043 -0.10058378 -0.033464715 0.006882744 -0.011987895 0.124303244 0.048460767 -0.27807522 0.022466708 0.06484788 -0.005986317 0.04858586 0.102770425 0.08996702 -0.15762949
http://data.doremus.org/vocabulary/function/creator_of_musical_fantasy 0.052567683 0.05004912 -0.18213256 0.08199125 0.3002639 0.091545105 -0.023173526 -0.077251196 0.18285479 -0.095178165 -0.039061982 -0.07827991 0.0040431516 -0.069760144 0.06516817 -0.1448467 -0.2606076 -0.06309649 -0.041608613 0.020483784 0.07843177 0.21585284 0.13060838 0.03950371 0.09431825 0.08197533 0.03557443 -0.0013835201 -0.037205014 0.057600528 -0.008694381 -0.056045603 -0.153514 0.08923792 0.056866378 0.0057998085 -0.088175386 0.21016784 0.032999963 -0.12908208 -0.042541094 0.009930934 -0.12970087 -0.031424664 0.0011794214 -0.062212847 0.13332489 0.03859486 -0.03657536 0.040914048 -0.083902046 -0.03484245 -0.03280317 0.0052282833 -0.084563434 -0.05787803 -0.06332421 0.031599417 -0.03220077 -0.0915456 -0.09954691 0.0192067 -0.13146463 0.10962895 0.1278742 -0.0001226478 -0.035997737 -0.16720687 0.10115175 0.063941546 0.15901516 -0.0984239 -0.04004505 0.20017315 0.068111494 0.17164877 0.008123032 -0.015195226 0.015347476 0.02145127 -0.004984755 -0.11638107 4.6412293e-05 0.17448853 -0.044189077 -0.019699419 -0.09958365 -0.032183282 0.008081845 -0.0061893277 0.118491225 0.040702015 -0.2782412 0.018220233 0.069526635 -0.006098193 0.053893987 0.105159365 0.090735175 -0.15969585
http://data.doremus.org/vocabulary/function/radio_director 0.051856596 0.042899113 -0.18286125 0.079061106 0.3045552 0.09361253 -0.022186209 -0.08130034 0.18709843 -0.1009052 -0.036539935 -0.07811895 0.0026523022 -0.0678386 0.06593073 -0.1444867 -0.2621876 -0.06415225 -0.04214024 0.024131224 0.08377729 0.21274893 0.1298358 0.035145577 0.08960933 0.08144521 0.037449736 -0.0012209589 -0.037267826 0.061255593 -0.00963916 -0.058235597 -0.1530004 0.09088785 0.052769735 0.0005889256 -0.08679904 0.21574491 0.031435736 -0.12649982 -0.041092247 0.0078918645 -0.12873395 -0.02918131 -0.0012790146 -0.06618408 0.1359669 0.039667375 -0.031371586 0.042236358 -0.07800426 -0.035601545 -0.029323353 0.0034262303 -0.07978577 -0.056735247 -0.06417688 0.032339036 -0.030428253 -0.08847264 -0.10034587 0.021715635 -0.12779467 0.106437296 0.13290042 -0.002256936 -0.033399157 -0.16417979 0.10171086 0.06457265 0.16054805 -0.09763596 -0.042013425 0.19522615 0.06584709 0.17056395 0.0038656052 -0.016242417 0.017263943 0.021103403 -0.0048731863 -0.12017468 0.0035868585 0.17385957 -0.04930403 -0.019031253 -0.10076797 -0.03303004 0.005189094 -0.008228784 0.12249222 0.0453363 -0.27486756 0.023299117 0.06829185 -0.010639025 0.054160494 0.103932254 0.08602686 -0.15744536
http://data.doremus.org/vocabulary/function/author_of_foreword 0.049072955 0.043025274 -0.18207441 0.08507052 0.30634856 0.09774673 -0.02299515 -0.0806573 0.18426423 -0.09885352 -0.035046972 -0.08358392 0.0054794652 -0.06542506 0.06262096 -0.14331608 -0.26060012 -0.06111432 -0.04237663 0.02027811 0.0778028 0.21318696 0.13000949 0.03764282 0.09354001 0.07532691 0.03727282 -0.0014615308 -0.032744348 0.059620634 -0.01108842 -0.058975168 -0.15493554 0.09031629 0.05927749 0.006862517 -0.08542175 0.21384864 0.03365879 -0.12535574 -0.041392617 0.006488196 -0.13421835 -0.029339928 0.0029808704 -0.06663798 0.12849571 0.041439824 -0.031700302 0.038471308 -0.08364738 -0.042227473 -0.032381985 0.0037879983 -0.08417325 -0.05387327 -0.063614756 0.03142526 -0.027808905 -0.09139989 -0.09490523 0.018052116 -0.13015202 0.10671248 0.13411304 -0.0056766374 -0.032643303 -0.16248575 0.10835032 0.06376161 0.15794834 -0.09790883 -0.040618967 0.19803518 0.06439344 0.17395273 0.0047928714 -0.015814548 0.01822134 0.018217722 -0.0023506226 -0.122058846 0.0039209747 0.17493302 -0.046100963 -0.02051207 -0.1001554 -0.033161264 0.0066733807 -0.006838569 0.123152606 0.04263421 -0.27255476 0.022413636 0.062218606 -0.005663156 0.051142987 0.10136083 0.087680414 -0.16081765
http://data.doremus.org/vocabulary/function/author_of_introduction 0.051896278 0.049772 -0.18513662 0.08191575 0.30451787 0.09186111 -0.024025107 -0.07775946 0.18289547 -0.10042066 -0.039333656 -0.08094818 0.0071592815 -0.06940141 0.06452301 -0.1448194 -0.25518847 -0.06411814 -0.041377664 0.025226673 0.08568161 0.21790536 0.12748185 0.03662 0.0921583 0.0812399 0.03649715 -0.004525851 -0.033799704 0.059201334 -0.011294395 -0.05364872 -0.15201707 0.08490596 0.05563081 0.0031441534 -0.08307739 0.21251781 0.031066624 -0.12933892 -0.040674664 0.008049395 -0.13455912 -0.031635404 -0.004897042 -0.06704762 0.13407628 0.03587171 -0.031573452 0.040896624 -0.07867673 -0.039107956 -0.033199303 0.010428545 -0.08286937 -0.0558507 -0.06645766 0.02729424 -0.032706726 -0.08788527 -0.10025947 0.019824179 -0.12595488 0.11130294 0.12566796 -0.0012451501 -0.031139288 -0.16734831 0.10134684 0.059579127 0.155269 -0.09988966 -0.04125461 0.19544023 0.06772597 0.16889521 0.009789513 -0.016177313 0.01973015 0.019041307 -0.009023476 -0.121266164 0.00041122444 0.17909151 -0.047967594 -0.019200612 -0.101122625 -0.034720536 0.010904974 -0.0053481366 0.12192957 0.04530262 -0.27849331 0.017440131 0.067121565 -0.0123938825 0.047537185 0.103884 0.091488875 -0.15973876
http://data.doremus.org/vocabulary/function/creator_of_musical_paraphrase 0.056121476 0.050111983 -0.18814707 0.08381056 0.30523875 0.09277326 -0.020703482 -0.081657745 0.18093103 -0.09417827 -0.037530717 -0.08549944 0.0082942 -0.067942955 0.061263558 -0.14680761 -0.26033384 -0.06364258 -0.04360167 0.024253555 0.08270004 0.21273056 0.12829301 0.03341313 0.092169404 0.07838214 0.03646278 -0.0073700254 -0.033345375 0.05766177 -0.009048184 -0.057841517 -0.1535538 0.08491781 0.058367223 0.0008309477 -0.08484579 0.21425804 0.029795112 -0.128874 -0.038644698 0.010933685 -0.12983947 -0.030628342 -0.004722978 -0.06299086 0.13054916 0.036788523 -0.033016767 0.040998615 -0.07914911 -0.041555446 -0.028409313 0.0064107175 -0.0850091 -0.053447865 -0.06308115 0.029355586 -0.028981071 -0.08670258 -0.09755613 0.019674439 -0.12777708 0.11187561 0.13193305 -0.0039486787 -0.02857618 -0.17004418 0.102006756 0.0602036 0.15712354 -0.097487114 -0.037021764 0.1994907 0.06694301 0.17427155 0.005735476 -0.011560494 0.017951835 0.018661497 -0.00792679 -0.11660624 0.0008722654 0.1768228 -0.04594495 -0.019872826 -0.09892369 -0.028384328 0.008432429 -0.01031844 0.11852987 0.047939528 -0.27531642 0.021071622 0.06294676 -0.010301404 0.05336647 0.10234473 0.089646496 -0.16177598
http://data.doremus.org/vocabulary/function/child_actor 0.053408895 0.046698447 -0.1811786 0.0842451 0.30579168 0.09167066 -0.024231661 -0.0801808 0.18148851 -0.09878091 -0.04014146 -0.08064202 0.006921877 -0.06904765 0.06413168 -0.1421149 -0.25828287 -0.0634016 -0.040305138 0.018952552 0.08161356 0.21673526 0.12836556 0.037614476 0.09021667 0.08044388 0.039862774 -0.0062006162 -0.03178541 0.061158 -0.0136284195 -0.052695576 -0.15286373 0.09104363 0.05350688 0.0019946706 -0.08580785 0.21102075 0.032783058 -0.12967452 -0.040896527 0.007438402 -0.13221964 -0.026303044 -0.0037664224 -0.06616992 0.1311343 0.03959113 -0.03316652 0.03864373 -0.082719624 -0.040668003 -0.032309394 0.005862476 -0.082113594 -0.05743253 -0.06685337 0.026541384 -0.030194512 -0.090666406 -0.09964537 0.014658436 -0.12830564 0.1069421 0.13042213 -0.0041223853 -0.033806473 -0.1685664 0.103101335 0.06160597 0.15833941 -0.103425846 -0.039549 0.19911526 0.063197546 0.17525661 0.0051365006 -0.017385568 0.018133754 0.020670466 -0.008654002 -0.11752016 0.0005440966 0.17234474 -0.04397846 -0.019746182 -0.09891902 -0.027201494 0.009348935 -0.0045916126 0.120318964 0.045416627 -0.2776329 0.021579377 0.07002308 -0.012306093 0.05370933 0.10288495 0.08588406 -0.16047305
http://data.doremus.org/vocabulary/function/sound_technician 0.048141956 0.04795356 -0.18505555 0.08455092 0.3019782 0.09236699 -0.023549182 -0.07750781 0.18363747 -0.100836754 -0.038739048 -0.07810719 0.0054039336 -0.066949576 0.058052674 -0.14002326 -0.2546783 -0.059266463 -0.034450408 0.022552652 0.08654468 0.21871054 0.13356629 0.033275276 0.086511396 0.08258197 0.039634056 -0.00534079 -0.034865182 0.06161434 -0.014674585 -0.05408497 -0.15680109 0.08343435 0.051828906 0.0024733818 -0.08182269 0.2155925 0.027503166 -0.12853943 -0.040664926 0.0060527087 -0.13579933 -0.028954739 0.004311157 -0.0657926 0.12961248 0.036122892 -0.034298584 0.03718451 -0.07606741 -0.03860129 -0.02970404 0.01049184 -0.08353523 -0.051274538 -0.060356986 0.030250136 -0.028444387 -0.093783356 -0.101109445 0.013369179 -0.12625264 0.11329299 0.12501289 -0.002783438 -0.035366576 -0.16403706 0.10672882 0.05748559 0.16368827 -0.09672111 -0.036960416 0.20052654 0.06945557 0.17390053 0.002432547 -0.01058499 0.018021706 0.015157896 -0.0044504222 -0.11571152 -2.2062757e-05 0.18040705 -0.04846206 -0.022687113 -0.10217929 -0.029889226 0.01305126 -0.012231759 0.12377391 0.046058588 -0.27940553 0.023212964 0.06426921 -0.010425343 0.048309177 0.09997736 0.08732496 -0.16052468
http://data.doremus.org/vocabulary/function/screenwriter 0.047241803 0.04671928 -0.18697478 0.0865504 0.30039516 0.09492578 -0.023600569 -0.08013293 0.1801945 -0.09951134 -0.032195013 -0.08180953 0.0038768516 -0.065714076 0.06605849 -0.14454238 -0.26025447 -0.061988592 -0.04442531 0.020921685 0.07748741 0.21274604 0.12870678 0.038270026 0.09618357 0.08152163 0.035416365 -0.0015831463 -0.03246346 0.062036242 -0.016384993 -0.055066977 -0.15512893 0.08438098 0.054750636 0.0029704224 -0.08505219 0.21317296 0.031377483 -0.12412077 -0.043625016 0.00935648 -0.12819505 -0.029567624 -0.0007157025 -0.06559229 0.13612156 0.04402598 -0.03768585 0.036958087 -0.084308125 -0.04257347 -0.030388054 0.00935507 -0.07794791 -0.0572218 -0.06729987 0.030918509 -0.026312964 -0.089361645 -0.09402503 0.019833215 -0.12995017 0.1077048 0.12981832 -0.00021994139 -0.032261044 -0.1677868 0.10879199 0.06357383 0.16011988 -0.10023719 -0.03465795 0.19493786 0.06449037 0.17648606 0.0087178005 -0.01335774 0.017218387 0.023254126 -0.004879684 -0.11796472 0.0048650578 0.17770155 -0.04738756 -0.023228524 -0.09993576 -0.033188242 0.004887792 -0.0067746034 0.12225855 0.047629975 -0.2738054 0.017823344 0.06402786 -0.0064351247 0.050297886 0.106799446 0.087210536 -0.16254042
http://data.doremus.org/vocabulary/function/musician_(creator) 0.04690668 0.050620608 -0.1868097 0.07763812 0.3037805 0.092244655 -0.026752463 -0.07783759 0.18672964 -0.09763451 -0.04061814 -0.077515036 0.004842621 -0.068744995 0.067359656 -0.1433924 -0.26008922 -0.06582144 -0.043664113 0.019576319 0.07676725 0.21390134 0.13028823 0.033094797 0.0950319 0.076418675 0.039996766 -0.00012077453 -0.032816272 0.06429919 -0.014727921 -0.05101787 -0.1528183 0.09139509 0.052248165 0.007610515 -0.08106337 0.21199645 0.02824959 -0.13043317 -0.03782813 0.0055113654 -0.12773274 -0.027721478 -0.003347049 -0.061850518 0.13587259 0.036143888 -0.03703108 0.040663265 -0.07852034 -0.043496165 -0.028381698 0.010657785 -0.080202244 -0.0577691 -0.062889375 0.033268616 -0.03128631 -0.08446602 -0.09380857 0.022582289 -0.1247728 0.11388631 0.13106261 -0.004295515 -0.03748052 -0.16635743 0.10103629 0.063760415 0.15591735 -0.09917717 -0.036998253 0.20155016 0.063628756 0.1746192 0.0017246511 -0.016399821 0.019787613 0.017843824 -0.0070187286 -0.11700418 0.0030025106 0.17713718 -0.0433206 -0.015510681 -0.096849255 -0.026631238 0.004688534 -0.011664041 0.12676331 0.048543636 -0.2771516 0.019337906 0.07021794 -0.004562124 0.05478139 0.10063193 0.08729715 -0.16302247
http://data.doremus.org/vocabulary/function/dance_notator 0.051860787 0.047480654 -0.18739498 0.079064034 0.3042576 0.09920828 -0.025771972 -0.079729326 0.18223077 -0.10168105 -0.037854545 -0.078588516 0.00087314437 -0.069088966 0.06673316 -0.14213459 -0.2599222 -0.06594171 -0.03827131 0.02442022 0.07848803 0.21077336 0.123390414 0.03638984 0.09475803 0.0794361 0.042400148 -0.0037918452 -0.037149604 0.06296906 -0.012760256 -0.056081224 -0.15387675 0.08784798 0.05675337 0.0025939057 -0.08541572 0.2165697 0.034032147 -0.12298578 -0.040083785 0.0042551826 -0.13217638 -0.027555114 0.0020076975 -0.06610498 0.13286567 0.038995296 -0.034600984 0.03957187 -0.080229975 -0.03698097 -0.029008973 0.003215669 -0.086056136 -0.051700532 -0.06622291 0.025360188 -0.027490476 -0.08785445 -0.09361266 0.019832293 -0.12846942 0.10832594 0.12886025 -0.006045218 -0.032649513 -0.1704673 0.10487688 0.061825443 0.15604706 -0.10014956 -0.041930776 0.20154913 0.06892487 0.17244667 0.009651738 -0.015076533 0.01805585 0.0155874835 -0.0004894953 -0.11657748 0.00084540335 0.17798781 -0.050203886 -0.023095218 -0.09739507 -0.031357884 0.007028674 -0.006246997 0.11814558 0.044571493 -0.27941382 0.015850678 0.0677123 -0.01016314 0.04991223 0.10099096 0.08603253 -0.15571159
