1435 100
http://data.doremus.org/vocabulary/iaml/genre/zz 0.014745247 0.083670706 -0.16069141 0.18935227 0.056384973 -0.0007806911 0.0067990255 -0.047420867 0.05339076 0.02593808 0.11184535 -0.030441552 -0.034320135 -0.09817197 -0.092290424 0.09170503 0.18358074 0.118612334 0.0028485516 0.08091349 -0.07713001 -0.1396641 0.032211155 -0.039896 -0.13090709 -0.12669115 -0.117341235 0.10865664 0.070326656 0.18980882 0.124225765 -0.03293652 -0.009586489 -0.033071898 0.31076777 -0.062430866 -0.042137302 -0.018519757 -0.005183499 -0.040725935 -0.13056444 0.17449933 0.06682344 0.026593117 -0.017686931 -0.042413734 0.13301645 0.048356783 -0.044742152 -0.22745922 -0.1767792 -0.03509253 0.09985851 -0.003972723 -0.067802556 -0.16749404 -0.15988275 -0.076687366 0.065076254 -0.1032921 -0.043945797 0.09317281 0.023801774 0.02630244 0.17791565 -0.10868308 -0.11383088 0.16663817 0.004889818 -0.004455089 0.15214114 0.17844455 -0.053599514 -0.08405188 0.010206014 0.10793353 0.058262005 0.0417756 0.040987242 -0.036418617 0.15469363 -0.08600421 -0.05523237 -0.0855365 0.0058420426 0.029426975 0.22636354 -0.02721567 0.05644892 -0.11336055 0.045656756 -0.021487992 -0.04823648 0.09694986 0.020766025 0.05787814 -0.04385086 -0.07593091 0.09710547 -0.00797666
http://data.doremus.org/vocabulary/iaml/genre/sg -0.051618855 0.113874115 0.069368884 0.002605866 0.04311996 -0.13453123 -0.009245295 0.09472704 0.014761059 0.058456954 -0.067227535 -0.101793274 0.10117214 -0.03756201 0.0074357805 0.0066068987 0.13259527 0.018616961 -0.11165893 -0.013977138 0.04049817 -0.004217125 -0.16478223 -0.1741021 -0.13363412 -0.0023284897 0.1533697 0.01580077 0.03536336 0.08366432 -0.006369189 0.14079113 -0.032187622 -0.01845826 0.061797187 -0.0728471 0.12017855 -0.033802375 -0.040322 0.07128866 -0.14077409 -0.06406772 -0.011267438 -0.04891312 -0.21707198 0.1563146 0.007579119 -0.14784732 0.05993272 0.13830824 0.0023595796 -0.090199545 -0.014142665 -0.041768458 -0.048341963 -0.03139518 -0.12262659 -0.21615198 0.13974693 -0.023381675 -0.1450144 -0.04593415 0.08645819 0.09595948 0.00044077472 0.01973313 0.08913292 0.1658608 -0.06083601 -0.055448797 0.12897089 -0.017936395 -0.105273195 0.0017553187 0.075844996 0.160544 0.1469456 -0.077474 0.008349942 -0.04251809 0.009884274 0.058811393 -0.1368273 -0.10625091 -0.0076660556 0.19389486 0.023233688 -0.22885008 -0.13450678 0.047826882 0.15212686 0.11100108 -0.1456986 0.14308265 -0.14369828 -0.13886164 0.18976402 -0.110697925 -0.068896994 -0.063502364
http://data.doremus.org/vocabulary/iaml/genre/mld 0.09191752 0.063852444 0.01717388 -0.020866407 -0.024452314 0.00920337 -0.030544005 -0.06286012 0.04852415 0.15410262 -0.1266165 0.07370111 -0.12579574 -0.03977334 0.052670866 -0.12790169 -0.21276557 0.06819594 -0.01233802 -0.13000828 -0.036804486 -0.026719557 0.012425826 0.051881194 0.1440684 -0.090565816 -0.083128996 0.15531853 -0.00589146 -0.025669206 -0.013663138 0.047707513 -0.09628801 0.028492544 0.22220308 -0.20431915 0.10935684 -0.09201699 -0.20989777 0.037390504 0.17459978 -0.012333586 -0.107734926 0.10766402 0.05514158 -0.012975829 0.07508586 -0.07501594 -0.1263259 -0.12916182 -0.15260945 -0.1783971 -0.12392745 -0.0049340166 0.17104019 -0.0049893786 -0.0486241 -0.066509314 -0.019153722 0.052184876 -0.09434663 0.0054328684 0.026896708 0.10067388 -0.05416337 -0.2000536 0.012227074 -0.029298613 -0.14865713 0.10029873 0.110393696 -0.027749892 0.052027278 -0.052980885 0.047611527 0.03708244 0.054768223 -0.05183488 -0.034025304 -0.049581464 0.012809071 0.040927637 -0.035308402 -0.069518186 0.15485257 0.13426486 -0.109284826 -0.17137973 -0.09247499 0.040612638 -0.00022900577 0.09090252 -0.32257602 0.11745673 -0.028653577 0.03109057 0.112142816 -0.07509533 0.09282815 0.02901816
http://data.doremus.org/vocabulary/iaml/genre/mo 0.025096916 0.183441 -0.06481402 0.08958382 -0.10650174 -0.039056834 0.017022789 0.07582705 0.18880093 0.04341204 0.17159696 -0.011969617 0.10171581 -0.076160476 0.018807035 -0.17274678 -0.06195143 0.05508489 -0.014557535 0.0016383707 0.09838425 0.08679449 0.02395454 -0.07187413 0.11333599 -0.1140141 -0.034157056 -0.08143095 -0.13121265 -0.02892545 -0.05138177 -0.024255715 0.056561783 0.13201746 0.28204718 -0.15232374 0.04290895 0.016933084 -0.035036687 0.083895266 0.15718336 -0.118127674 0.08154246 0.15867803 0.063730285 0.11675073 0.06112571 -0.14147499 -0.012973005 0.05485388 0.076975584 -0.03306638 0.00042498758 0.22006534 -0.07977966 -0.08317272 0.11821219 -0.15304242 0.044831175 -0.121564105 -0.007017783 -0.030055678 -0.09779419 -0.12292864 0.04144892 0.13487695 -0.092867136 0.11100643 -0.13313645 0.021291168 -0.02709862 -0.057575777 0.12648472 0.058221508 0.022030968 0.019964874 0.035820235 0.08720594 0.026467692 -0.1797806 -0.018998565 0.13783166 -0.007599728 0.03322328 0.19329542 0.07375614 0.038723122 -0.13753799 -0.18017747 -0.05202161 0.07532996 0.04577821 -0.17825462 -0.02060866 -0.047262862 -0.19504048 0.026553463 -0.07587503 0.053750597 -0.07045942
http://data.doremus.org/vocabulary/iaml/genre/df 0.2454173 -0.14362071 0.11722953 0.08268479 0.049134605 0.040361553 -0.039781325 -0.076784484 0.11565644 0.06026902 0.1012875 -0.051433872 -0.16426215 0.09304458 0.122105256 0.060657043 0.035256486 0.22959815 0.0034020154 -0.10144996 -0.031858027 0.06569316 0.017750062 -0.0024029387 -0.101898625 0.056692716 -0.09612602 0.053605568 0.056363363 0.03074412 0.107766345 0.20885707 -0.071308784 -0.002841076 0.22206181 0.115201086 -0.09549081 -0.017601795 -0.19041073 -0.096519716 -0.13480572 0.07711057 0.15144603 0.062348902 0.0031198186 0.11783173 -0.0008440493 0.1618117 0.08579705 -0.01229419 -0.01081516 0.05365765 -0.019200582 -0.010432404 0.16550821 -0.11697802 0.069266506 0.035659853 -0.08174967 -0.0107269 0.09863997 -0.089993924 0.15950891 0.14745532 0.09465437 -0.08877091 -0.09479688 0.13176139 -0.15880276 -0.07282734 0.012237656 0.13226765 0.032785155 -0.091237724 0.021699267 0.015704414 0.08501085 0.18497911 0.032304082 0.07334871 -0.022609904 -0.044044483 -0.022573723 -0.022997044 -0.017155644 0.01823843 0.0067441985 -0.11804108 -0.11916918 0.030059967 0.05095522 0.12777884 0.015918521 0.09762221 -0.07480925 -0.14250198 0.190527 -0.010362687 0.104169324 0.14095822
http://data.doremus.org/vocabulary/iaml/genre/sn 0.08197707 0.1881681 -0.052509136 0.102566145 -0.13236946 -0.018543418 -0.1398726 0.010629906 0.072285265 -0.117297664 0.02117657 0.10706986 -0.02900798 0.049890827 0.045310352 -0.12770809 -0.06934703 0.0007223262 -0.047341406 -0.07585187 -0.05481359 -0.047080323 -0.07873895 -0.07008271 -0.1705764 0.005668857 0.041150063 0.07420351 0.056074046 0.16406554 -0.012975946 0.060668465 -0.21740796 -0.058992237 0.020510694 -0.06385773 0.14092724 -0.045912277 -0.13631053 -0.087281875 -0.044465337 -0.12028239 0.09609337 0.07799434 -0.044023946 -0.09974063 -0.09722289 0.05876999 0.0133083705 0.10317545 -0.07955605 -0.09927462 -0.072668955 0.21637994 -0.10089451 -0.025497114 0.014513691 0.050462425 -0.0012989534 0.006996777 0.064748764 -0.03025469 -0.27506438 0.1309868 -0.037214197 -0.16866367 0.0855028 0.1595072 -0.005588996 -0.04392313 -0.0060197953 0.1710502 -0.042091392 -0.017032426 -0.08834295 -0.014107631 0.099951714 0.059456702 -0.09162499 -0.0060334634 0.015340356 -0.008542635 0.09573253 0.060323656 -0.1569305 0.14730018 -0.10430912 0.004808122 0.050315343 -0.1607251 0.10772834 0.16953045 0.042164028 -0.007838883 -0.18858731 0.12824057 0.14863656 0.025519157 -0.15625662 -0.19628294
http://data.doremus.org/vocabulary/iaml/genre/wz 0.06511473 -0.15676259 0.011911731 0.27242604 -0.0122115165 -0.112475015 -0.105499506 -0.069685705 0.05415702 0.0377354 0.081298634 0.06836083 0.007293751 0.016757268 -0.06979606 0.008499093 -0.044270225 0.18379895 -0.009374147 0.13532878 0.111585476 -0.13582098 -0.07400669 -0.087613136 0.09173332 -0.122549176 0.11045252 0.069421254 0.033458356 0.09537594 0.090289794 0.11338408 0.0361201 0.17118354 0.13404313 0.054372277 -0.03676914 0.29946023 -0.009187889 -0.09444406 0.14689161 -0.12399267 0.16173859 0.14807001 0.03123547 0.0018772288 -0.013166144 -0.11690727 -0.01888303 0.0838857 -0.05593025 -0.17978302 -0.089790896 -0.028765 -0.01489057 -0.008793477 0.03108091 0.013447835 -0.074790835 -0.081973724 0.025286807 0.119830936 -0.07071653 0.02698336 0.041817557 -0.20986564 0.06865894 0.09869174 -0.15087602 -0.20100057 0.104974486 -0.040384673 0.08597253 0.05379767 0.062034838 0.02040322 -0.022411574 0.1060611 -0.08488657 -0.053081356 -0.028757485 -0.018683597 -0.14061911 0.073516116 0.0690439 0.1454644 0.021653108 0.031499732 -0.010394428 0.08059409 -0.05618058 0.15116768 -0.13592729 0.06124392 -0.00042280633 0.08543427 0.1408317 -0.037063345 0.13427655 0.11003587
http://data.doremus.org/vocabulary/iaml/genre/co -0.076527424 -0.03059404 -0.0587558 -0.030432489 -0.029199118 0.083181575 0.014981263 -0.108384006 0.2638395 -0.067733526 -0.018548412 -0.14673033 0.015861684 0.057594057 0.036538973 -0.1555568 0.08811502 0.17819327 0.011414734 0.07226811 -0.1519634 0.18816242 -0.07332265 -0.09821956 -0.054581407 0.035319716 -0.06549248 0.11331657 -0.0770901 -0.001294578 0.09360633 0.055231158 -0.008252757 0.1708322 -0.08678253 -0.060170084 0.021707384 -0.042465307 0.0131717995 0.018262079 -0.24313685 0.18985973 0.0746912 -0.05524967 0.076179124 -0.044622112 0.047042962 -0.09865338 -0.063899115 0.07080738 -0.044656247 -0.105895266 0.1422243 0.23629218 0.040881753 -0.087626494 -0.16725506 0.28731474 0.06559872 -0.063918315 -0.05715278 0.15520743 0.077038616 0.10691805 -0.0787539 0.003491971 0.043078452 -0.012973373 -0.048714433 0.06116915 -0.06887078 0.116972625 0.05149548 0.033125713 -0.13341819 -0.0038187443 0.07453688 0.24015397 -0.040219862 0.017037118 0.086996704 0.015612076 0.11180259 -0.038378794 -0.13068362 -0.037761558 -0.02546095 0.047405418 -0.069895275 0.029728755 -0.053292964 0.104838565 -0.03656691 0.011720608 0.057085887 0.06622417 0.102063455 -0.1508585 -0.08708068 0.12725466
http://data.doremus.org/vocabulary/iaml/genre/dui 0.029906215 -0.09163368 0.061587274 0.10195654 -0.03712112 -0.0717799 0.058349267 0.047865383 -0.038517192 -0.014311578 0.12095384 0.13995059 -0.026735919 -0.040617235 0.32456097 0.02697729 -0.07387172 0.14396854 0.05473536 0.106925204 -0.0420208 -0.13931945 -0.06407672 -0.0680266 0.027390847 -0.14141564 0.030118069 -0.052994523 -0.14170018 -0.091533415 -0.14231999 0.07777464 -0.08562554 -0.040911537 0.12245298 -0.11564788 -0.02615684 -0.14217158 -0.023631759 0.007195925 -0.038709987 0.05227035 0.119535975 -0.1515681 0.055030804 -0.008341229 -0.15293045 0.044309124 -0.10256096 0.20544872 -0.15715106 -0.16826831 -0.10763425 0.19167025 -0.10776711 -0.07317925 -0.0418629 -0.07882199 0.018203665 -0.04359965 -0.101683185 0.043201476 -0.14378844 0.030811096 0.009165329 -0.25172904 0.010889346 0.043407366 -0.12957567 -0.05921228 0.08154286 0.17407943 -0.029170966 0.013644803 0.031671453 -0.061056454 0.08382199 0.18302496 0.006924124 -0.033430923 0.011409441 -0.04249526 0.10177645 -0.05916408 0.10384794 0.076422304 0.16436616 0.015109431 -0.15031064 -0.024250599 -0.05456726 0.10110319 0.05352469 -0.055580486 -0.03655915 0.07298923 0.15250821 0.06471075 0.046823397 -0.13366611
http://data.doremus.org/vocabulary/iaml/genre/li 0.042947583 -0.09999116 -0.09168157 -0.039041918 -0.13596804 -0.104402274 0.12467572 0.037024204 0.11523757 0.07166797 0.14672557 0.18603505 0.007532498 -0.11711379 -0.056142054 -0.026551366 -0.0585033 0.021774976 -0.093184635 -0.028416848 0.004100732 0.10789042 0.05536735 -0.107940875 -0.05382819 0.03169479 0.050359044 0.22392975 -0.07417192 0.04849814 0.06259489 0.14630796 -0.059460852 0.08211938 0.2603638 0.0007493688 0.056412082 -0.08428253 -0.09435757 0.15411845 0.07860166 -0.04543398 0.019329049 0.070484765 0.053290058 -0.07778244 0.09238539 -0.09519331 -0.056327514 0.13511473 -0.14601803 -0.034753744 0.02564214 -0.034528002 -0.067030124 -0.062216233 0.05403844 0.0067781215 -0.04611321 -0.19067568 0.034795772 -0.01623536 -0.061792057 0.041318152 0.02408793 -0.017500997 0.12870957 0.23656805 -0.009826755 -0.091357104 0.06377799 -0.12275235 0.024315234 -0.045357037 -0.020934144 -0.03795694 0.026560597 0.1707622 0.01913393 -0.07449137 0.10101888 0.06578878 -0.11167019 0.095725514 -0.017793305 0.20465282 0.009648928 -0.16372214 -0.14796644 -0.035677254 -0.07896483 0.055314988 -0.24694046 0.24569951 -0.012218697 -0.056734517 0.08316118 -0.17338294 0.042167373 -0.063383445
http://data.doremus.org/vocabulary/iaml/genre/op -0.055573966 0.017413113 -0.05414243 0.13958722 0.020500444 0.07531394 0.062417 -0.13352524 0.22416401 -0.03486503 0.12651369 0.13095 0.05263471 0.0001251274 0.06910698 -0.10325756 0.094549425 -0.0140872905 -0.039101537 -0.15453154 -0.017306644 0.23000939 -0.008125202 -0.14708506 -0.10738249 -0.047130693 0.048705377 0.039386652 0.0014258018 0.07430857 0.17210235 -0.047031075 0.15599187 0.08263349 0.007601319 -0.011873659 0.037090637 0.042573404 -0.10898585 -0.004785737 0.015556014 0.008839276 0.05295463 0.042169668 -0.027536003 0.005391865 0.056684017 -0.10554419 0.08696207 0.05937185 0.024078922 0.06215735 -0.06983964 0.03608484 0.021876067 -0.19208942 -0.06456467 0.13494416 -0.06664067 -0.11699591 -0.13942824 -0.061412886 0.17492615 0.10526645 0.08989866 -0.034186214 0.11472159 -0.006001719 0.056149445 -0.03907423 0.21220627 -0.06277753 -0.003676384 0.1085384 0.023181144 -0.019838553 -0.17399265 -0.12036812 0.21158215 -0.0096266875 -0.15986231 -0.12996472 0.17816319 -0.099686995 0.2475198 0.02386304 -0.122340485 0.12519073 0.036942463 0.10309287 -0.1322972 6.370746e-05 -0.19023854 0.052247122 -0.028497754 -0.021952948 -0.016202025 0.08189871 -0.050505325 0.11751083
http://data.doremus.org/vocabulary/itema3/genre/musdoc/51 -0.038310338 0.038582798 -0.051689636 -0.06562897 -0.21681248 0.05086013 0.06282204 0.056294084 0.03572769 -0.022520158 0.20647213 0.10348753 0.041839194 -0.10889959 0.05381981 -0.007206029 0.12721689 -0.023669533 0.07031256 0.08019225 0.10512686 -0.09483022 -0.016144564 0.041711833 -0.1955404 0.1287447 -0.03332017 0.02681242 -0.031786002 -0.03327628 -0.017117823 0.06603027 -0.19832517 0.03968896 -0.005954022 0.017997563 -0.10475646 0.10374437 -0.0113031985 -0.09753441 -0.03608632 0.029265607 0.051149137 0.16436303 0.032698337 -0.003940664 -0.08599801 -0.00033749646 -0.020610487 -0.12808906 0.04751908 -0.20918098 -0.07583463 0.06986027 -0.023694633 0.06828378 0.13668925 0.14649083 0.0064079515 0.026801985 0.13215612 -0.073060006 0.17201303 -0.13449353 -0.03555799 -0.013494247 0.29753935 0.15144782 -0.093160525 -0.12859656 -0.08196135 0.01048039 0.08098522 -0.16108638 -0.15477166 0.070615426 0.19017541 0.18471831 -0.028150963 0.08659455 -0.08169613 -0.104212925 -0.020219257 -0.029199913 -0.10167953 0.24624115 0.00304279 0.0039318614 -0.043209948 0.10313183 0.17119282 0.0047096433 -0.047801957 0.006235005 -0.023138136 0.104544744 0.056817833 -0.10309054 0.027220825 -0.010086564
http://data.doremus.org/vocabulary/iaml/genre/su 0.0120104095 -0.002290786 -0.03020067 0.10865385 -0.035521887 -0.009042251 -0.036038112 0.13240317 0.048713814 -0.049146872 -0.09817754 -0.021179829 0.15173878 -0.017892828 0.052022733 -0.2629464 0.1519458 0.05664365 0.03136946 0.030238165 -0.06295439 -0.03741051 -0.14464957 0.09277623 0.076418795 -0.042201523 -0.026704757 -0.08217132 -0.001613062 -0.1299229 0.08863854 -0.048914745 -0.00819924 0.11610881 -0.093350925 -0.16590023 -0.07086587 0.029129878 0.059754375 -0.12142939 -0.16189787 0.044327 0.21546397 0.1678807 -0.09762113 0.047025252 0.17354254 0.038243443 0.0035861055 -0.014484474 -0.0008508397 -0.13237625 -0.056261666 -0.08541651 0.023444124 0.0506985 -0.008503987 0.096393704 0.18438835 0.103979 0.0140352985 0.15225716 0.049483724 0.014577906 0.05770846 0.09327463 0.04052557 0.24533994 -0.08120291 0.037517894 -0.06123029 0.13734771 -0.05337731 -0.009922465 0.21538317 -0.039615743 -0.054552853 0.21692628 -0.031177046 0.12606266 0.08050245 -0.023112146 0.07192504 -0.24705866 -0.1462429 -0.053107858 -0.062397424 -0.03823831 -0.09239948 0.07916142 -0.12697119 -0.0014446352 0.04836637 0.16110876 0.0024401648 0.07771795 -0.051610608 -0.12139117 0.10725049 -0.026861902
http://data.doremus.org/vocabulary/iaml/genre/ct 0.05320687 0.1210504 -0.049225666 0.24688181 0.11664806 0.07869701 -0.15406695 0.0064174104 0.20510837 -0.093379244 -0.02762642 -0.07086532 0.110599786 -0.09250916 0.06085489 -0.2847231 0.13647126 -0.034596384 0.15992773 0.023347583 0.08634738 0.17150843 0.06698897 0.015897471 -0.053920224 0.079923525 0.027888026 0.007270201 0.009826647 0.10866796 0.117596045 -0.139284 0.10950862 0.12502322 0.08847132 -0.086894654 0.054231282 0.11228811 -0.05905996 0.17016143 -0.002038726 0.1225189 -0.13419533 -0.051571008 0.102924675 0.01873856 0.05340129 -0.09021355 0.04744378 0.14920506 -0.08564047 0.008594875 -0.033248313 0.13078542 -0.07977357 -0.06972097 -0.050352693 0.06266999 0.04214564 -0.08505896 -0.111167595 0.0410524 -0.08833683 -0.14560464 -0.018809631 0.15173578 -0.026494266 0.046495743 -0.090559274 -0.060761098 0.05602944 0.19092381 0.0046582036 0.022564324 -0.06225288 0.03978676 -0.010312895 0.022627657 0.07877875 -0.21550661 -0.049443737 -0.01418362 0.085709095 -0.033769123 0.032666862 -0.004189843 -0.11118185 0.012226526 0.0015929072 0.048795518 0.04374749 0.13838735 -0.07479352 0.11711008 -0.20498267 0.18017784 -0.024255807 0.060195487 -0.09445663 -0.10020983
http://data.doremus.org/vocabulary/iaml/genre/qua 0.0035496692 0.0054454594 -0.13503718 0.066551305 -0.06790361 0.11388019 0.04025043 -0.0014855338 0.01999717 -0.037927806 0.04947335 0.07083201 0.12975079 -0.008715111 -0.040997617 -0.16513094 -0.038716197 0.20127787 0.13398473 0.07024776 -0.041009236 -0.08806975 0.042417098 -0.07491556 -0.10958627 -0.024835335 0.042478606 0.0709954 -0.15882234 0.033723228 0.08872074 -0.0050446787 -0.055057853 -0.08408242 0.041164793 -0.21841344 -0.13889189 -0.18325908 -0.043586615 0.032820348 -0.08200393 0.0025742447 0.160731 -0.019654313 0.12486747 0.032556355 -0.06830187 -0.080883525 -0.069931686 0.10125971 -0.007020911 -0.10095463 0.011186717 0.11627915 -0.039935093 0.15165992 -0.16844754 -0.033958264 -0.044662803 0.049244363 0.037008185 -0.03572814 -0.13674958 0.16356575 -0.32831562 -0.114226915 -0.025772765 0.06312074 -0.086707674 -0.21444401 -0.00031878706 -0.014694378 -0.03617569 -0.020831434 -0.08106958 -0.009542854 0.18392652 0.1817122 -0.13516104 0.09425846 0.19209304 0.03276203 -0.046022557 -0.013709982 -0.0031055606 0.08466547 0.024163553 -0.020026557 0.081820585 0.1536415 0.13532303 0.14208564 0.17453846 -0.0574511 0.012814141 -0.078427136 -0.035445623 -0.045093637 -0.05700216 0.011707268
http://data.doremus.org/vocabulary/iaml/genre/cp -0.06183289 -0.094506085 -0.06435858 -0.06970986 -0.012189576 -0.08649959 0.02149628 -0.017513052 0.21448526 0.13428149 0.005021065 -0.03925215 0.029017858 -0.13478784 0.0077253394 -0.1709311 -0.07008333 -0.049348313 -0.06504689 -0.09838265 0.05174941 0.09568591 0.17945889 -0.029186698 -0.03937706 0.016014619 -0.008983372 -0.03801364 -0.052494638 0.15745024 0.11689987 -0.038958948 -0.038002826 0.07007612 0.042682856 0.022589134 -0.17283964 -0.09597995 -0.12851982 0.20128103 0.060746364 -0.06371489 -0.08628559 0.22757044 0.18045604 0.09741099 0.04123961 -0.054530896 0.0045134495 -0.027071243 -0.040957294 -0.088907704 0.022634353 -0.08298579 -0.06961186 -0.14184383 0.0315669 -0.12525193 -0.023724081 -0.034799445 0.046378028 -0.016671663 0.05744174 0.14394297 0.00064290693 0.05330003 0.08777598 0.047001176 -0.050588362 0.111949064 0.11529172 -0.011385585 0.18329078 -0.050955087 0.07044695 -3.8472735e-05 0.12549534 0.08594804 0.015509076 0.023008706 0.06424844 -0.056688473 -0.050197795 -0.20573117 0.037217766 -0.14591901 0.08879303 -0.16073133 0.09202104 -0.23191287 0.007303859 0.122675136 -0.21947724 0.111070655 -0.046328466 -0.1501496 0.13713756 -0.12685764 0.08268393 -0.13573402
http://data.doremus.org/vocabulary/itema3/genre/musdoc/118 -0.053004883 -0.015500513 -0.086629204 -0.034511637 -0.20478012 -0.01771888 0.095500834 0.08933181 0.014767024 -0.01307596 0.2205055 0.024867754 0.095641606 -0.13257961 0.028434565 0.041811414 0.08474362 -0.07762759 0.13012709 0.11286637 0.13916312 -0.09681986 0.02325521 0.034469824 -0.21327034 0.10216785 -0.05110041 0.011681856 0.0044713663 -0.015567544 0.068494104 0.036345914 -0.21851279 0.06332123 0.05212714 -0.0010283332 -0.07485877 0.16088729 -0.00020675095 -0.079550765 -0.024503386 -0.04562115 0.060785815 0.19428726 -0.049533617 -0.019230694 -0.05924629 0.015046427 -0.027787406 -0.10616904 0.069450684 -0.22463042 -0.0646016 0.0415415 -0.033375803 0.07135776 0.1632328 0.036777884 0.04153408 0.067005135 0.07583163 0.030523544 0.2077426 -0.12335903 0.05818889 0.032748166 0.24120171 0.16290274 -0.15064609 -0.093456864 -0.09805244 -0.014559368 0.065369725 -0.1868964 -0.085899994 0.07864655 0.16401477 0.2010687 0.011331636 0.06298693 -0.105871096 -0.063921735 0.029201154 -0.035107974 -0.04985977 0.19972987 0.09011277 0.024584083 -0.04954193 0.09733189 0.11023257 0.031170081 -0.009786648 0.024424829 0.027750332 0.07912925 0.1343464 -0.10696215 0.05922429 -0.03386399
http://data.doremus.org/vocabulary/iaml/genre/mu 0.026340641 -0.2500404 -0.20579319 -0.062366694 -0.11138819 -0.059646476 -0.086755134 0.016705582 -0.13441609 0.019888435 -0.019520232 -0.014467301 0.002008979 0.0015014396 -0.04797072 0.034431506 0.063853435 0.013464216 0.20139821 0.12722339 -0.105096 -0.17394637 0.060550798 -0.114391394 -0.059117146 -0.077559434 -0.04642908 0.091147505 0.05300881 -0.17692403 0.17904633 -0.062164184 -0.159671 0.022803877 0.008540521 -0.19781609 0.083795905 -0.11718078 -0.09302284 -0.123059325 -0.068061054 -0.008833684 0.09800581 -0.013669661 0.05970416 0.08483856 0.10356926 -0.07306928 -0.026551802 0.065177895 0.022567818 -0.11081112 -0.08599015 0.0973238 -0.0926558 -0.06356678 0.13058697 -0.14263444 -0.03012199 0.09058619 -0.047993295 -0.07728887 0.16063482 0.10002907 0.11856407 -0.016954511 -0.03522798 0.16574389 -0.13435052 0.0027021354 -0.02564407 0.018457752 0.22831392 0.085156076 0.07013988 0.06748117 -0.099820286 0.050978757 -0.018459678 0.13087045 0.12299521 -0.11977043 -0.0069021275 -0.09767213 0.15226446 0.10510357 0.054128807 0.045472622 0.108488195 -0.18509534 -0.07076693 0.11822398 -0.037426293 0.065084614 -0.071605325 -0.03440299 0.06386011 0.07400222 -0.0073896935 0.14274032
http://data.doremus.org/vocabulary/iaml/genre/sy -0.00917539 0.003430374 -0.061727736 -0.049896255 -0.038682576 0.12252186 -0.08206317 -0.14144494 0.18742679 -0.08464575 0.08913112 -0.02539867 0.106327906 0.21416332 -0.029140003 -0.19596004 0.16562958 0.09785811 -0.009664565 -0.036919907 -0.071807906 0.17323238 -0.013537949 0.019170659 0.062651135 -0.059366 -0.07087755 0.220993 0.028778344 0.024626661 0.21543953 0.033459328 -0.11451912 0.04454422 -0.06510788 -0.12069651 0.028385898 0.015354308 -0.018664367 -0.13301286 -0.117339134 0.10004592 -0.041466292 -0.06215609 0.0075635496 -0.15812999 -0.01864434 -0.18808047 0.04516013 -0.03518354 -0.099422194 -0.061752364 -0.101267904 -0.049052153 0.08078544 -0.09638494 -0.09422399 0.26375368 0.12985218 -0.010232356 -0.018888002 -0.0015105683 0.07595317 0.036196016 -0.032751717 0.064006396 0.18475725 0.16351935 0.015798781 -0.15168676 0.087531865 0.005030436 0.02467082 -0.1732715 0.02224897 0.09113639 0.020236626 0.16226919 -0.15206365 -0.0008769012 0.025954643 -0.06903641 0.011803922 0.01075497 -0.10460433 -0.06804809 0.064876445 -0.024200348 0.108013935 0.030138459 0.060754962 0.047419004 0.028451938 0.09472054 0.001453214 -0.042394802 -0.014659581 -0.24614087 -0.09581062 0.1213705
http://data.doremus.org/vocabulary/iaml/genre/ai 0.13875037 0.042740215 0.06935185 0.011500343 -0.037728366 0.028880095 -0.08462258 -0.02545623 0.2572528 -0.0062480154 0.022203209 -0.102314204 0.15880509 0.16234599 0.060145494 -0.2365998 -0.09595651 -0.102364264 -0.0020931421 -0.04512317 -0.05572875 0.21061881 0.010186445 0.066047356 -0.104805164 0.097733036 0.06298677 0.06540746 0.028889593 -0.035578646 0.09798299 0.05360184 -0.06370116 0.0778397 0.15448807 -0.13764243 0.054476805 0.047356524 -0.17582324 -0.03569312 0.022151755 -0.049222857 0.05522067 -0.016686631 -0.09184539 -0.0503301 0.19833341 0.010350743 0.13579263 -0.022897482 0.109209046 0.1256045 -0.037491716 0.07702909 0.1573167 0.0059958897 0.107293606 0.005501002 0.009892766 -0.09200412 -0.017989341 -0.050558288 0.13581142 -0.030523662 -0.05821671 -0.011818689 0.163403 0.12004493 -0.1581027 0.14074063 -0.0393422 0.00805537 0.036557183 0.0127097955 0.034964006 -0.11007381 -0.10555638 0.092363045 -0.019959567 -0.059635587 -0.035692513 0.047285277 -0.04046175 -0.03571819 0.007970361 -0.10072681 -0.1477883 -0.10890445 0.003415162 -0.037693594 0.0038759005 0.09621362 -0.27367416 0.2214659 -0.19151443 -0.11188562 0.07934583 -0.062833756 5.656564e-05 0.12833844
http://data.doremus.org/vocabulary/iaml/genre/ft 0.04512376 -0.21442102 0.011163726 0.039732073 -0.12020739 -0.1618244 -0.047503736 0.022906514 0.010252673 0.099404275 0.02335547 0.052208085 0.14203931 0.080515854 0.16547666 0.06808817 0.10556925 0.0033348715 -0.024881748 0.08001713 -0.06792924 -0.06269698 0.042699676 -0.06108833 -0.0069805663 0.006867688 -0.0943559 0.115597725 0.078638926 0.15005359 0.07202993 0.13056166 -0.008646379 0.17751792 0.10864727 -0.07842319 -0.097372614 0.079164505 -0.10201403 -0.060106944 -0.049686234 0.08566807 0.05211195 0.23710638 -0.13173318 -0.01629663 0.047866277 0.051602863 -0.028430555 0.116413385 -0.09977178 -0.25504455 0.023864448 -0.023259701 0.13774495 0.15230921 0.063553795 -0.16571726 -0.07249242 -0.035358448 0.021114022 -0.13034654 -0.004883265 0.0300551 0.20385686 0.013940916 0.06069304 0.039959755 -0.32466367 0.05536018 -0.0045985766 -0.017827692 -0.034833953 -0.025349693 0.05950231 0.033213302 -0.014385219 0.25004664 -0.1311301 0.022501292 0.121609695 0.010662391 0.088874385 -0.008128338 -0.058765583 -0.039736066 0.119378485 -0.007713171 -0.06033698 -0.122371554 0.031013578 0.13034394 0.13402663 -0.00612742 -0.11563328 0.06803539 0.023049247 -0.08108612 -0.002485808 0.07108067
http://data.doremus.org/vocabulary/itema3/genre/musdoc/81 -0.11004515 -0.07092194 -0.044657797 -0.020224363 -0.27367276 -0.03328581 0.044704683 0.045656018 0.06659093 -0.07165214 0.22258133 -0.0050763558 0.15267143 -0.15223019 0.13608341 0.06582258 0.054143157 0.0021915394 0.12850443 0.06830521 0.16445553 -0.14690565 0.05874672 -0.010001758 -0.1690585 0.13596149 -0.05580282 -0.035703022 -0.0742654 -0.01628981 0.103170365 0.04132076 -0.21942501 0.07136254 0.046219975 -0.010226999 -0.015091196 0.17313589 0.04088599 -0.09642665 0.0451266 -0.04226307 0.07477763 0.14296 0.02374865 0.025095778 -0.10506286 0.04063374 -0.018651003 -0.12291518 0.07702465 -0.24779505 -0.011306342 0.047865514 -0.010552085 0.023552528 0.15957695 -0.009141325 -0.019448237 0.052880086 0.06888098 -0.0043473346 0.21674283 -0.1229659 0.08244281 0.03185063 0.12101807 0.15808123 -0.10149265 0.013572767 -0.08333832 -0.038996074 0.10303052 -0.18006599 -0.14670664 0.013911792 0.14625186 0.20237029 0.0067336136 0.067896925 -0.09917497 -0.075125895 0.006517863 0.00470716 -0.01360686 0.119017534 0.11955784 0.04452169 -0.07291858 0.07991131 0.111984015 0.03801814 -0.033757072 -0.06407041 0.0466719 0.002772712 0.12691219 -0.09532673 0.0388731 0.004639476
http://data.doremus.org/vocabulary/itema3/genre/15 0.076675944 0.00220051 0.04026955 0.22984904 0.010786463 0.1595405 0.022737047 -0.14020208 0.2596759 -0.11772563 0.19320005 0.09215015 -0.11379893 -0.056259144 0.23759377 0.068436496 0.012122014 0.044341687 0.026072344 -0.14601845 0.11290835 0.06718218 0.0007935454 -0.060933918 -0.06375413 0.025816418 -0.033225063 0.06985124 0.023114422 0.07503964 0.13495967 -0.107958496 0.11512588 -0.02328903 -0.009024836 0.009217446 0.08954064 0.031664386 -0.09526787 -0.099834226 -0.07663668 0.05993638 0.06739122 0.07243206 0.16281657 0.07925598 0.025308859 -0.10130708 -0.022878088 -0.016135683 0.11227564 -0.11366247 0.08867978 0.12132315 0.005171331 -0.07494584 0.07321011 0.22944619 -0.03465864 0.02626109 0.03349743 0.113507874 0.17631024 0.013956794 0.13155666 0.19112471 -0.034801554 0.030201681 0.096715145 -0.14573114 -0.01959759 0.029982435 -0.19946815 -0.028312892 -0.07476994 0.09238402 -0.1065377 -4.0208124e-05 0.043543182 -0.09054 0.0015665956 -0.21288277 0.024493024 0.048735842 -0.054488353 0.1049556 0.014790615 -0.039386954 0.05219342 -0.06884087 0.009981295 0.013478934 -0.18407902 -0.15113942 -0.06996671 -0.096548304 0.12899008 -0.0023327372 -0.08041484 -0.056470446
http://data.doremus.org/vocabulary/itema3/genre/10 -0.0070660543 0.03445534 0.050121196 0.18568772 -0.15746735 -0.012507498 -0.043165408 -0.0265571 0.1746364 -0.024615692 -0.0031516175 0.04404273 0.006777976 0.014911607 0.22050059 -0.023479644 -0.06976788 -0.042975567 0.12656528 -0.03289756 0.142881 0.072959945 -0.057817265 0.06924642 0.046559785 -0.07713504 -0.034402378 0.040421925 -0.14600015 0.07943679 -0.0025168962 -0.0144024445 -0.037480477 0.1016865 0.011255334 -0.21329884 -0.015974829 0.05833193 -0.030884206 -0.12582661 -0.02402818 -0.13998932 0.045069672 0.067093424 -0.12625472 -0.06354126 -0.032608613 0.014680141 -0.19142058 -0.031150008 0.16156623 -0.07562816 -0.23615989 0.059165448 -0.006479629 0.041401457 0.121342905 0.10049073 0.15886201 0.102218986 0.13114898 -0.02153622 -0.0902761 0.03660049 -0.11189403 0.07051504 -0.119047634 -0.056679964 0.055029675 -0.20260985 -0.030521465 0.105540656 -0.05081087 -0.08556147 -0.011158671 0.1383429 0.18995017 -0.014707107 -0.02234586 0.021132557 0.071169116 -0.06437948 -0.1611504 0.0062165046 0.0024998307 0.15765376 -0.060400575 0.079849705 -0.091755405 -0.021634636 0.013600924 0.12552448 0.020074006 -0.015926467 -0.15792584 0.037691057 0.23252265 -0.12040625 -0.123807944 -0.219341
http://data.doremus.org/vocabulary/iaml/genre/ar 0.09448767 0.073875874 -0.06549449 0.11928627 -0.11916424 0.18678622 -0.0799419 -0.024000114 0.40702006 -0.0563486 0.09818051 -0.0026976264 0.06468528 0.11314393 0.051780455 -0.2599294 0.04413724 -0.011770168 0.062488798 -0.02634311 0.007094627 0.14823246 0.0033782357 0.041114368 0.0084113935 -0.035590615 0.07173284 0.06213478 -0.17457604 -0.03750941 0.01947543 0.06047678 0.08151694 0.20800288 0.05086699 -0.09018181 0.14470164 -0.0038493846 -0.05724811 -0.032829642 0.12167028 -0.032234807 -0.07811298 -0.09537945 -0.03208082 -0.04874818 0.045357235 -0.09743159 0.07990304 0.06663484 -0.037590183 0.1165164 -0.18861133 0.28636318 0.04557144 -0.1360377 -0.042128008 0.09844799 0.081061676 -0.0060925307 -0.049414437 0.033652928 -0.039561577 -0.050851647 -0.047652103 0.0960879 -0.0020181334 -0.0797744 -0.0277878 -0.02307855 -0.045701653 0.029092511 0.016138528 0.07014746 -0.05650445 -0.12390868 0.039885283 -0.0009248263 -0.052050825 -0.12517124 -0.09275242 0.021168891 0.07169309 -0.04318228 0.09364002 -0.00031768047 -0.17989214 0.048820186 -0.0073412955 -0.09322023 0.0350171 0.14107573 -0.10972551 0.05016273 -0.1872102 0.117286064 0.07580325 0.061297674 -0.12531975 -0.055848315
http://data.doremus.org/vocabulary/itema3/genre/musdoc/74 0.07978343 -0.08167575 -0.12221603 0.012981215 -0.32660514 0.04355154 -0.01749832 -0.14212535 0.072527245 -0.07590097 0.164745 0.033591177 0.219412 -0.06795751 0.22737943 0.077957414 -0.027099201 -0.012971846 0.12026185 -0.045234628 0.10434928 -0.019068561 0.018003779 0.024831362 -0.052843884 0.1900761 -0.08374658 -0.0025355797 -0.015488656 -0.055168983 0.11440425 0.18308905 -0.2476284 0.06408888 0.05243483 -0.049726192 0.051139597 0.10838363 0.026115706 -0.09344177 0.031680446 0.031358477 -0.018435879 0.066406034 -0.02907971 -0.046473034 -0.04009997 -0.15629598 0.042574733 0.036074907 -0.09058415 -0.14171737 -0.08461907 0.0432873 -0.00031296737 -0.17095487 0.18159817 0.18220566 0.029083429 -0.06313766 0.036960848 0.05108751 0.17965476 0.09382022 0.011353463 0.09566147 0.09227058 0.22732042 0.032902792 0.050577708 -0.040633064 -0.038549 -0.024942895 -0.16144943 0.027905487 -0.030374138 0.00152935 0.18784586 -0.10995064 0.0037885013 -0.003771519 -0.072365806 -0.041577887 0.063128054 -0.08417271 -0.0011106819 0.018099139 0.0409643 0.03424148 0.11480965 -0.065313414 0.013187203 -0.04713729 0.073742114 0.026332896 -0.08982397 0.07317076 0.05269343 -0.15515634 -0.109923065
http://data.doremus.org/vocabulary/iaml/genre/chp 0.11151724 -0.15286466 0.033836655 0.0311838 0.007569319 -0.031419612 0.019204611 -0.01289528 0.09465317 0.030579608 -0.06929338 0.21094242 0.014384222 0.047230523 -0.07935183 0.10938139 0.06728245 0.0626378 0.058443077 0.006383555 0.073128946 -0.12927878 -0.15571009 0.03343236 -0.046419308 -0.13034675 -0.020861458 0.07460673 0.09397731 0.06568224 0.11288441 0.13444632 -0.09586128 0.095529884 0.019607397 0.05310861 -0.031991243 -0.0025925406 0.0026988643 0.059440844 -0.053477377 0.044020273 0.1134256 0.06061206 -0.10503184 -0.04476544 -0.055228747 0.01636092 -0.18553954 0.0011588383 -0.05246265 -0.2539709 -0.16140287 0.1262118 0.07857519 -0.025470419 0.018124536 0.07957954 -0.068173654 0.037014082 0.08769934 -0.05337267 0.059335466 0.1645082 0.04311954 -0.16656688 0.10143886 0.2188209 -0.15630302 0.0053697615 0.03769874 0.08138319 0.038774382 -0.07590707 0.0747359 0.07466141 0.00020194345 0.16513237 -0.010991177 0.13200389 0.0092892535 -0.050950497 0.072027646 -0.18568122 -0.012520555 0.035050564 0.20763913 -0.029003233 -0.096015744 -0.16842145 -0.11250316 0.23993316 -0.034899633 0.19021139 -0.019040463 0.023146473 0.11699528 -0.034239825 0.22338577 -0.044983547
http://data.doremus.org/vocabulary/iaml/genre/vr 0.07588376 0.064149044 0.06957832 -0.036135636 -0.1445367 -0.027116554 0.056345265 -0.048917163 -0.11851255 -0.108463675 -0.06027267 0.06620062 0.098974764 0.060716644 -0.024544347 -0.127887 -0.016857158 0.051566392 0.09268914 0.09309838 -0.08845141 -0.0697124 -0.048142076 -0.015818976 -0.116001464 -0.12044407 -0.04427502 0.24062921 0.041165195 0.07477863 0.112215504 0.072321355 -0.096945375 0.1499321 0.04026009 -0.13217784 -0.04030884 0.057315234 -0.1092827 -0.04735856 -0.12619253 0.13226877 -0.026349943 0.15789458 0.11895219 -0.1368789 0.061266776 -0.021928119 -0.021658927 -0.14391251 0.0819537 -0.06662172 -0.21474116 0.03501429 0.048821114 -0.044378307 0.16170618 -0.16786078 0.032730535 0.0017477941 -0.05549683 -0.07879283 -0.17474765 0.083452985 0.060510464 -0.10252081 0.061004575 0.051348403 -0.13711262 -0.0894905 0.05294657 0.16483243 0.105239205 -0.118738174 -0.017660545 -0.14596614 -0.04858235 0.10460295 -0.009395529 -0.014710958 0.14199789 0.018637374 -0.032058135 -0.18947206 -0.038081307 0.12061223 0.04625833 -0.022377998 0.021760063 -0.08665986 -0.20535144 0.14144538 -0.0023470316 -0.04585734 -0.13452396 0.04296495 -0.035222467 -0.25733387 0.020407358 -0.13345583
http://data.doremus.org/vocabulary/iaml/genre/md 0.06526374 0.09129556 -0.014697127 -0.03930278 -0.075849295 -0.04290194 -0.1576182 0.0008908891 0.12850201 0.110583596 0.06041307 -0.014142537 0.16894235 -0.0922444 -0.04115671 -0.1372545 -0.07240735 -0.051163536 -0.12119019 0.010770819 0.122558616 0.03330405 0.14490531 0.032375433 -0.08395539 0.073255084 0.20479153 -0.059221707 -0.1286771 0.029285219 0.04070259 -0.0324922 -0.037196055 0.15587083 0.12607563 -0.056101106 0.012317852 0.045633543 -0.1554195 0.20071451 0.06787553 -0.0985716 0.004808957 0.010659233 0.14708638 0.114247225 0.046844054 0.032146856 0.052245647 -0.020532869 -0.026259797 0.02324823 -0.024370812 0.12569791 -0.116952695 -0.18286243 -0.002296104 -0.062135797 0.04070323 -0.09842791 0.013479081 -0.12702951 -0.014598133 -0.011520121 0.04509455 0.025309732 -0.026985211 0.07831567 -0.0570585 0.046857946 0.026002195 -0.1293551 0.02019937 0.08989088 0.073607646 -0.10658184 -0.025122447 -0.18206005 0.19982524 -0.1280898 0.118352294 0.029715383 -0.046693474 -0.16653267 0.09270223 0.0042492477 -0.17477298 -0.06615868 -0.0806874 -0.072624475 0.12499898 0.11889379 -0.26928866 0.21844846 -0.12420502 0.02119236 0.17795084 -0.12012928 0.025017498 -0.013052955
http://data.doremus.org/vocabulary/itema3/genre/musdoc/39 -0.028118247 -0.09579619 0.052601878 -0.046794683 -0.22690079 -0.09058165 -0.03322324 2.556519e-05 0.14581844 -0.012302362 0.1765651 0.040623225 0.18289901 -0.12699814 0.21671513 -0.03702449 0.14875793 0.046936452 -0.036661066 0.022713365 0.10956803 -0.22389585 0.06926809 -0.100068524 -0.090021014 0.051791195 -0.0026843615 -0.029074516 -0.18094507 -0.012013836 0.06506469 0.057777207 -0.1947351 -0.06290388 -0.03842517 0.06811489 0.07018228 0.06791095 0.077622525 -0.056326296 0.074704655 0.05269816 0.009371856 0.023465665 0.12668476 0.0067296973 -0.05369335 0.10437775 -0.022457408 -0.16322437 -0.0044728857 -0.24828719 -0.011731429 -0.0033383158 0.025607169 -0.007026846 0.09133275 -0.059669275 -0.11956134 -0.084819265 0.06800134 -0.13179472 0.12557419 0.010879656 0.05602486 -0.05666382 0.04128354 0.17587079 -0.071879834 -0.0036495565 0.10001775 -0.04589256 0.12856972 -0.1214448 -0.20255442 -0.07615392 0.14478332 0.10644024 0.015336764 0.12056073 -0.02966101 -0.13770382 -0.071605265 -0.06704022 -0.018545065 0.1326813 0.21158813 -0.060544707 -0.046014253 0.040869236 0.17033614 0.09798611 -0.11185268 0.0055891937 -0.00555372 -0.059587523 0.070164986 -0.06466911 0.030897552 0.06691379
http://data.doremus.org/vocabulary/iaml/genre/ms -0.06411602 0.20727289 -0.1582275 -0.06667414 -0.094087996 0.088416345 -0.031732175 -0.05770425 0.13996539 0.036811613 0.13704409 0.019402582 0.20313439 0.055960428 -0.103276916 -0.033204433 0.13851279 -0.042361572 0.17724548 -0.0016078323 0.10131475 -0.0077125267 0.11710089 0.07279293 0.018115006 0.104484186 -0.09953468 0.06999562 0.005397029 0.025451379 0.11266895 -0.10116047 -0.01776072 0.07072119 0.18063056 -0.05638524 0.05876127 -0.00084555865 -0.12196745 0.12349184 0.032954313 0.04116627 -0.13249013 0.05924681 0.082973585 0.018517256 -0.019978164 -0.13790867 0.009142951 -0.06893744 0.024478085 -0.02748354 -0.01899819 0.13085426 -0.09975457 0.054477178 0.094358005 -0.1880363 -0.035323154 -0.032424554 -0.10107086 -0.1556414 0.07980125 -0.07232881 -0.1254207 0.25624636 0.12746023 0.06646059 -0.17456561 0.14021258 0.15039583 -0.032140043 0.20727715 0.028724367 0.08548131 0.023766467 -0.07974419 0.12921444 0.034020398 -0.19772577 -0.030707888 0.035303436 0.010836507 -0.093866944 0.050061807 -0.09091796 0.04613021 -0.15298468 -0.17411938 -0.08490345 -0.002202597 0.04957773 -0.037693966 0.016828053 -0.17050682 -0.002444955 0.042613674 -0.08730763 0.043616284 0.007167574
http://data.doremus.org/vocabulary/itema3/genre/musdoc/71 -0.08267375 0.08236383 -0.048614264 0.07237588 -0.15565042 -0.027149566 -0.08005679 -0.0033714494 0.1321469 -0.07151278 0.1499236 -0.09059057 0.12970856 -0.22187218 0.11799881 -0.105649054 0.19397266 -0.048285715 0.081119 0.0035310318 0.17930731 0.0013846887 0.10877818 0.0051044566 -0.04852122 0.0851258 -0.03273387 -0.14731683 0.1492452 0.09177053 0.13231708 -0.07932932 -0.057206962 0.10283108 0.10586418 -0.1161661 -0.029278552 0.19161354 -0.06773681 0.06682269 0.031568747 -0.03100237 -0.03720323 0.16128826 0.16409881 0.036621276 -0.11395745 -0.06983481 0.030359406 -0.12088531 0.04073005 -0.11352769 0.041893426 -0.0213713 -0.076325454 -0.14218469 0.20727941 0.048511792 -0.012021343 -0.13359976 0.054478537 -0.052487895 0.12201295 -0.14575315 0.0956236 0.23422258 0.044364702 0.16632584 -0.046803813 -0.01545667 0.007968039 0.035026304 0.07851508 -0.14630093 -0.10439635 0.10831225 -0.041970484 -0.08092043 0.17398109 -0.02982779 -0.06720258 -0.04002509 -0.0489261 0.022008609 0.064009316 -0.06964343 -0.033567958 0.086735554 0.02505397 0.019886881 0.08464041 0.12608217 -0.089549236 0.121065475 -0.026344873 -0.080978684 0.12521385 -0.012783144 0.048340432 -0.12486621
http://data.doremus.org/vocabulary/itema3/genre/musdoc/55 -0.028982045 0.014137271 0.10628588 0.107998066 -0.17519426 0.104037166 -0.041001875 -0.11607522 0.16713803 0.091372006 0.03334118 0.0045990446 -0.06942596 -0.07166458 0.23376715 -0.029151179 -0.016239066 -0.020520385 0.029687848 -0.123738885 0.213558 -0.07931538 -0.07865523 0.013815213 -0.012654599 -0.03127096 -0.025303379 0.090413846 -0.06011367 -0.05657638 0.0010011586 -0.03623979 -0.09689041 0.1081563 0.10184484 -0.15043366 -0.019945985 0.12723678 -0.016716072 -0.08803212 0.1956565 -0.04059725 -0.12056885 0.024302486 -0.081467286 0.065695554 -0.04831383 -0.106803015 -0.07628891 -0.19047756 0.02019134 0.025124269 -0.15274927 -0.06273281 0.082562566 -0.11294975 0.04994028 0.04845763 0.016800722 0.063695766 0.077828094 -0.027264478 0.17522015 -0.13139085 -0.1553613 0.11352866 0.10531779 0.01489324 0.052323036 -0.07679742 0.014259328 -0.013332047 0.02381495 -0.090718 -0.038186874 0.07960511 0.111392945 -0.09518096 0.07086961 0.08907665 -0.113289855 -0.12467623 -0.16062029 0.0058734487 0.15146694 0.19094817 -0.15547845 0.13072386 -0.0931809 0.120140105 0.1127544 0.0747962 -0.17022288 0.032123297 0.0024618835 0.17127281 0.2042975 -0.0017924234 0.049346928 -0.051373437
http://data.doremus.org/vocabulary/iaml/genre/mr 0.09574681 -0.20636506 -0.003192757 -0.05487309 -0.07270098 0.043874744 0.031479 -0.067594804 -0.03496719 0.08302469 0.08885305 0.16463076 -0.07140951 0.11904246 -0.013661397 -0.056979313 -0.01450146 0.14477094 -0.07626792 -0.026156506 -0.0500161 -0.015044649 0.04893729 0.014222686 0.06605017 -0.0579812 -0.18106945 0.0820395 0.15083855 0.021590026 0.3124649 0.12750275 -0.011787046 0.14157037 0.093871795 -0.019934293 -0.01727135 0.059607867 0.086746186 0.016340997 0.017026728 0.021056416 0.045113653 0.14070815 0.1230936 -0.15455809 -0.033869732 -0.05796507 -0.06889693 0.0879696 -0.09791437 -0.1405608 -0.028731538 -0.09222306 0.037348256 -0.117385216 -0.015296606 0.056005705 -0.002372899 -0.045789506 -0.07008445 -0.099184394 0.09849828 0.101378664 0.14691694 -0.16827956 0.10903536 0.13647208 0.034120414 -0.1397588 0.14873414 -0.005623043 0.0136625925 -0.019668823 0.020407632 0.1839018 0.07588715 0.23090677 -0.09397957 0.14523393 0.12519556 -0.008749251 0.028415704 -0.13338375 0.040307764 0.017540237 0.07262012 0.045973174 -0.09498873 0.04418248 -0.02152546 0.121177234 -0.0819116 0.2023785 0.04414539 -0.04565635 0.17673685 -0.06892178 0.17256036 0.035694826
http://data.doremus.org/vocabulary/iaml/genre/tri 0.07028341 0.019614851 -0.13955687 0.069107175 -0.085072525 0.04185252 -0.007896186 0.019649386 -0.0032109164 -0.102492146 -0.04258403 0.022100765 0.10852093 0.048809133 -0.023856742 -0.18420269 -0.1393588 0.1796192 0.097834125 0.1107219 -0.09874819 0.0080811195 -0.0046946947 -0.07355903 -0.16519478 -0.028431479 0.0069342717 0.1071686 -0.18328992 -0.010118226 0.010184948 0.08024783 -0.10894704 -0.013258583 0.039671786 -0.14177765 -0.12581772 -0.15077822 -0.064165734 -0.023972193 -0.062736996 0.03473854 0.15908594 -0.007162802 0.11410557 0.06486677 -0.011306951 0.09759032 -0.12120999 0.090576336 -0.06904793 -0.16657376 -0.09279051 0.1844548 -0.04482218 0.05236952 -0.22366838 -0.08126826 -0.007650557 0.10879401 0.030793356 -0.052614816 -0.18959549 0.104919314 -0.16115949 -0.21087751 -0.08130474 0.06397346 -0.14155157 -0.10922782 0.06450006 0.04319395 -0.09925563 -0.06934589 -0.0077204695 -0.06487207 0.21865314 0.23657699 -0.09954296 0.05203795 0.14801022 0.055483207 0.030796332 -0.07893198 -0.05628933 0.048412263 0.04452752 -0.048919864 -0.04557829 0.06711286 0.096533865 0.119732425 0.09399023 -0.052887987 -0.069702215 0.006933696 0.0046253605 -0.08426442 -0.15140393 -0.03450133
http://data.doremus.org/vocabulary/iaml/genre/st 0.050698213 -0.005157143 -0.018958183 0.11658183 -0.12836051 -0.06742086 -0.032873716 -0.0080109965 -0.04355372 0.07423867 -0.012358617 0.079859935 -0.04749513 -0.059948727 0.10519235 0.08944734 -0.08409294 0.012056448 0.07562186 0.05458001 -0.054798268 -0.32277352 -0.1458517 0.04464033 -0.057031505 -0.018987916 0.011380635 0.18329076 -0.019881899 0.10678572 0.13737167 0.04738611 -0.09993954 0.121945985 0.05566868 0.021587737 -0.03312281 0.07824376 -0.09024108 -0.023397874 -0.049453236 0.10955869 0.114209466 0.09842314 -0.05115227 -0.12267059 0.052550267 0.06466081 -0.15155691 -0.16494516 -0.051023096 -0.38011488 -0.05253103 -0.06514785 0.078768335 -0.13503662 0.0061104964 0.0052471273 0.0028115045 0.036240492 -0.034995135 0.04377022 -0.1432782 0.03972871 0.13768679 -0.11325944 -0.050478786 0.05203784 -0.09366651 -0.060352627 0.052783962 0.00014575825 0.06644699 -0.11282397 -0.014498654 -0.019233383 -0.044203218 0.08468332 -0.059896853 0.0428427 0.11235404 0.055480238 -0.056048166 -0.1748392 -0.011200032 0.27393076 0.12987752 -0.12872785 -0.15339936 -0.0010844269 -0.04227482 0.027797397 0.053059418 -0.007955606 -0.05315733 0.0687726 0.18837382 -0.12319228 -0.013866759 -0.12015575
http://data.doremus.org/vocabulary/iaml/genre/mz 0.07439423 -0.21668753 0.12041911 0.052367114 -0.10387523 -0.03886972 0.05120261 0.030620424 0.13506547 0.12693657 0.054741405 0.13524017 -0.15071532 0.023009323 0.18248971 0.11644692 -0.18944749 0.14765137 -0.102756776 -0.061976213 0.063660905 -0.06577839 -0.059231184 -0.059878852 0.066591 -0.14680772 -0.058124315 0.14597538 0.060531575 0.124551885 0.051302627 0.1560043 -0.12985796 0.07591544 0.1117155 -0.0414462 -0.055986643 0.096013464 -0.019860176 -0.03240629 -0.01718894 -0.005154743 0.06541489 0.04784341 0.043346304 -0.041726515 -0.05598154 0.025736613 -0.124944545 0.06581728 -0.0872936 -0.24438246 -0.14042494 -0.052088153 0.0929112 -0.112394415 0.03250636 0.06333133 -0.05578559 -0.010766523 0.14520505 0.00825436 -0.010909994 0.08099604 -0.019185828 -0.16789208 -0.032347452 0.13531516 -0.10906593 -0.19374155 0.08175711 0.045798898 -0.013546015 -0.048323426 -0.008128089 0.08659475 0.15053956 0.10492603 -0.05090605 0.11369262 0.021727737 -0.07198077 -0.03258231 0.010052817 0.00094415416 0.18905278 0.08063773 0.0020638127 -0.12565288 -0.0069246157 0.07855296 0.16526875 0.0007257303 0.11353427 0.052981988 -0.08329524 0.27472335 -0.049372274 0.08454944 -0.02751115
http://data.doremus.org/vocabulary/iaml/genre/opc -0.0319565 -0.07917237 0.07297229 -0.0009859209 0.1401308 0.042258725 -0.1451435 -0.15691863 0.24684717 0.104627244 0.009302292 -0.028759608 0.11890495 0.09601163 -0.040477987 -0.23295556 0.15913133 -0.047489647 -0.013998157 -0.005359408 0.02711479 0.13582353 0.008792147 0.024373328 -0.04524117 -0.035736825 0.0437199 0.10874606 0.020839732 0.034904785 0.16554153 0.065938324 0.06964909 0.16429347 0.072728984 -0.03972758 0.098432794 0.079883434 -0.0709588 0.028873594 0.13162577 0.01139115 -0.060633812 -0.073221415 -0.09784672 0.02754144 -0.0066636996 -0.14985687 0.08045137 0.0053598634 -0.063159585 0.10245777 -0.046166096 -0.09833991 0.06638129 -0.19230229 -0.05414167 0.03531488 0.15780681 -0.18995114 -0.08582131 -0.019175934 0.26238492 -0.058341652 -0.03417721 0.10562635 0.14341894 0.022246154 0.02726698 0.031184874 0.21089713 0.0052288473 0.14713712 -0.022467809 -0.011784692 0.010736857 0.0008234221 -0.006739534 0.10563112 -0.090087384 -0.085401945 -0.016307414 -0.06448493 -0.10143603 0.14524879 -0.1288542 -0.048480667 0.016173832 0.057080623 0.003364538 0.037112713 0.0846302 -0.18005377 0.23350278 0.04002165 0.046693515 0.070101075 -0.062709965 0.1214486 0.14492862
http://data.doremus.org/vocabulary/iaml/genre/psa 0.04190221 0.16003244 -0.07847489 -0.0039996402 -0.040200792 0.06158234 -0.041709166 -0.075371206 0.10432265 -0.0065984363 0.2018797 -0.039239474 0.12413556 0.04948398 -0.08404108 -0.24928755 0.06401225 -0.053518053 0.05814555 0.032932337 0.013190232 0.10442822 0.13262162 -0.09966478 -0.036057338 -0.057802837 -0.10100085 0.11720311 -0.0960655 0.016642058 0.110167265 -0.117121495 0.008295705 0.0801334 0.23988937 -0.08897257 0.13928275 0.014013012 -0.12122573 0.033669207 0.08715208 0.114414066 -0.0984644 0.12736923 0.0007352467 0.01707863 0.045980547 -0.20090325 0.12245852 0.020626819 -0.06481364 0.07764019 -0.030482808 0.1697751 -0.046129864 -0.1038082 0.07638651 -0.121372685 0.0025261731 -0.15558352 -0.031916343 -0.051711407 0.0756952 -0.07752875 0.026803462 0.27650326 0.012100692 0.17841919 -0.15935673 0.056855503 0.061988957 0.061682936 0.1617713 -0.018407399 -0.013922279 0.012721545 -0.11979925 0.05860108 0.08825962 -0.20334102 -0.115128465 0.052926227 -0.0057459413 -0.022691783 0.03663617 -0.054957505 -0.015024654 -0.13193396 -0.08724905 -0.15241927 0.042119257 0.039687112 -0.12753327 -0.004254669 -0.1820322 -0.004986606 -0.015333798 -0.06911917 -0.07972396 0.035881285
http://data.doremus.org/vocabulary/iaml/genre/prd -0.022588858 0.02848669 -0.07960842 0.09841091 -0.2556792 0.0006978642 0.000990384 0.0978989 -0.123097785 -0.02169472 0.009844508 -0.07591685 0.0019273199 0.05370354 0.002406022 0.007236647 0.05762988 -0.120037876 0.16859871 0.06792572 0.0903267 -0.2469696 -0.07823529 -0.006276944 -0.07603209 0.010232985 -0.070587635 0.12680973 0.11522925 0.09955696 0.08582753 -0.15667921 -0.19669965 0.15418354 0.049132813 -0.14700954 -0.01509047 0.114965074 0.01770046 -0.052688777 -0.08839206 0.027198568 0.03156955 0.21532132 -0.055865534 -0.10725011 0.14987822 0.04784426 -0.060435146 -0.035051472 0.029892722 -0.14838782 -0.103060104 -0.052017357 -0.015850414 0.03598659 0.17429374 -0.064726494 0.08457331 0.10568464 0.00786013 -0.04741486 0.014887917 0.029599316 0.04392599 0.00416744 0.03870849 0.07499065 -0.1277258 -0.046210315 0.035812415 0.18727304 0.07179382 -0.11053588 0.0898602 0.10874673 0.015710425 0.13594942 -0.114428066 0.11263434 0.08074654 0.061848134 -0.06608483 -0.23773766 -0.1544414 0.13382383 0.02513237 0.021655355 -0.0022758145 -0.073068514 -0.02021951 0.16632675 0.09112872 0.019672275 -0.13730066 0.1260661 0.1269332 -0.08726712 -0.049609706 -0.12274734
http://data.doremus.org/vocabulary/itema3/genre/musdoc/27 -0.10014274 -0.065289706 0.006753655 -0.08786261 -0.29936644 -0.017620208 0.06425469 -0.033381537 0.08235547 -0.009354826 0.19366272 0.061593607 0.061906993 -0.0940036 0.16054852 0.029075224 0.043766443 -0.03015015 0.059033617 -0.02494843 0.14112632 -0.072282925 0.04651424 -0.006060639 -0.074627854 0.12291316 -0.0044368505 0.05323777 -0.11539517 -0.047315005 0.0022111975 0.10509226 -0.19958 0.08491923 0.011707831 -0.040397894 -0.077481195 0.12515484 -0.005123815 -0.1153195 0.08150144 -0.050032932 0.0010019748 0.11768372 0.031193161 0.015646765 -0.054691236 -0.022200868 -0.011030231 -0.1374876 0.030152617 -0.1551666 -0.072068624 0.011182421 -0.008295799 -0.046798505 0.18425359 0.0863464 0.0092216 0.04575065 0.13769107 -0.06867576 0.17800099 -0.12078738 -0.08960824 0.044068635 0.2292563 0.13599223 0.018504342 -0.07308022 -0.07488161 -0.013394647 0.10390143 -0.17085676 -0.185 -0.030778559 0.1725308 0.1694747 -0.006949872 0.14941321 -0.05162429 -0.11908117 -0.11090703 0.05205198 -0.06402517 0.19687532 -0.043275762 0.03002118 -0.15457383 0.12558399 0.15038732 0.04689262 -0.10386566 0.016762264 0.021058837 0.053488582 0.12297913 -0.1081887 0.049209464 -0.013111007
http://data.doremus.org/vocabulary/itema3/genre/18 0.04485213 -0.13813567 0.07192385 0.14720425 -0.09625307 -0.00570933 0.027921943 -0.21942353 0.1554206 -0.02250055 0.062624454 0.21682352 0.0027092071 -0.07651271 0.16593456 0.045125704 -0.06153811 0.07145409 0.034752846 -0.107162245 0.16864756 0.15897931 0.03734716 -0.20848891 0.0563846 -0.038273897 -0.0036602856 -0.100238115 0.088804394 -0.03636776 0.17169507 0.04967744 -0.041928835 -0.022416476 -0.1429901 -0.0130636515 0.0019334888 0.10161031 -0.18482822 -0.035098292 -0.080058515 -0.07258102 -0.014582279 0.01894917 0.22145747 0.09689854 0.0638378 -0.11408964 0.09501261 -0.0482908 0.003344313 -0.023963235 -0.14330357 0.059358753 -0.019977873 -0.1450028 0.15371287 0.049233492 -0.047150195 -0.03487417 -0.048106797 -0.08790459 0.12431593 0.0028601945 0.0155753 0.18788774 -0.0937983 0.15925191 0.0011708766 -0.08192609 0.07686284 0.042031113 -0.07090466 -0.04391986 0.042688705 -0.021035906 0.078811884 -0.067034416 0.14715253 -0.04466212 -0.22166753 -0.13369384 0.011331177 -0.08906971 0.002625021 0.14971223 -0.030878391 -0.036389694 0.015846103 -0.04871578 0.11505021 0.06548309 -0.10860019 -0.021352548 0.036768816 -0.21749994 0.0057117506 0.09419672 0.10900021 -0.09333596
http://data.doremus.org/vocabulary/itema3/genre/musdoc/41 -0.04908757 -0.07569214 0.016329762 0.075803176 -0.22683333 -0.0045775454 0.046433732 -0.100588985 0.14670241 0.093152806 0.13893507 0.10097863 -0.015788794 -0.05601636 0.11405995 -0.06164139 -0.098657645 -0.068343356 -0.029220883 -0.12526454 0.1580645 0.06158587 -0.016292708 -0.09143619 0.05516206 -0.07687015 0.041604895 0.16299325 -0.104042456 -0.009689667 0.016905451 0.02869775 -0.12649629 0.12163151 0.16188194 -0.14510654 -0.04128344 0.059577316 -0.04546434 -0.060811963 0.21960832 -0.095485024 -0.10348743 0.051554166 -0.050381724 0.008495365 0.038122807 -0.10532664 -0.08390023 -0.031769603 -0.026949586 0.044742584 -0.09925027 -0.115578614 -0.053337675 -0.15706098 0.10807442 0.050036065 0.07415415 -0.018413424 0.12253017 0.03161638 0.028884422 -0.06911597 -0.13941684 0.17798673 0.06945601 0.05721531 0.09472853 -0.12282821 0.06040117 -0.07469137 -0.01900937 -0.056670234 -0.06884005 -0.04661183 0.006382151 0.017051177 0.03842652 0.044088192 -0.015292405 -0.03567415 -0.21945232 0.14010964 0.015611095 0.26458395 -0.11751204 0.09484238 -0.18498957 0.12983388 0.050548226 0.121028446 -0.1587014 0.07601961 -0.052130118 0.06609301 0.16516493 -0.12602614 -0.0632752 -0.15459152
http://data.doremus.org/vocabulary/itema3/genre/musdoc/76 -0.09539661 -0.024215827 0.014010413 -0.032010574 -0.29649562 -0.02598865 -0.043425366 -0.018291293 0.14252004 -0.039423767 0.15847345 0.0015622387 0.19592595 -0.20377618 0.17210199 -0.037617814 0.13520534 -0.05888754 0.02743849 -0.03058963 0.2272643 -0.09597043 0.07890101 -0.042781 -0.10472113 0.13802318 -0.023124024 -0.0785519 0.013437192 0.04564267 0.0890466 0.012107655 -0.20772514 0.064928465 0.024441753 -0.066085674 -0.05804285 0.17563382 0.0006109154 -0.005866326 0.09251578 -0.037024505 -0.07931771 0.12045079 0.10897655 0.027793348 -0.092000455 -0.022910006 -0.025138063 -0.15359052 0.013001447 -0.110710554 -0.022268895 -0.05033873 -0.0523358 -0.1072032 0.17369592 0.03811731 -0.022031698 -0.13272206 0.0914821 -0.08919551 0.20567292 -0.13200286 0.045922935 0.15696797 0.11067925 0.17174682 -0.03280083 0.014061258 0.005129219 -0.037287667 0.088830255 -0.14944883 -0.13649902 0.03679549 0.05158703 0.041531336 0.11638057 0.082896076 -0.062963225 -0.083137654 -0.06949275 -0.034194745 0.0074823336 0.054683935 0.060815837 0.078228615 -0.05027119 0.061573766 0.11716262 0.11489244 -0.1187098 0.10880506 -0.009082809 -0.05910997 0.18297882 -0.037101626 0.05872936 -0.07290254
http://data.doremus.org/vocabulary/iaml/genre/chr -0.030316325 0.05825831 0.076119445 -0.04755002 -0.020219615 0.13023044 0.036719933 -0.13199784 0.1064553 0.16837321 0.11873215 0.0958897 0.045230236 0.014716891 0.012617718 0.0018007872 0.093130864 0.044151753 0.059575927 0.0807937 0.012625073 0.055801388 0.08351134 -0.14174972 -0.08198375 -0.058025848 -0.16758883 0.22870508 -0.10732044 0.041315336 0.11857126 -0.09974519 0.06104443 -0.05870668 0.17071004 -0.059930652 0.097866856 -0.038820267 -0.024067508 -0.051815063 0.102173835 0.18324025 -0.19336179 -0.018028187 -0.1144036 0.02896783 -0.09516577 -0.2118817 0.04651483 0.0014080411 -0.09171487 0.06985173 -0.094207145 -0.027488044 -0.029969202 -0.047565226 -0.13207437 -0.16948739 -0.041406173 -0.023529913 -0.13764836 -0.011782134 0.13261685 -0.01036463 0.030695051 0.18492068 -0.012544382 0.12395233 -0.17200013 0.035040442 0.24023503 0.056397077 0.17078313 -0.10914885 0.06039075 0.0665976 -0.11801047 0.09870054 0.111214764 -0.05216671 -0.1557025 -0.014221748 0.04043358 -0.09127058 0.1396654 -0.018152721 0.13492097 -0.13430467 -0.14638513 -0.15171614 -0.00839289 -0.054806717 -0.023154663 -0.087930754 0.0009841219 0.033532202 0.006529847 -0.02485733 0.07600889 0.07670435
http://data.doremus.org/vocabulary/iaml/genre/bt -0.003678892 -0.09067161 0.16226141 0.13775611 0.15441327 0.07908887 -0.10902987 -0.22087464 0.31638348 0.0104843555 -0.006965833 -0.04151 -0.0435369 0.08042668 0.15119766 -0.019825438 0.059772152 0.12990324 -0.07075974 0.003148671 -0.039531138 0.14911568 -0.100821584 -0.043545995 -0.040784366 0.03496 -0.035239346 0.20152542 0.042237993 -0.028139781 0.15516256 0.056137804 0.10547913 0.068775326 0.036657915 -0.10040085 0.017765317 0.1356748 -0.02238005 -0.073678054 -0.028787488 0.18939553 -0.025342759 -0.11125905 -0.104728825 0.028965281 -0.016905315 -0.18424293 0.06464747 -0.02309216 -0.024152914 -0.03373025 -0.07752947 -0.0644893 0.13860928 -0.18239309 -0.07168007 0.18886638 0.098162405 -0.11465766 -0.07759003 0.052690864 0.26766518 0.05544439 -0.005743762 0.079732046 0.05487867 0.09632015 0.03016413 0.0037752187 0.126597 0.053547274 0.011090557 -0.016914424 0.15072018 0.057145104 -0.066897966 0.081393704 0.07272374 0.022571819 -0.08442876 -0.13104363 0.00061195384 -0.078816146 0.010208097 -0.07942609 0.036122743 -0.05973093 -0.028810663 0.06863657 0.01762959 -0.0052782255 -0.122817844 0.11058643 0.102097005 0.0048707435 0.032203056 -0.06951329 0.08090171 0.206646
http://data.doremus.org/vocabulary/itema3/genre/musdoc/45 -0.09905203 0.0024283256 0.01066401 -0.07618814 -0.26553094 0.01788472 -0.032650754 0.08910925 0.09388223 -0.06178226 0.17924194 -0.041899614 0.1765301 -0.15124705 0.071465336 -0.090598665 0.13102618 -0.061479557 0.07112255 -0.00037151683 0.22377001 -0.071877755 0.09474712 0.012083966 -0.16104181 0.13254863 -0.052382987 -0.11242915 0.069271654 0.013168804 0.06797318 -0.0222414 -0.16588768 0.10060927 0.033189155 -0.061528515 -0.11537304 0.18700883 -0.07219312 0.014737325 0.015590421 -0.061177153 -0.021682939 0.17304051 0.065733716 0.034094185 -0.09186105 0.021298196 -0.0019694983 -0.15047503 0.050775766 -0.07050305 -0.052223872 0.008770695 -0.06103764 -0.030180544 0.15885845 -0.023769995 -0.05041538 -0.083203636 0.08561181 -0.09335408 0.22653238 -0.21163473 0.047782395 0.16007121 0.13266392 0.129021 -0.1777587 0.041568603 -0.055508263 -0.051931098 0.081486516 -0.0996601 -0.112905435 0.058805812 0.016822493 0.077386834 0.10432836 0.090551436 -0.08125859 -0.032033723 0.021167412 -0.052843865 0.024069116 -0.011490895 0.075785935 0.0879293 -0.049310897 0.05443557 0.15468544 0.11618 -0.070649125 0.09996559 -0.037061594 -0.058821887 0.2018007 -0.035063673 0.1054152 -0.03167333
http://data.doremus.org/vocabulary/itema3/genre/musdoc/106 -0.051845543 -0.00025267657 -0.030473819 -0.033824142 -0.23935199 -0.0370455 -0.008246967 0.0023684744 0.11346526 -0.06933185 0.24288557 0.060085077 0.13916291 -0.15127353 0.16268371 -0.0052867676 0.14158994 0.045311153 0.021910802 0.058384765 0.10512788 -0.15083012 0.055263277 -0.024242189 -0.14429939 0.11845673 -0.036034707 -0.0026551618 -0.12483364 -0.018037353 0.045320474 0.08782857 -0.22255208 -0.041649077 -0.035421245 0.02895183 0.002326575 0.07233285 0.034725003 -0.090968445 0.00026568706 0.038882338 0.06488166 0.06475756 0.09122481 0.00015688637 -0.10308982 0.052845255 -0.0012691765 -0.15051414 0.016480606 -0.2760437 -0.02084045 0.08774993 -0.037531886 0.047438864 0.13571614 0.050982345 -0.059281208 -0.043246325 0.10681457 -0.14669342 0.1396489 -0.029894967 -0.0023580936 -0.0066082613 0.15543395 0.17788345 -0.06678337 -0.10674223 -0.016057033 -0.025492076 0.109960966 -0.19959775 -0.20888306 -0.03550879 0.119358405 0.17526774 -0.013100216 0.085216485 -0.0044499943 -0.15211469 -0.072591655 0.005038253 -0.08058751 0.14255042 0.13101386 -0.0176022 -0.050395425 0.06935632 0.19925968 0.051963784 -0.06650767 -0.037899986 -0.029646873 -0.016175956 0.07455378 -0.12090658 -0.017653566 -0.0018591506
http://data.doremus.org/vocabulary/iaml/genre/ov 0.045116678 -0.10031499 -0.037363786 -0.010525644 0.035963476 0.21862893 -0.016060103 -0.16215274 0.21450229 -0.04575558 0.11085316 -0.029952085 0.028989874 0.21420954 0.011026715 -0.16415149 0.10521944 0.083085425 0.010778136 0.011283393 -0.077727914 0.13077098 -0.0362013 -0.065620564 -0.047725026 0.042940557 -0.07016562 0.15492134 0.040504284 0.053064167 0.26046368 0.15593076 0.00696807 0.06117764 0.017571969 0.026790459 0.13106981 0.16064891 -0.03314675 -0.024835756 0.02701038 0.13162586 -0.07555629 0.0008604413 -0.11794006 -0.109587885 0.023529047 -0.19094808 0.118539676 -0.00088033546 -0.13814943 -0.045166112 -0.11289901 0.027415982 0.083262414 -0.11466006 -0.11691106 0.21942563 0.012885828 -0.17540643 -0.009732206 0.08570391 0.17498846 0.04511331 -0.046035465 0.10069535 0.17418674 0.12791286 -0.08635253 -0.036805876 0.1286914 0.01867093 -0.0050116377 -0.09974783 -0.00031392582 -0.02610938 -0.0414926 0.10063174 -0.070903584 -0.035772584 -0.08120494 -0.107106425 0.04364939 -0.023000276 -0.07174752 -0.04125513 0.017110784 0.0030731785 -0.09996642 0.06369794 0.021439245 0.10994433 -0.09580114 0.19630533 0.07175975 0.021053031 -0.021029375 -0.03218776 0.06797065 0.18456185
http://data.doremus.org/vocabulary/iaml/genre/mp -0.075950585 -0.045101263 0.088097066 0.029979195 0.08128453 0.0085256575 -0.06556268 -0.047192995 0.16298452 0.050507963 -0.051314197 -0.09453338 0.13184033 0.0075930404 0.012111945 -0.030598942 0.22134243 0.057084665 -0.10597338 0.0150804175 0.052724645 0.08358186 -0.07805672 -0.13718542 -0.0010548008 0.0017093515 0.0030903197 0.14614193 0.026632579 -0.002026387 0.22634025 0.09094782 0.057916448 0.12571579 -0.043166105 -0.053394753 0.053322032 0.051963173 -0.0011738862 -0.00043637332 -0.13008624 0.119878225 -0.0441486 -0.057869308 -0.06484105 0.07799629 -0.039367698 -0.1856012 0.08278998 0.056367334 0.05889973 -0.061942346 -0.0161511 -0.1667865 -0.002831648 -0.13422035 -0.23082331 0.0657584 0.12738834 -0.08195862 -0.14735016 -0.012628709 0.25774235 0.07710113 -0.052794985 0.07387279 0.1473147 0.19256961 0.04362082 -0.012223901 0.2060029 -0.02229048 -0.023756819 0.003302829 0.076608054 0.12676302 0.05382656 0.062773295 0.03443209 0.05774047 0.019600736 -0.020506326 -0.09408367 -0.20798852 0.009779552 0.031055639 0.15871033 -0.11039293 -0.0573871 0.043504827 0.09836814 0.020615377 -0.12683624 0.1450801 0.018910887 -0.11015635 0.09968995 -0.19938819 0.034326643 0.16612546
http://data.doremus.org/vocabulary/iaml/genre/hy 0.028119886 0.120715916 -0.05394467 -0.05993999 -0.051617168 0.050984256 -0.009978365 -0.06473569 0.07429944 0.05447602 0.20589869 -0.045133915 0.0881747 0.004876876 -0.08247346 -0.10104749 0.21003649 -0.068718255 0.05734528 0.06258482 0.099155135 0.0572566 0.1330074 -0.12119036 -0.015259092 -0.03927927 -0.14426686 0.09288195 0.010665902 -0.02736815 0.14596857 -0.1589947 0.031307396 0.100272655 0.14459291 -0.133807 0.13662964 0.05405001 -0.06840279 0.017424835 0.03888571 0.14580843 -0.10148809 0.10841227 0.03699659 0.021221792 0.05406213 -0.14994155 0.08574947 -0.028329797 -0.036346044 0.067240044 -0.019220974 -0.008160364 -0.1212819 -0.15612163 0.09450985 -0.17838202 0.018580696 -0.11659165 -0.14089146 -0.12037051 0.22569948 -0.07697068 0.100115485 0.23929848 0.07652646 0.14812636 -0.12233564 0.0749299 0.15434493 0.060521934 0.21265589 -0.018929254 0.06264109 0.051844098 -0.13696834 -0.030266557 0.10692906 -0.054699454 -0.072915025 0.042702116 0.017230943 -0.13829924 0.097765185 -0.108085364 0.05712327 -0.04364679 -0.042059314 -0.17245944 0.033434592 0.04161243 -0.11583035 0.032001004 -0.1012941 -0.06123027 0.032499954 -0.060032003 0.10651703 0.039239977
http://data.doremus.org/vocabulary/itema3/genre/musdoc/94 -0.07603774 -0.084877186 0.024095312 -0.089655794 -0.27648175 0.111564815 -0.01311948 -0.12082654 0.22691272 -0.03893491 0.17165568 0.04748058 0.14649735 -0.09973913 0.13311447 -0.119921654 0.12827618 -0.060265627 0.06575283 -0.0516681 0.15572461 0.029921265 0.11785625 -0.10600464 -0.113877185 0.12731457 -0.04319248 -0.07577998 -0.047796544 -0.02341671 0.07681866 0.04104264 -0.10837399 0.106205806 -0.01864727 -0.03860588 0.013932152 0.10532452 0.015132516 -0.066347726 0.09916007 0.009979668 -0.06572347 0.038757507 -0.012063927 0.02873453 -0.0432696 -0.12847875 0.0663169 -0.09621991 -0.04450587 -0.014746021 -0.20280899 0.015833365 0.03601173 -0.14315687 0.05294968 0.17272069 -0.087474674 -0.1339061 0.011336956 -0.05231995 0.24986959 -0.08252474 -0.043957777 0.12377707 0.205535 0.13940884 0.016920421 0.027532699 0.06873265 -0.0044886167 0.10957295 -0.043854643 -0.057745356 -0.0007919283 -0.00035017665 -0.038170677 0.009831524 0.12352739 -0.24026224 -0.08716376 0.022596292 -0.048240524 0.06325735 0.0016496847 -0.10264276 0.08726485 0.008345439 0.06392181 0.07441001 0.07671665 -0.19339351 0.15649186 0.07389389 -0.04072688 0.08964745 0.08668936 0.025756815 0.082364075
http://data.doremus.org/vocabulary/iaml/genre/qui 0.023335427 -0.042510685 -0.12130715 0.09950306 -0.08297528 0.044440214 0.01958901 -0.02708074 0.06401972 -0.08549802 -0.057713516 0.10522867 0.13550743 0.028214553 -0.025725981 -0.13158858 -0.13945444 0.18419683 0.13049398 0.11711991 -0.093161374 0.011701817 -0.040296845 -0.03630735 -0.17597477 -0.033323336 0.051219556 0.11005275 -0.19927749 -0.01946696 0.072872765 0.03662357 -0.07052798 0.036145847 0.02532384 -0.15112223 -0.13398333 -0.19042218 0.026236879 -0.023138834 -0.118968256 0.038713567 0.117211446 -0.024319185 0.1331851 -0.021009358 -0.047571003 0.011803737 -0.06321796 0.124282636 -0.09732833 -0.16964816 -0.07594026 0.16770542 0.0003899861 0.06082201 -0.2546543 -0.03828011 0.0039840946 0.09164669 -0.025008513 -0.04547099 -0.18642645 0.06340323 -0.17862618 -0.13796084 -0.07008634 0.062867545 -0.09464111 -0.10948934 0.051684882 0.053502817 0.0027548128 0.002649856 -0.08291165 -0.12304691 0.14972253 0.30847955 -0.14890327 0.09182217 0.11202054 0.05500921 0.068770304 -0.08181818 0.001082899 0.0884932 0.024627203 -0.045249306 -0.061370593 0.106955506 0.07414453 0.10893811 0.072402716 -0.08235898 -0.042270884 -0.033043165 -0.037938558 -0.06598431 -0.12495518 0.023850946
http://data.doremus.org/vocabulary/iaml/genre/plk 0.13313994 -0.318352 0.055707417 0.051819533 -0.029816067 -0.057787873 -0.0003872965 -0.05762009 0.1318469 0.0968948 0.06031823 0.10143167 -0.045036327 0.018603012 0.14285524 0.037672043 -0.014441525 0.16013348 -0.049163543 -0.007934437 -0.026199423 -0.12318259 -0.025037758 -0.07798679 0.03587785 -0.102395475 -0.06129706 0.15750687 0.0413898 0.09196205 0.086318314 0.26587886 -0.093396485 0.04812282 0.17293358 0.011786276 -0.08084103 0.011006904 -0.061909184 -0.025596779 0.06166554 -0.021452593 0.034533635 0.071324185 -0.043527782 -0.0066467435 -0.08184496 0.0147141935 -0.101654895 0.035492133 -0.17274617 -0.19331557 -0.1013874 -0.11139567 0.04931937 -0.1028399 -0.0101137925 0.008686771 -0.04131307 -0.06602409 0.103147075 -0.044734847 0.013343535 0.1253721 0.09373215 -0.20224811 0.0053950087 0.123230495 -0.0658524 -0.08431989 0.13608746 -0.04920909 0.03645392 0.00079774886 0.019001838 0.07254198 0.16018103 0.183202 -0.0018422975 0.13559352 0.025665956 -0.06542697 0.023659062 -0.006788543 0.059752144 0.097377285 0.1730124 -0.11592604 -0.032268796 -0.024805078 0.02091728 0.15491048 -0.05887842 0.24325247 0.025592763 -0.08901456 0.19803624 -0.027056066 0.14030376 0.03822318
http://data.doremus.org/vocabulary/iaml/genre/due 0.13950254 0.08868155 -0.07514009 0.033685397 -0.1022076 0.1593685 -0.03213746 -0.11896492 0.23438646 -0.06940799 0.12508444 0.0064150416 0.04469674 0.12175471 -0.026839979 -0.26845518 0.036588714 -0.048566103 0.13153529 -0.104311034 0.016755551 0.17873017 0.04884034 0.04342044 -0.11837089 -0.014120457 0.010817238 0.12154166 -0.031229177 0.008514843 0.067979276 -0.016644312 -0.019888557 0.11344808 0.17318873 -0.05281091 0.15697585 0.02604553 -0.16298817 -0.050256073 0.12889434 0.045183115 -0.08626615 -0.0240988 -0.07485699 -0.036319602 0.06948225 -0.08403399 0.03224111 0.09977632 -0.1092061 0.15273915 -0.110944614 0.22275627 -0.008119383 -0.08709169 -0.042214777 0.03163788 0.07784767 -0.1737675 -0.053077366 0.03727101 0.09075873 -0.108549364 -0.037324734 0.15809707 0.01500144 0.037716866 -0.05111783 0.05378187 0.029861143 0.1033323 0.08607067 0.034433372 -0.08802321 -0.05541968 -0.048857015 0.09983514 0.0005722088 -0.14695928 -0.07341072 0.02388425 0.10122991 -0.033693675 0.057128135 0.010413205 -0.21362199 0.09318845 -0.079753146 -0.0044762925 -0.049189176 0.14813899 -0.10842549 0.13896157 -0.13458638 0.25231954 0.035400912 0.04782702 0.010647217 0.02433532
http://data.doremus.org/vocabulary/iaml/genre/lit 0.018891262 0.13808763 -0.03431508 -0.05854067 -0.017138889 0.0552843 -0.036126174 -0.113686785 0.14662305 0.018372934 0.17338775 0.01028073 0.08254062 0.012810013 -0.044284917 -0.15512308 0.18972361 -0.0036379613 0.109950475 0.045176536 0.039200958 0.09932192 0.16174284 -0.059490573 -0.050002925 -0.056071784 -0.10377046 0.09264701 0.0007948826 -0.017303672 0.12360548 -0.06435541 0.08437952 0.066793896 0.19372445 -0.12552895 0.1690669 0.05954267 -0.091044776 0.001051135 0.062060703 0.09901428 -0.11323214 0.07910653 0.009751749 0.027847948 -0.06148883 -0.2286089 0.14261885 -0.007641447 -0.0427109 0.07034614 -0.024881115 0.09400141 -0.068337336 -0.1821481 0.10320357 -0.10979695 0.031045286 -0.12476822 -0.088648684 -0.086145565 0.17248328 -0.11596 0.09379391 0.26477537 0.10380553 0.16355759 -0.10354241 0.07147775 0.15723638 0.061147 0.18851474 -0.1018941 0.012962681 0.0373379 -0.102515444 -0.030670099 0.14069033 -0.14315926 -0.10496963 0.022733683 -0.0079605775 -0.06012241 0.060493365 -0.146881 -0.0208814 -0.069465265 0.033230636 -0.15943743 -0.034578983 0.069152616 -0.12946361 0.07257536 -0.06226004 -0.0536564 0.011420966 -0.047452223 0.030882815 0.0055893706
http://data.doremus.org/vocabulary/iaml/genre/sp 0.007983414 -0.08495059 -0.014385824 0.046005767 0.043689687 0.08036052 -0.010616698 -0.17421804 0.15672188 0.059486322 0.011935032 -0.09011012 0.029768754 0.07299563 0.043962266 -0.14831525 0.13932724 0.08422604 0.013153591 0.012567954 -0.05009031 0.07949997 -0.09138744 -0.035610028 0.097546466 -0.07438896 -0.10802645 0.19266702 0.094230786 0.013772276 0.2270738 0.07370625 0.029181058 0.09822767 0.06947091 -0.07225635 -0.029868724 0.10016068 -0.060328964 0.007454274 0.0036689714 0.19880313 -0.082189925 0.03667316 -0.038236637 -0.04639585 0.037718758 -0.16870055 -0.054834053 -0.052918945 -0.063401215 -0.1608253 -0.007005442 -0.19061603 0.1028725 -0.26803175 -0.1162632 0.25336003 0.1576 -0.08906802 0.0062632924 0.15366334 0.16998552 0.032592878 -0.043875843 0.07096821 0.07850734 0.07132972 0.0028511696 0.0033936205 0.17077994 -0.004256678 0.04195178 -0.0441155 0.015363581 0.08927275 -0.029539583 0.035866585 -0.07275644 0.019332752 -0.0018508367 -0.12874101 -0.06554732 -0.10500352 -0.032556906 0.111976825 0.0431684 0.015253094 -0.12115304 0.14602894 0.055528466 0.05903161 -0.08372252 0.16006902 0.12162127 -0.0050637554 0.023751624 -0.17169964 0.14682968 0.13641036
http://data.doremus.org/vocabulary/itema3/genre/musdoc/69 -0.08377583 0.099414766 -0.06516811 0.062154643 -0.15601553 -0.055665914 -0.08544611 0.0190342 0.14571491 -0.078031935 0.16086875 -0.11314513 0.13053967 -0.22071452 0.09274127 -0.10918546 0.1884372 -0.039422467 0.08792843 0.009908784 0.1761214 0.022597617 0.118151695 0.009081589 -0.049251616 0.07982528 -0.046972025 -0.1389791 0.12726776 0.060857207 0.10983229 -0.059782907 -0.052181803 0.114677854 0.10116292 -0.12095264 -0.02386094 0.18101308 -0.0960661 0.07176036 0.024348311 -0.040610246 -0.007216784 0.15743643 0.14312649 0.070100635 -0.11292754 -0.0838898 0.033613503 -0.11031001 0.033007476 -0.0927423 0.039697662 0.007384166 -0.093120344 -0.16622506 0.21588583 0.026609836 0.013901593 -0.14224596 0.057350416 -0.065471224 0.13283594 -0.13501342 0.09968977 0.23894717 0.02855252 0.16748717 -0.05763456 -0.0070550563 0.006131244 0.032047298 0.092067316 -0.11768528 -0.10017793 0.10188874 -0.020689867 -0.06909425 0.16038957 -0.04405997 -0.042609908 -0.021126887 -0.06657461 0.027748682 0.041532837 -0.07271132 -0.029580474 0.069444366 0.030956307 -0.0023087224 0.08962032 0.124068774 -0.1040616 0.1153955 -0.040201806 -0.09653359 0.13581683 -0.02827254 0.059711166 -0.14159426
http://data.doremus.org/vocabulary/itema3/genre/musdoc/125 -0.055328667 -0.05177247 0.0073950314 -0.04591182 -0.25480318 -0.07459969 0.0059947316 0.028301354 0.10451271 -0.03197177 0.21452837 0.05373863 0.16298847 -0.14101386 0.19361559 -0.005797671 0.12915063 0.020618998 0.021465655 0.057699345 0.14750959 -0.18039428 0.055699553 -0.043386415 -0.13760175 0.08748433 -0.015837919 -0.0070701116 -0.14020228 -0.024896296 0.04516152 0.07925447 -0.2262411 -0.029608687 -0.031820964 0.026628671 0.0011695207 0.100126036 0.039283462 -0.07475208 0.034349922 0.014888064 0.03505164 0.06744109 0.07909254 0.0011766343 -0.086830355 0.0805119 -0.03651572 -0.15448552 0.036133297 -0.2578657 -0.026693353 0.02508157 -0.012626098 0.02779302 0.12814692 -0.012834577 -0.07416904 -0.046802584 0.10880428 -0.11148969 0.1536616 -0.041199 0.038278587 -0.011143643 0.117946744 0.18084072 -0.09360458 -0.07513504 0.015724156 -0.037728786 0.10974455 -0.16806722 -0.18922077 -0.04142415 0.1733108 0.16611446 0.016111523 0.11062609 -0.026573759 -0.12558223 -0.052941915 -0.016253129 -0.052471142 0.17063269 0.17766815 -0.019731866 -0.06262716 0.072512046 0.17725313 0.087117985 -0.06700996 -0.012308847 -0.014943717 -0.020506455 0.11998991 -0.09021906 0.021640634 0.026085388
http://data.doremus.org/vocabulary/iaml/genre/cli -0.10410068 -0.002373678 -0.13375324 0.058494225 -0.17625774 -0.067749955 -0.012799245 0.08848605 -0.049358007 -0.01279421 0.08526692 -0.06730122 0.1477109 0.008384792 -0.053220976 -0.03620334 0.27394497 -0.10290207 0.08502131 0.14206916 0.14271733 -0.11414075 0.060737666 -0.023935704 -0.056410655 0.00023652935 -0.027889738 0.0072421837 0.10298736 0.039746355 0.15198585 -0.20057274 -0.05260343 0.1534747 -0.050805096 -0.17196786 -0.05000556 0.045196243 0.09259302 0.0033413987 -0.10404041 0.11144792 -0.0875091 0.12413121 0.05490609 -0.1379645 0.03407277 -0.035434652 -0.03059537 -0.017467676 -0.006905235 -0.10500198 -0.069469884 -0.117000684 -0.115126714 0.064198375 0.22943413 -0.15272693 -0.02442642 -0.069924496 -0.03794674 -0.1416021 0.11120048 -0.068928845 0.078207895 0.12478163 0.053677585 0.15043612 -0.16364351 0.052108973 0.04847292 0.11578541 0.18293554 0.0056690034 0.05937309 0.073049925 -0.08150145 0.12512292 -0.060896482 0.05335639 0.05759235 0.07075007 0.07129532 -0.20202447 -0.066125 -0.118025 0.12493307 0.124401204 0.02197414 -0.10410469 0.009026598 0.09417135 0.11435423 0.10210275 -0.1489574 0.068490475 0.029617812 -0.012997286 0.054711595 -0.03044052
http://data.doremus.org/vocabulary/itema3/genre/101 -0.06983325 0.076754026 -0.0013304523 0.14252159 -0.12597239 -0.07375215 -0.13235742 0.005844542 0.1699469 -0.059809107 0.11061775 -0.050246693 0.10382035 -0.17433178 0.16102672 -0.13928668 0.09409937 -0.08200448 0.11323316 4.635882e-05 0.20819743 0.06417548 0.09509741 0.04423202 0.035009257 0.0025918393 -0.02520525 -0.17056455 0.08937843 0.071452916 0.07870777 -0.081118375 -0.0037403875 0.1734931 0.05543118 -0.15915164 -0.051312637 0.17322503 -0.10066039 0.04458156 0.045737937 -0.10471698 0.022454498 0.15897375 0.11191107 0.053853486 -0.067268506 -0.042018145 -0.022072671 -0.1315081 0.1025528 -0.074869156 -0.023383124 -0.023643034 -0.053754784 -0.15020858 0.26698884 0.0594744 0.088112205 -0.08039624 0.09127543 -0.09980406 0.084402956 -0.116866484 0.023488127 0.23684311 -0.027780006 0.05851753 -0.0066379486 -0.040677577 0.015880363 0.051214203 0.06309975 -0.0922978 -0.060094967 0.10449023 0.05905089 -0.11831599 0.17160533 -0.052943707 -0.030696653 -0.023099676 -0.09522272 -0.018132951 0.051784404 -0.033920884 -0.06525317 0.0771701 0.031049404 -0.017697623 0.12474199 0.12704666 -0.08279117 0.10345899 -0.07401481 -0.10112817 0.14880528 -0.031116065 0.01652989 -0.20858015
http://data.doremus.org/vocabulary/iaml/genre/elm -0.028061638 -0.05622028 -0.050752133 0.215214 -0.0005385134 0.04924629 -0.045453317 -0.08982806 0.19267876 -0.010801375 -0.014622362 0.102940984 0.12514855 -0.09337582 0.091632284 -0.0066266553 -0.06514379 -0.036728017 0.08894691 0.057243984 -0.016281052 -0.08688093 -0.12462596 0.0038521702 -0.12151136 -0.13321471 0.038044635 0.10481546 -0.14161432 -0.0027859544 0.1505027 -0.100403726 0.026523132 -0.015006797 0.045087907 -0.08796626 -0.095990226 -0.05271342 -0.080133036 0.057208925 0.014762148 0.109784774 0.06304178 -0.0029111109 0.08007158 -0.022906797 0.09347359 0.034985896 -0.11507843 -0.10428856 0.00922508 -0.14931546 -0.065242775 0.071543396 0.048656072 -0.200702 -0.26407877 -0.051077016 0.094696976 0.01961405 -0.112331346 -0.07360182 -0.029979847 0.023430075 0.082945965 -0.1247796 -0.09123267 -0.045298606 -0.06487416 -0.05225478 0.18130043 0.04868578 0.011622977 -0.023357138 0.07728453 -0.03521354 0.14276826 0.14421767 0.19243933 0.07865308 0.07752268 -0.082057014 0.011529 -0.33753404 0.13734233 0.03902002 0.30002972 -0.076872945 -0.02300496 -0.08112772 0.045989126 -0.030727487 -0.015463573 -0.038032882 0.001991822 -0.1211244 0.03590723 -0.050404098 -0.07192679 -0.06819348
http://data.doremus.org/vocabulary/itema3/genre/musdoc/48 0.012064656 0.00564394 -0.13016808 0.058508486 -0.344854 0.031606693 0.031224975 -0.08057905 0.06559777 -0.119994104 0.18291199 0.027359238 0.19617347 -0.05745045 0.20079057 0.010673854 0.05168279 0.01781066 0.16174854 -0.02209093 0.09474824 -0.022434983 0.00964568 0.035687964 -0.12700143 0.18481408 -0.05125501 -0.020481905 0.03059543 -0.027346529 0.060634904 0.062711604 -0.18805727 0.12062412 0.015624337 -0.081783466 -0.042366136 0.10288702 0.0338616 -0.109506905 -0.054598384 0.04337159 0.003653872 0.1733127 0.05668316 -0.07529419 -0.0475243 -0.08830161 -0.009060422 -0.0044601755 0.00081325055 -0.19799852 -0.03802657 0.08791394 -0.060802713 -0.046366774 0.18963476 0.19781294 0.010803504 0.012057928 0.10268177 0.0035604374 0.08649808 -0.0065440186 0.028275112 0.12823722 0.13382463 0.2489003 -0.025732767 0.009528532 -0.121989906 0.06660813 0.021572785 -0.17729421 -0.037270013 0.0023889667 0.0861975 0.2412714 -0.10227581 0.006302586 -0.0115955 -0.0781065 0.010924293 0.0072026527 -0.17272268 0.068589516 -0.020590032 0.06921645 -0.016653502 0.13148335 -0.029061344 0.031099953 -0.0062856395 0.01890565 -0.043090332 -0.03915543 0.06094691 -0.043047726 -0.14340855 -0.088220075
http://data.doremus.org/vocabulary/itema3/genre/musdoc/75 -0.13321023 -0.058818262 -0.017806632 -0.02614818 -0.2629659 -0.051220633 0.037203524 -0.0068626204 0.124173656 -0.014825174 0.15680158 0.035938133 0.16655397 -0.1945917 0.18165536 -0.017351251 0.07193149 -0.06383868 0.053662382 0.01602628 0.24295898 -0.12693346 0.050453853 -0.005150739 -0.13012803 0.10848718 0.013191913 -0.026968503 0.006768651 0.052971777 0.088065915 0.0068681003 -0.20044373 0.041567698 0.047856353 -0.096550144 -0.07634718 0.15646504 0.0063795056 -0.026112294 0.06917218 -0.102634914 -0.031267345 0.13967016 0.077283934 -0.01613979 -0.10425796 0.0046292865 -0.05785491 -0.13667676 0.06925153 -0.16114777 -0.040322892 -0.058583345 -0.018672073 -0.05111371 0.17325497 -0.02539139 -0.014741893 -0.073653564 0.10104108 -0.023416493 0.17729878 -0.09494279 0.043048944 0.12685752 0.14856695 0.1444819 -0.09349989 -0.048310332 -0.028786685 -0.041431595 0.042337757 -0.16838424 -0.11252847 0.017512634 0.07630468 0.062210634 0.13392273 0.11809301 -0.10691308 -0.021630682 0.011149257 -0.019117724 0.03274364 0.042347096 0.1558762 0.06899627 -0.052979764 0.09432676 0.12563671 0.13908902 -0.10648783 0.08817521 0.050818358 -0.100783855 0.24664465 -0.008825074 0.05076254 -0.04810918
http://data.doremus.org/vocabulary/iaml/genre/sce 0.08463514 0.0800232 -0.006914744 0.009881186 0.03810201 0.20316564 -0.09468251 -0.19999811 0.26341766 -0.015081928 0.11144577 -0.08856127 0.07641739 0.14562412 0.014183087 -0.2371333 0.10799644 -0.05344973 0.14239286 -0.04917905 0.011959429 0.1893179 0.077365 -0.0067846095 -0.035523996 -0.04637058 -0.07818804 0.15934706 0.013521047 0.0053539956 0.18240328 -0.03373072 0.104967706 0.050242156 0.1353587 -0.04768041 0.17452033 0.07055284 -0.14775272 -0.010979969 0.12053712 0.119741604 -0.101668715 -0.012775205 -0.10588793 -0.008599931 0.02704233 -0.146092 0.13833924 0.041370526 -0.09372722 0.15794282 -0.11444952 0.08369807 -0.0066840844 -0.21845047 -0.07998358 -0.0021242846 0.11597271 -0.122846395 -0.07640958 -0.016017728 0.1970847 -0.06408781 -0.02077588 0.22064677 0.027663458 0.039020136 -0.03853907 0.086692505 0.12227223 0.1073283 0.08482047 -0.052463472 0.047393464 -0.019628892 -0.039544113 -0.007321272 0.057548553 -0.08892737 -0.064638674 -0.03306131 0.0029334303 -0.07731778 0.04989022 -0.07679656 -0.0684048 0.002145547 -0.012522366 0.04181067 -0.010922755 0.048853617 -0.14483458 0.13212274 -0.06915059 0.09390222 0.018150082 -0.03901061 0.07295273 0.039299387
http://data.doremus.org/vocabulary/iaml/genre/cpr 0.06285776 -0.095305175 -0.011367455 0.07185077 -0.09949482 -0.07292537 0.013725662 -0.013149922 -0.01688063 -0.034367766 0.07181187 0.09740263 0.03029181 0.06612476 0.05250194 -0.03174749 0.019753808 0.15959159 0.06781027 0.10083588 -0.073017895 -0.07082558 -0.072333306 0.03270701 -0.13804129 -0.085237436 -0.0134497015 0.23490414 0.10763954 0.07397311 0.06313226 0.12691341 -0.11806544 0.027232138 0.114806816 -0.037226856 -0.015153156 0.05382431 -0.055482116 -0.07186259 -0.059652537 0.045221616 0.16889694 0.07977085 -0.09662599 -0.08289219 -0.04660261 0.0356111 -0.07173288 0.060128182 -0.1438153 -0.20260021 -0.10489207 -0.015785495 0.08257412 -0.03384224 -0.06908451 0.0097573185 -0.025419218 0.023485113 0.11696902 -0.026255662 0.014493414 0.21673436 0.06336558 -0.22914048 0.032352917 0.16481899 -0.21473506 -0.08681753 0.03990225 0.06383829 0.022052612 -0.025842205 -0.016847868 0.024783174 0.10544872 0.26772547 -0.053053264 0.15145755 0.18469726 0.058734808 0.0684593 -0.024378054 -0.16445817 0.18551412 0.22112088 -0.0038385775 -0.004693705 -0.026267534 -0.027083958 0.17090878 0.019440062 0.0743246 -0.09000041 0.070608705 0.17262162 -0.13135952 -0.02545082 0.03909349
http://data.doremus.org/vocabulary/itema3/genre/musdoc/53 -0.117430456 -0.032435298 0.09719632 0.063445665 -0.19048083 0.08409536 0.039529562 -0.059922867 0.13727064 -0.045949176 0.17523724 0.09517245 0.12746939 -0.12881795 0.33653894 0.010252542 -0.075818785 -0.054527566 0.06893305 -0.063634664 0.24083239 0.008326756 -0.029392697 -0.08647576 -0.09085216 -0.041317664 -0.045249138 -0.0010665845 -0.11659794 0.047232628 0.11782578 -0.023347227 -0.046085943 0.033858117 -0.041345187 -0.0748655 -0.08055445 -0.021597603 -0.03790017 -0.044714693 0.051706146 -0.037198924 -0.08137648 0.05090477 0.07973534 -0.07347464 -0.08473829 -0.011623202 -0.18738477 -0.14870906 0.09054078 -0.19085257 -0.08844964 -0.045490935 0.061574355 -0.06760217 0.023462364 0.06482308 0.030503869 0.03980785 0.033710133 -0.047605366 0.109186694 0.008414334 -0.06615698 0.15984207 -0.044075046 -0.055910412 0.012940098 -0.05429744 -0.004953533 -0.035510864 -0.0239801 -0.15548573 -0.07311389 0.12201448 0.25375524 0.050695285 0.18116222 0.1283466 -0.06591633 -0.09854881 -0.03735203 -0.11839938 0.12501772 0.13959987 0.1728218 0.067558676 -0.10078202 -0.0012545486 0.13983962 0.09250797 0.016700326 0.04030664 0.025452873 -0.112043835 0.18116884 -0.038253848 -0.047583155 -0.06623254
http://data.doremus.org/vocabulary/itema3/genre/musdoc/13 -0.12662908 -0.066387996 0.049825765 -0.052245375 -0.2550641 -0.042904574 -0.0010909735 -0.011181392 0.15949889 0.015517526 0.12558177 0.021640232 0.19276828 -0.15145263 0.226425 -0.03356488 0.05510606 -0.071526 0.002864291 -0.04176808 0.25749752 -0.13156484 0.046293136 -0.04378964 -0.10051964 0.124638356 0.017865947 -0.042214543 -0.026950486 0.035356674 0.05384022 0.04707137 -0.1957449 0.04914248 -0.0012638972 -0.08636172 -0.07033926 0.1556385 -0.0152516095 0.0076526864 0.076257445 -0.08937795 -0.07061464 0.08882298 0.05744431 0.017533181 -0.108365715 -0.030928858 -0.04324243 -0.114746094 0.03549814 -0.14034528 -0.06456389 -0.07984374 -0.012157461 -0.11634447 0.12286104 -0.020373544 -0.004905611 -0.054979138 0.09433773 -0.072118305 0.21787006 -0.083390206 -0.006535737 0.11226006 0.13929084 0.118359126 -0.066585526 -0.034190983 0.033661917 -0.08190468 0.04321999 -0.12617438 -0.08814655 0.027802525 0.115332015 0.054600604 0.12919323 0.14676516 -0.089875266 -0.03509958 -0.04122325 -0.052289315 0.050434437 0.05621477 0.13378254 0.034447707 -0.08186771 0.09288682 0.14123076 0.10588511 -0.14280353 0.09591491 0.01614491 -0.12166221 0.27050418 -0.020507704 0.075877644 -0.0564717
http://data.doremus.org/vocabulary/iaml/genre/nc 0.06506639 -0.04831123 0.073614314 0.12113164 -0.12381402 -0.0037703593 0.094856754 -0.062348835 0.07250252 0.08302388 0.0042490433 0.08717654 -0.10021566 0.026166571 0.2226066 0.07047728 -0.13955785 0.1111406 0.054058798 -0.018975055 -0.025145693 -0.16714814 -0.09142618 0.0039520613 -0.02123174 -0.1379807 -0.0075768633 0.29591843 0.038308773 0.04816146 0.09924791 0.10627195 -0.08172923 0.0101833865 0.064403854 -0.089926325 -0.056824554 0.002266368 -0.1323476 -0.116625 -0.0015456548 0.012286554 0.05000981 0.09909618 -0.01299961 -0.07710867 -0.044700675 -0.013398669 -0.16433005 -0.05794126 -0.044171598 -0.3149361 -0.15899059 -0.014658621 0.095976256 -0.023852503 -0.029745094 0.047413252 -0.0028616036 0.10462827 0.10719198 0.05681799 -0.06729808 0.13429438 0.042035803 -0.16080354 -0.033283684 0.014789076 -0.11147657 -0.14043036 -0.001989506 0.07289669 -0.029497907 -0.12010042 -0.035766453 0.025641512 0.118759505 0.15095605 -0.066259824 0.1369956 0.09686113 -0.04359628 -0.06821132 -0.052767813 -0.058509883 0.3028251 0.059788674 -0.081410676 -0.09549295 0.049231842 0.017938968 0.09436456 -0.049896855 0.08741228 0.0025717828 0.07078821 0.20262474 -0.08866544 0.045070976 -0.09540803
http://data.doremus.org/vocabulary/iaml/genre/dv 0.046745818 0.0009141181 -0.12260015 0.09367716 -0.08804362 0.15364976 0.012604174 -0.18353243 0.12161915 -0.12790827 -0.031025995 0.10413088 0.19367447 0.11322261 0.05546102 -0.17304708 -0.11709937 0.16557966 0.1476163 0.06951269 -0.14308469 0.050610412 -0.067230105 -0.04399259 -0.21891661 -0.0077652424 0.012527079 0.16162243 -0.1012893 -0.014020346 0.11816796 0.12860574 -0.054858763 0.039255355 0.040683348 -0.07763914 -0.014491903 -0.14577119 0.0021441795 -0.09907728 -0.1519409 0.08537186 0.09282268 0.023595266 0.06472165 -0.061948966 0.015751103 -0.02320482 0.017709192 0.036980096 -0.106830284 -0.1973542 -0.090408996 0.2269138 0.0769765 -0.055380456 -0.2291274 0.08767097 0.054358058 0.084928446 -0.039796308 -0.009786403 -0.07534474 0.119414404 -0.07108927 -0.09245467 0.005598688 0.04189363 -0.11532399 -0.044217203 0.057147164 0.085387625 -0.055846404 -0.07467962 -0.010913448 -0.1277491 0.08329496 0.25413907 -0.12835932 0.06084653 0.051185064 -0.0012041872 0.040679924 -0.10919285 -0.076531306 0.09364398 -0.001883337 -0.122102395 -0.06427002 0.0720328 -0.0029639616 0.055942465 -0.049121946 0.018589625 -0.045114752 0.041340236 0.008933341 -0.06655112 -0.18412887 0.06589736
http://data.doremus.org/vocabulary/itema3/genre/musdoc/107 -0.0404984 -0.07428823 0.037380952 -0.05236888 -0.26971948 -0.065179855 -0.009849373 -0.02171744 0.14495298 -0.030672824 0.20217207 0.06688096 0.16657783 -0.109278984 0.21404684 -0.023721514 0.13486925 0.04575292 -0.006506463 0.022616627 0.12217526 -0.19444987 0.05587197 -0.06622847 -0.12675656 0.07563716 -0.0047020623 0.003401477 -0.14707963 -0.011950626 0.066036 0.09851412 -0.1881685 -0.030226678 -0.045022413 0.045296393 0.026038928 0.08726197 0.047907654 -0.08581144 0.052739557 0.016311597 0.014243333 0.050515 0.121799126 -0.020823564 -0.09439223 0.084647916 -0.0234961 -0.15159643 0.015834713 -0.24963538 -0.034464456 0.019382223 0.009614164 -0.00899605 0.11394439 -0.0029166322 -0.094175845 -0.072538614 0.10572538 -0.12107264 0.13661565 -0.020054577 0.040148497 -0.023559969 0.0832391 0.18704931 -0.05701562 -0.04812012 0.046357617 -0.026798239 0.1216481 -0.16563714 -0.22823976 -0.06338962 0.14934854 0.14222759 0.012808438 0.13524611 -0.019272672 -0.12863015 -0.0752079 -0.022469716 -0.05201444 0.14197443 0.1634463 -0.017701289 -0.034940906 0.055360015 0.1748975 0.10089527 -0.109148756 0.01200296 -0.011493599 -0.044129092 0.113056555 -0.06484719 0.028970338 0.042702615
http://data.doremus.org/vocabulary/iaml/genre/mi 0.10021208 -0.03677258 -0.07560977 0.070939705 -0.14112297 0.048610564 0.03331367 -0.0300686 0.08978561 -0.11308185 0.097878255 0.13792498 0.03706765 0.1750042 0.026840605 -0.09560814 0.053894937 0.07901496 0.099262 0.00846952 -0.06826325 -0.066739276 -0.09001852 -0.01786585 -0.16556315 -0.0328478 -0.017191574 0.12245347 0.17237389 0.11725744 0.070257425 0.1971367 -0.06863752 0.0483123 0.066346735 0.0036597818 0.0750903 0.024844412 -0.014647616 -0.16896166 -0.056544304 0.0344452 0.07607325 0.15256752 -0.14546278 -0.15930784 -0.037453905 -0.038190402 0.030314997 0.08864123 -0.12611403 -0.15537098 -0.20346373 0.09311504 -0.035873953 0.01627067 0.06353625 0.083138324 0.016830597 -0.039495625 0.12153089 -0.035666946 -0.06775503 0.12055602 0.020454528 -0.12313217 0.075044386 0.21857925 -0.22349371 -0.055143215 0.022898693 0.18313424 -0.013963033 -0.11451732 0.047211688 0.05067401 0.02793281 0.25005022 -0.13422 0.06530376 0.05198252 -0.06898327 0.041439343 -0.015549816 -0.14821169 0.06339331 0.00030229564 -0.012688611 -0.06483739 0.04825357 -0.037156884 0.18711124 -0.01919084 0.22544743 -0.096206464 0.082176454 0.09620337 -0.038797513 -0.009081193 -0.024589319
http://data.doremus.org/vocabulary/iaml/genre/an -0.019821465 0.1448066 -0.12442109 0.0033611 0.014515607 0.019198917 -0.11616296 -0.035436668 0.082508534 -0.03131678 0.18024217 -0.05948462 0.16646332 -0.068930544 -0.014745171 -0.22120176 0.23953933 -0.08112871 0.09989748 0.08015728 0.07276249 0.068147704 0.13060053 -0.030709255 -0.02877223 -0.04686711 -0.10281103 -0.009335184 0.060664732 0.027116386 0.15087473 -0.12985498 0.040006623 0.13496074 0.1067347 -0.15146539 0.08359579 0.0477571 -0.15554081 0.10906737 -0.028849874 0.07168652 0.0006153974 0.087083854 0.06027249 0.060560383 0.0012677067 -0.090425625 0.0878605 0.007978207 -0.03410683 -0.06303187 0.024335789 0.068990156 -0.076388516 -0.18950133 0.08120604 -0.10690031 0.07605417 -0.22783636 -0.12990826 -0.118133985 0.12836216 -0.10547334 0.10552921 0.24298207 0.056290593 0.109345816 -0.06377378 0.10988867 0.17870484 0.09255357 0.18685754 -0.01859558 0.0019541571 0.011463027 -0.090772815 -0.07149365 0.14508434 -0.07975934 -0.036255576 0.05158074 0.00040340488 -0.12333815 0.08348863 -0.12200524 -0.03765117 -0.031000437 0.051018383 -0.13130929 0.074502885 0.11450835 -0.08575028 0.10109948 -0.075777315 -0.02489502 0.0062200036 -0.048406735 0.07969909 -0.03092574
http://data.doremus.org/vocabulary/iaml/genre/cn 0.11398945 0.11602542 -0.15435019 -0.011797226 -0.1745085 0.12745959 0.060312167 0.030162247 0.13491616 -0.10233519 0.14165781 0.08328752 0.058166362 0.12845376 0.09286932 -0.23924662 -0.009600971 -0.00087426667 0.109561 -0.11075127 0.0027628497 0.07940062 0.059799455 -0.03813007 -0.044560287 -0.025448065 -0.054998107 0.14179781 0.07786438 0.08288714 0.025837332 0.019666879 -0.017664138 0.05713653 0.15643424 -0.1335989 0.010404647 -0.110939845 -0.23966566 -0.014973612 0.069206156 0.0056430693 -0.07475706 0.17233895 -0.0743185 -0.021957029 0.018789573 0.006865013 -0.009169268 0.118781194 -0.130418 -0.014026177 -0.14000659 0.026415873 -0.010061691 -0.118592255 0.1618887 -0.06489363 0.016910974 -0.1124873 0.021520376 -0.18468253 0.030631747 -0.05948108 -0.08523171 0.10699199 0.10850943 0.11135846 -0.12143172 0.12242653 0.093053274 0.046017993 0.06971105 -0.10649008 -0.014601679 -0.059276562 -0.0013417834 0.1347152 -0.099184304 -0.02344754 0.026808813 0.039682705 -0.11214556 -0.02284911 -0.009582157 0.05980937 -0.11135162 -0.024473494 -0.13600196 0.10681654 0.04472309 0.19807555 -0.14579119 0.18215552 -0.17779146 -0.072232634 0.027877023 -0.13397115 0.035082787 -0.1562375
http://data.doremus.org/vocabulary/iaml/genre/or 0.022199558 0.12856449 -0.03318058 0.0474486 0.046434306 0.14281918 -0.059512652 -0.2088449 0.16850375 -0.0144905625 0.103028916 -0.06754515 0.09808318 0.08509372 -0.03279824 -0.24618027 0.16123657 -0.06040187 0.13329281 -0.05138 0.0724736 0.1859168 0.088542774 0.017449236 -0.099099144 -0.03373546 -0.04309579 0.12378051 0.0060009863 -0.023719862 0.14184701 -0.12680715 0.072260074 0.09278355 0.12290506 -0.089329556 0.08064946 0.029885143 -0.097662985 -0.010240151 0.10738164 0.13360243 -0.10241176 -0.012796413 -0.026006963 0.028909238 0.011883502 -0.20008597 0.08262173 0.048312638 -0.033669848 0.12143968 -0.08289255 0.095670186 -0.0101612145 -0.13009794 -0.086565085 -0.010174819 0.14647429 -0.16703655 -0.09597573 0.059323613 0.18369606 -0.12800892 -0.025857316 0.2812322 -0.009949305 0.057855222 -0.04178055 0.11001426 0.1308802 0.13557425 0.09526831 -0.0019494069 -0.027115213 0.01350831 -0.062461097 0.025655974 0.055864222 -0.10253467 -0.07757345 0.018834831 0.039709896 -0.10614281 0.06541886 -0.06938636 -0.14043823 0.026722914 -0.08888396 -0.053033583 -0.010560814 0.074259154 -0.123656884 0.060203727 -0.11592979 0.19218142 -0.0392314 0.008793545 0.05008298 0.108631164
http://data.doremus.org/vocabulary/iaml/genre/tc -0.01131665 0.056676827 -0.1008133 0.063365035 -0.24535966 0.020896006 -0.06721782 0.06002686 0.008093955 -0.12021885 0.120803244 0.016799867 0.12557708 0.1063415 0.0073882537 -0.09526237 0.13049483 -0.05950438 0.11700041 0.062294908 0.057728514 -0.15165031 0.016625658 -0.016899811 -0.1225987 -0.020617755 -0.09477504 0.020587321 0.10672922 0.028176252 0.12924473 -0.07545975 -0.13475075 0.12306821 0.005916011 -0.15741926 0.005265655 0.021569543 -0.011595312 -0.071728855 -0.13926053 0.078914456 0.10336183 0.18372916 0.025578111 -0.1568615 0.00872561 0.059114702 0.04036864 -0.049298625 0.05139406 -0.11714112 -0.11721109 0.07634432 -0.027553804 0.00021977902 0.22185302 -0.038621698 0.0033713228 0.002245133 0.08193333 -0.14559452 0.06927108 0.03950831 0.054630686 0.058030207 0.05296736 0.15524077 -0.22898754 0.037514396 -0.026247013 0.17341234 0.0707661 -0.02165377 0.05244756 0.044632662 -0.0072351205 0.20304762 -0.08924858 0.08545154 0.05822386 0.02870366 0.09653836 -0.18887262 -0.18038292 -0.06554119 0.1419166 0.03530154 0.02538822 -0.19067197 0.033119578 0.17069852 0.08814815 0.040451724 -0.20218952 -0.02650671 0.11764764 -0.056354154 -0.06191545 -0.06311564
http://data.doremus.org/vocabulary/iaml/genre/ccl -0.011324211 0.15782924 -0.110948876 -0.00093477196 -0.07053552 0.033183135 -0.07031546 -0.022223055 0.10201506 0.024553696 0.24082617 -0.06082421 0.13728577 0.068580285 -0.054625433 -0.19044995 0.16321002 -0.07428913 0.08617392 0.052753393 0.10579693 0.030669643 0.14290251 -0.04905543 -0.03627066 -0.08503849 -0.0841999 0.090703934 -0.017888034 0.005347301 0.11317898 -0.12062513 0.01890714 0.16365573 0.15789518 -0.13371682 0.09544621 0.02947751 -0.11740612 0.06593776 0.10299713 0.08505685 -0.04572872 0.07168207 0.010599019 0.025273828 -0.0026616866 -0.13762793 0.078537025 0.025557533 -0.020005502 0.07347086 -0.08906177 0.10710201 -0.13386013 -0.14835426 0.13391447 -0.13815174 0.05953641 -0.17246854 -0.031341355 -0.12437437 0.10285155 -0.11956997 0.032059483 0.310373 0.05196142 0.13899387 -0.15224776 0.05014056 0.10773689 0.07538052 0.20453554 0.011963066 0.02630063 0.00089650456 -0.07459626 0.01663315 0.08419136 -0.13574885 -0.0037879527 0.070734344 0.020963248 -0.07145093 0.014075351 -0.09509327 -0.01505722 -0.02973126 -0.06554817 -0.15460886 0.063828826 0.13517503 -0.07820407 0.07143261 -0.19149333 0.01204981 0.034995385 -0.04901041 0.024571763 -0.01383145
http://data.doremus.org/vocabulary/iaml/genre/ops 0.015186067 0.05737484 -0.010968642 0.096650526 0.0076171304 0.18005745 -0.0920715 -0.20152794 0.2656091 -0.029809332 0.06773215 -0.046218265 0.105318785 0.12946108 0.03334309 -0.25171152 0.10002993 -0.06604499 0.14272416 -0.06687797 0.051698703 0.21200943 0.053381596 0.033996064 -0.07685246 -0.032859083 0.01800604 0.10040054 -0.038318902 -0.040016707 0.11183005 -0.033621944 0.06414468 0.13317998 0.04010523 -0.10558842 0.119584665 0.036580104 -0.07139711 -0.043150768 0.14627068 0.0702687 -0.09560349 -0.09839423 -0.07799677 -0.026566802 0.024405349 -0.16679905 0.1308456 0.045844167 -0.04582019 0.12685461 -0.17915647 0.13971958 0.05098854 -0.1187145 -0.12779057 0.029785808 0.13406196 -0.101977274 -0.08574701 0.03178186 0.1610258 -0.09150488 -0.070112646 0.22324252 0.017880699 -0.004832377 -0.022544438 0.0860059 0.101869434 0.11820302 0.0792743 0.013848855 -0.045708075 -0.042123415 -0.013957464 0.0037013819 0.012708128 -0.09361452 -0.120152906 -0.0053847814 0.083775155 -0.10613455 0.10412598 -0.08085648 -0.15852341 0.09381201 -0.021148108 -0.024833094 0.012441217 0.08951965 -0.1270933 0.057002947 -0.12494956 0.18079375 0.011676747 0.054881863 0.010684767 0.086039394
http://data.doremus.org/vocabulary/iaml/genre/csn -0.100931 0.035096195 0.09453265 -0.020855572 -0.14724253 -0.10756615 -0.06764578 0.019987417 0.20520307 0.119137034 0.064392485 0.0688154 0.14780019 -0.023032935 0.22393768 -0.008412871 -0.13145107 -0.1223967 -0.015959626 -0.05115241 0.18443812 0.011925485 0.04181203 0.0034767939 -0.10809391 -0.023643918 0.04566723 -0.016873412 -0.10228112 -0.027252141 0.023228263 0.036837757 -0.058179524 0.119279906 0.05785407 -0.07626717 -0.004518351 0.004318844 -0.12353328 0.12354016 0.11110219 -0.13742879 0.0028822294 0.05442112 0.07042136 -0.0022233413 -0.049066518 0.046275422 -0.10332573 -0.12983267 0.09528151 -0.11317199 0.023296412 0.020053867 0.09709261 -0.24126802 0.10690111 -0.114245504 0.025355253 -0.012377207 0.07043979 -0.15502614 0.106223166 0.061416715 0.08169786 0.036641527 -0.03656631 0.041960806 -0.15209089 0.10708126 0.059048112 -0.03557046 -0.015323904 0.009893694 0.08949321 -0.092288196 0.10012199 -0.057504192 0.20786268 0.09779751 0.0061460524 0.042994816 -0.012671721 -0.13539691 0.04621323 0.08439575 0.050516624 -0.26059836 -0.016143922 -0.08392073 0.01690759 0.07937675 -0.2508237 0.10209628 0.004490737 -0.13783641 0.22581819 -0.12072181 0.039318487 -0.09578519
http://data.doremus.org/vocabulary/iaml/genre/fg -0.01534116 0.077500075 -0.1481655 0.058754217 -0.25220844 0.033319112 0.011763357 0.006035834 -0.008777105 -0.12906799 0.059398446 0.02892052 0.11177722 0.09739971 0.011257367 -0.121064946 0.2056686 -0.04618347 0.14114702 0.004363859 0.026845517 -0.103809945 0.007737618 -0.04935504 -0.09547423 0.018157294 -0.047724765 0.103778005 0.16435546 0.09625572 0.1264324 -0.09239371 -0.11326798 0.09774289 -0.012878898 -0.18660639 -0.004072055 0.0022784856 0.0028028623 -0.08097948 -0.088935286 0.07329834 -0.025158549 0.17368665 0.014221924 -0.2230916 -0.0008037239 -0.05720453 -0.049024325 0.019964324 -0.013743199 -0.13274062 -0.13769183 -0.0067942464 -0.088170394 0.072744414 0.18908204 -0.0056428583 0.020579409 -0.051091857 0.07458693 -0.09447622 -0.022488669 -0.005751497 -0.026032858 0.090978555 0.03486081 0.16092545 -0.15641345 0.008938018 -0.020505868 0.2321268 0.07831924 -0.120281674 -0.018264918 0.07623972 -0.039680716 0.20656186 -0.14827684 0.083116874 0.07587803 0.031395018 0.044797108 -0.12764357 -0.18959011 -0.008645683 -0.0008423739 0.09730986 0.012014804 -0.08460707 -0.003595832 0.1956855 0.10252267 0.10299097 -0.19335508 0.07852237 0.0183013 -0.062005114 -0.05082898 -0.117257394
