30 100
http://data.doremus.org/vocabulary/key/am -0.111945 0.061726857 0.09795186 0.13125141 -0.094791666 -0.016116668 -0.11004158 0.13667934 0.0954872 -0.15115999 0.04305619 -0.05905878 0.10434937 0.073895134 -0.07300418 -0.123501785 -0.09486838 0.07409761 0.12320808 -0.0035748128 0.036147606 -0.06337816 -0.10294516 0.10834449 -0.03203558 -0.128265 0.15640156 0.07105359 0.1370287 0.08035049 0.033637967 -0.100071006 -0.045804016 -0.10613051 -0.1701348 0.0951056 0.12530762 -0.082175665 -0.03266794 -0.13821514 -0.09681083 -0.12865157 0.12629674 -0.025969788 0.05904773 0.09435395 0.1526121 0.054171357 0.026313623 0.0616885 0.1729463 0.013042761 0.14989853 0.03361562 0.023962049 0.018093474 0.14397387 -0.14697546 -0.029694343 0.08884294 -0.17912616 -0.17749768 0.14123179 0.08946042 -0.047245506 0.058490947 0.016859312 0.033777215 -0.10586798 -0.13406195 -0.122529276 0.051362265 -0.11591519 -0.052280117 -0.086653695 0.16100489 0.106404185 -0.039066914 -0.057617214 0.042440843 0.105614536 -0.041466523 -0.013289055 -0.17198497 0.010509521 -0.07411485 -0.04296326 -0.0060642753 0.10184846 -0.014986908 0.07946575 -0.17550954 0.1768354 -0.023301767 -0.040876675 0.1160599 -0.041249767 0.12753011 -0.14581461 -0.13960388
http://data.doremus.org/vocabulary/key/fx -0.12668368 -0.077575095 -0.15748361 -0.13573514 0.13292946 -0.05921674 0.08371989 0.07570057 0.08066185 0.068085 -0.042327993 0.06962077 -0.019424707 0.025441866 -0.11624062 -0.035487846 -0.07941077 -0.15493594 0.033937655 0.10531373 -0.11757046 0.039684948 -0.054502603 0.07357377 -0.036978208 0.054025 -0.1323982 0.14816393 0.12209457 -0.12308894 -0.063191764 0.13346553 0.1509652 -0.058637906 0.031928923 -0.06143139 0.05449937 -0.15086882 -0.09884154 0.09247514 -0.06105075 0.12438123 0.09189262 -0.08167099 -0.014181771 -0.04417439 -0.02787535 -0.01978731 -0.1359377 -0.1234024 -0.05715909 -0.071288496 -0.1222488 0.16724804 -0.09053835 -0.10233463 0.05602743 0.11546985 0.1376854 0.08981097 0.08468437 -0.0140412245 -0.07764418 -0.09806021 0.13636217 0.05658851 0.055225577 0.11315559 -0.13112144 -0.06366774 -0.06874275 -0.13023731 -0.054296885 -0.14407305 -0.098513365 0.1566341 0.0022936976 0.14099535 0.11242928 0.07133415 -0.11206491 -0.16335762 0.12394336 0.010563518 -0.096672565 -0.13939056 0.014226467 0.12642069 0.02554918 0.06030277 0.09953122 -0.042539608 -0.13814576 -0.04830503 0.1264818 0.13544233 0.12002419 0.13514894 0.15213692 -0.13778874
http://data.doremus.org/vocabulary/key/bbm 0.08342298 0.15471181 -0.12514515 -0.10900516 -0.012810517 0.09471272 0.042354282 -0.014745453 0.058699697 -0.15806568 0.019727638 -0.115741305 -0.017798342 0.019926459 0.14373535 0.05292869 -0.1087587 0.16128063 0.17593561 -0.057965674 0.03728807 -0.11137051 0.0367997 -0.027322257 0.088066526 -0.11145408 -0.005408823 0.036220964 0.112845615 0.0635566 -0.16189261 -0.03056509 0.08497846 0.08117206 -0.0647088 0.1528724 -0.08674948 0.15589207 -0.08110122 -0.005050216 -0.14916746 -0.06539544 -0.16473171 -0.05459813 -0.044797145 0.0719085 0.12512155 0.15672892 0.06347274 0.033591215 0.1582363 0.1347162 0.076198064 0.05376131 0.035246428 -0.13290676 0.145 -0.14075297 0.07734366 0.03465356 -0.03433232 -0.16972922 0.05625115 0.14501663 0.10494696 0.026247153 -0.019372435 -0.16527312 -0.12522238 -0.10790929 0.039385565 0.043967314 0.0787017 0.14305772 0.040204875 0.107078835 -0.07512084 -0.13116592 0.091052294 0.11281476 0.13398075 0.0721134 0.1300699 -0.003914388 -0.13881488 -0.10600626 0.14851892 0.14782752 0.050916906 0.17295556 -0.012153964 0.05936987 -0.032441825 -0.084848106 -0.07832474 0.018452736 -0.046482768 0.14386968 0.0050418107 0.08031917
http://data.doremus.org/vocabulary/key/d -0.15323614 -0.13956876 0.105832554 0.013047335 -0.10933473 0.14786708 -0.1104968 -0.08552571 0.10315419 0.12147629 -0.06621946 -0.041694608 -0.029338207 -0.07713266 -0.10877771 -0.09862655 -0.09901428 -0.14645039 -0.14188948 -0.15620638 -0.17124216 -0.03921685 0.14342274 -0.02492458 -0.08849969 0.12889528 0.104041934 -0.10736474 -0.07103802 0.118745305 -0.05796855 -0.06724211 -0.0018776074 -0.033408087 -0.053735044 0.0033133982 -0.1040399 0.010971257 0.02580448 -0.066334 -0.16028278 0.012226193 0.114780046 -0.121570006 -0.10307342 0.031461716 0.13562094 -0.08962656 0.016133858 -0.087478414 0.0339688 0.05585434 -0.12680252 -0.05008273 0.038123902 -0.1554256 0.16533075 0.07695809 -0.058663398 -0.06623763 0.04293949 -0.09972378 -0.04032344 -0.08449031 0.11096673 -0.11696968 -0.022407712 -0.12213057 -0.021538623 -0.05946038 0.062547386 -0.112912975 -0.004641845 -0.06617689 -0.15846111 0.011674028 0.12571543 -0.055062477 0.08895126 0.16954352 -0.0051598595 -0.16768219 -0.08867441 -0.15732831 -0.16142546 0.07761623 -0.13510099 -0.02939313 -0.15454951 0.11026509 0.15563156 -0.08744358 -0.096160226 -0.15168951 0.02003692 0.08886034 -0.1139195 0.023603287 -0.1172776 0.07718335
http://data.doremus.org/vocabulary/key/c -0.06236644 -0.091377735 0.0933592 -0.10921262 -0.07967713 0.16428193 0.10551225 -0.11588348 0.13485235 -0.09486615 0.043065865 0.0060747825 0.11009292 -0.00457499 -0.13301535 0.029287798 0.056767657 0.0133381095 -0.0040291916 -0.07657109 0.060732618 0.17222631 -0.07793689 -0.12504174 -0.036778063 -0.12001503 -0.13738923 -0.12792991 0.037019387 -0.17949945 -0.095769085 0.011141684 -0.058817707 0.06958816 -0.039549086 0.039609555 -0.0098360125 0.1095013 0.049730457 -0.06526867 0.04537702 0.016913123 0.0026679456 0.11837997 -0.0032079304 0.12951514 0.103111774 -0.16239835 -0.16539086 0.15465492 0.1505884 -0.11211979 -0.109233856 -0.040110376 0.0018753314 -0.050936118 0.011574051 0.093763374 -0.14536917 0.12150188 -0.0661824 -0.042620864 -0.009216004 0.05725594 0.09963989 0.017180236 0.16750067 -0.11268048 -0.018448893 -0.1718592 -0.11387955 -0.0054575074 0.09278939 -0.099066645 0.0896631 -0.122477554 -0.041090414 0.05167487 0.020819306 0.11094594 -0.17153545 0.074779466 -0.08757605 -0.17976736 -0.08296841 0.07763986 -0.03231386 0.17209764 0.10590832 -0.1442185 -0.069384806 -0.033530824 0.060929015 -0.117694266 0.060267523 0.15978232 -0.10252312 0.13825859 -0.14140825 -0.16875865
http://data.doremus.org/vocabulary/key/db 0.012093291 0.024249205 -0.014372337 0.004770895 0.17384353 0.09760844 -0.161354 0.1537743 0.0518302 0.00554223 -0.056954715 -0.076562844 -0.1638353 0.12200893 0.11405394 0.16436166 -0.15442784 0.12269401 -0.0872662 -0.10727678 0.0066829477 -0.01876552 0.14468336 0.16033728 -0.009830556 -0.092365086 -0.1423002 0.09371384 0.09406875 -0.08264219 0.11770166 -0.13454674 0.10473445 0.13828184 0.105893046 0.007036884 -0.016273353 0.14052495 -0.11211292 -0.11596552 0.08070116 0.086448856 0.0040555727 0.12765798 -0.0014730855 0.06332469 -0.06939859 -0.06855652 0.101779565 -0.020411871 -0.13279396 -0.05836201 -0.044386994 0.13864681 -0.14105994 0.002958378 0.17139007 -0.007813044 0.15167868 -0.003328585 0.006005454 0.07959507 0.021844521 0.070627324 0.16427244 -0.07371793 -0.012980973 0.043467965 0.10007932 0.15878174 0.11253765 0.08663841 0.13978755 -0.048892178 -0.11817491 0.12970354 -0.12042068 -0.0420618 0.019188805 0.08098702 -0.17393006 0.031602558 -0.14728627 0.059017252 -0.1461705 0.009361 -0.110002756 0.100527935 0.042456474 0.1331685 -0.13750653 0.045909766 -0.08609575 -0.121065415 -0.035675537 0.06755016 0.08294201 0.060232986 -0.069682986 -0.086931
http://data.doremus.org/vocabulary/key/fm 0.0018323006 0.09005341 -0.17893203 -0.05998322 0.01948791 -0.13746938 -0.109175846 0.081467465 -0.0073884428 -0.023617009 0.009264944 0.055995293 0.029327458 0.14241658 0.15301521 0.101761155 0.18861225 0.17053398 0.000526676 -0.05391969 -0.15499285 -0.120899715 -0.060406957 -0.035889763 -0.17762235 -0.080247246 0.1299057 -0.07801868 0.14059481 -0.06040016 -0.10949758 0.11525585 -0.04708354 0.18358321 -0.120702595 -0.0009460581 -0.07435557 -0.072759114 0.08235297 0.15088715 0.12345919 0.051281735 -0.05855914 0.12524197 -0.04265044 -0.059643365 0.04938426 -0.18698537 -0.17516463 0.04152429 0.18016286 0.08474103 -0.014973071 -0.006687553 -0.007077122 0.006089244 0.026781032 0.11306977 -0.08570905 -0.0644583 0.17904902 0.05481979 -0.18811412 -0.015201142 0.09091713 0.14398474 0.03489309 -0.026331969 0.012672253 -0.099026196 -0.108499415 -0.027319906 -0.12794934 0.12885335 0.040725347 -0.069759265 0.028744036 -0.019521706 -0.15872648 -0.020907965 -0.051847067 0.095781684 -0.078821324 0.08199268 0.1166647 -0.16055273 0.024109455 0.18074124 -0.07001991 -0.04643243 0.0036078326 0.03574046 -0.116910696 0.03357689 -0.05892064 0.18239932 -0.023128383 -0.068324335 -0.13388608 0.0042223306
http://data.doremus.org/vocabulary/key/f 0.08962897 0.14281255 0.06769465 -0.09391702 0.14930587 0.0035287393 0.008717028 -0.03177641 -0.018240003 0.057345904 0.030178972 -0.023249362 0.103331186 -0.16105011 -0.16636771 0.035679847 -0.098771304 0.008795827 -0.11078812 0.057148606 -0.055929545 0.05340566 0.011324696 0.062301457 -0.10101278 -0.13504437 0.15910007 0.031155912 0.020901196 0.14438866 0.11150286 0.065724395 -0.04083326 0.12072188 0.12634122 -0.025094694 0.008140624 0.09761005 -0.10494339 -0.12348665 0.11198783 -0.015446988 -0.12595485 0.13421245 -0.05913979 -0.09690943 0.15481627 -0.013419931 0.075790584 0.15870093 0.024823474 -0.15336652 0.016673885 0.12112606 0.12623702 -0.16161688 0.155334 0.029911773 -0.023771642 -0.13325399 -0.10918776 -0.018863956 -0.019990409 -0.13021447 -0.046903703 -0.12924087 -0.05147967 -0.029767077 -0.1668901 -0.11739276 -0.1339052 -0.0041759447 -0.10814385 -0.055488154 -0.10676188 -0.08288151 -0.15424973 -0.12218185 0.11490098 -0.118024215 0.07498559 -0.14484246 -0.09835686 -0.09999811 0.084616706 -0.122661315 0.10640543 0.106748246 0.035362385 0.07396192 -0.15367845 0.08958845 -0.072764665 0.013685343 0.025030576 -0.101288065 -0.1105553 0.15286386 0.14089033 0.12764616
http://data.doremus.org/vocabulary/key/g 0.025281396 -0.13342291 0.12622453 -0.026307806 -0.111754976 0.014906886 0.102905326 0.05489666 -0.04109969 -0.058747273 0.08556538 0.16691467 0.06465017 0.12103349 0.067727394 -0.06587124 0.06743138 -0.10647584 -0.11688094 -0.1665639 -0.042929966 -0.023501758 -0.05962065 0.13053818 0.06869249 -0.0040455274 0.16240343 0.0074224663 0.1057451 -0.029614061 -0.012931314 0.09760683 0.1271363 -0.10485016 -0.12414298 0.15823743 0.0032611834 0.16994809 0.123611 -0.10262252 0.05506594 0.022756673 -0.12835225 -0.1491596 -0.07920383 0.124103494 0.1675201 0.07188999 0.022320563 0.030998375 0.07574059 0.10411868 -0.053950313 -0.12903857 0.03191056 0.07451988 0.08497694 -0.13970359 -0.15746303 -0.014671196 -0.16035803 -0.05512065 -0.08477256 -0.14393793 0.03447537 -0.12640116 -0.13759522 -9.075986e-05 0.044009563 -0.087083 -0.15212737 0.017450238 -0.012716188 0.049010888 0.10273983 -0.047278885 -0.028044185 -0.16751334 0.10104236 -0.090601705 -0.023693973 -0.04400361 -0.14964533 0.06641294 -0.15274315 -0.16910173 -0.0878469 0.063348666 -0.081251316 -0.022278303 -0.09244616 0.15118611 0.16845421 -0.13640983 -0.06561768 0.120018266 -0.025789043 0.07829345 -0.07112189 -0.1567999
http://data.doremus.org/vocabulary/key/cxm 0.09703806 0.10939656 0.10346367 0.10655356 0.02258737 -0.14984493 0.0920369 -0.114913054 0.13289298 0.1200521 0.11619153 0.13589914 0.020046202 -0.04418906 0.14859936 -0.14064765 0.052622087 -0.090794064 0.08352106 0.085729994 0.117012545 0.054061737 0.1177121 0.12022955 0.13108689 -0.028543627 -0.062017348 0.0647637 -0.12429123 -0.040600117 0.12066047 0.11546593 -0.01897663 -0.02551683 -0.013193371 0.11193506 -0.022641066 -0.0025242385 -0.15031238 0.04909151 -0.055758983 0.07677776 -0.047851354 -0.08726525 0.066810384 0.059893597 -0.083847515 -0.12845887 0.10581887 -0.07805155 -0.14455676 -0.13881892 0.12648202 -0.14542396 -0.12949704 0.08576046 0.062152017 -0.04244024 -0.15175024 0.07545764 0.007986584 -0.11331985 0.13238387 -0.14871132 0.101736285 -0.061351363 -0.10401182 -0.07338004 -0.024297645 -0.15509708 -0.15298168 -0.1423529 -0.07531808 0.12893406 0.05917309 -0.1495465 -0.1157616 0.12361359 0.004454406 -0.060956888 0.07262592 -0.116409816 -0.069008514 -0.045801487 0.0921957 0.1047505 -0.08459908 -0.07892727 -0.07470076 0.115881026 -0.14371014 0.07435918 0.038976803 0.07203578 0.116448656 0.11805868 0.14703898 0.06160422 0.07300618 0.13813646
http://data.doremus.org/vocabulary/key/em -0.03684373 0.021303384 0.10227228 0.099511065 0.17712285 0.007339039 -0.048420124 -0.13027698 -0.10770442 -0.017521285 0.014687243 0.18163364 -0.08138052 0.06578586 0.15020241 0.0015827918 -0.027993444 -0.021145789 0.056634333 0.17397912 0.014448293 -0.011936782 0.12083683 -0.0732437 0.06992974 0.12609822 0.043598622 -0.038568437 -0.17419016 -0.06302398 0.13987409 -0.066447295 0.044477127 0.01068073 -0.16882809 -0.108826436 0.057350416 -0.12450775 -0.044304598 0.14375402 0.14835006 -0.088914454 -0.06074263 0.078785315 -0.012050497 -0.02999525 -0.15007037 -0.04127547 -0.031217508 0.013627167 -0.043960236 -0.037657242 -0.09922579 -0.16611204 -0.01585474 0.08082111 -0.13073605 0.13917856 -0.021231793 -0.07257938 -0.11094768 -0.0722843 -0.034731355 -0.043105435 -0.10168867 -0.17253186 0.0695403 -0.1723377 -0.07790642 0.053074263 -0.18050098 -0.0034247623 0.0455786 -0.13449344 -0.16039497 -0.013704898 0.16918911 -0.0683521 0.1538246 0.14119963 -0.12751041 -0.005485594 0.0010645202 0.0561286 -0.010787516 -0.17342536 -0.06899843 0.011967635 -0.1603003 0.051169883 0.045083676 0.0118199885 0.026652291 -0.115041316 -0.14679667 -0.059773065 -0.18100062 -0.10318021 -0.100711375 -0.18375798
http://data.doremus.org/vocabulary/key/ab -0.01094424 0.11310639 -0.100796886 0.14440975 0.15284911 0.15577504 0.054648716 -0.03871969 0.1782886 0.14413278 -0.024709376 -0.073637284 -0.007858565 -0.03335721 -0.12189335 -0.028088229 0.11214297 0.0765499 0.17575106 0.054266073 0.12807196 -0.13054986 -0.07584355 0.011879713 0.0378255 -0.06332179 -0.017459573 -0.14017561 0.07778767 0.02923295 -0.1500322 -0.16138998 -0.0022630754 0.12826614 -0.061327476 0.06467269 -0.15120853 -0.06544458 0.05074353 0.15710089 0.068109296 -0.16716884 -0.07531293 0.07105423 0.1373229 0.055854294 0.06351047 0.03432155 0.043136492 -0.15024613 -0.11620106 0.16827564 0.14940792 0.060229942 0.15160587 -0.12211065 -0.07614773 -0.018311322 -0.05571333 -0.027820054 -0.04895272 0.11510762 -0.15838899 0.088389084 0.14696763 -0.0024915545 -0.114300035 0.0887808 -0.0727605 0.014249515 0.0007875864 -0.16055503 0.09344864 -0.14693442 -0.13266453 -0.020545442 -0.14647488 -0.011134696 -0.036713064 0.044880573 0.024155207 -0.08506055 -0.15836078 0.07084103 -0.015344174 -0.09498172 0.06043933 0.16674513 0.07914404 -0.118831314 -0.07235964 -0.0858966 -0.103170104 0.06584201 -0.058370765 -0.014988657 -0.047627848 0.17132969 -0.030671269 -0.09060125
http://data.doremus.org/vocabulary/key/eb 0.08401495 0.10268989 -0.16998914 -0.12273674 0.02637252 -0.06477529 -0.11446914 0.079293706 0.15704493 0.03451839 0.00047573337 0.120495275 -0.06051777 0.09862261 -0.07837539 0.04714848 0.113436095 0.06167646 0.15373653 -0.116714045 0.08326119 -0.029154012 -0.05744532 0.03998023 0.08718118 0.007454189 -0.07588047 -0.041770495 -0.14395738 0.1710941 0.17145863 -0.10717735 0.10101811 0.056888267 0.1612963 -0.09899388 0.062384333 -0.015866585 0.11704943 0.1624364 0.057889123 0.12609957 -0.0009439643 -0.09146931 0.15373339 0.0018477204 0.09242251 -0.047410827 -0.02389026 0.036174387 0.03843953 -0.11762402 0.0534882 0.1431655 -0.0023185357 -0.013627942 -0.111677244 0.17665946 -0.066269994 0.15816511 0.10646869 0.041226987 0.0189031 -0.08695701 0.11541001 -0.054114733 -0.0136999665 0.1550577 -0.13172372 0.12664852 0.13728833 0.07044462 -0.060730346 0.045128394 -0.15187566 -0.16335519 -0.16922829 0.1334798 -0.014789722 0.010324815 0.084119074 -0.08650537 0.053624652 0.06945676 0.16963023 0.09880151 -0.0413765 -0.12318208 0.15819298 0.07707306 0.040696256 -0.057549518 -0.0795705 0.05142486 -0.12254712 0.03912351 0.020061992 -0.0572503 0.13821094 -0.16492616
http://data.doremus.org/vocabulary/key/cm -0.12604551 -0.1004767 -0.02871404 -0.15021893 -0.10206929 0.11666083 -0.030538462 0.04816423 -0.07937398 0.02187357 0.07936779 0.05287615 -0.07289442 -0.16603851 -0.13568407 0.05930661 0.15163241 0.043474015 0.0037021677 -0.10511484 -0.08205523 0.15275393 0.006201753 -0.04794184 -0.11742117 -0.017020022 0.08424459 0.1345204 -0.1317563 -0.06876144 -0.1082627 0.12383779 -0.12828286 -0.11108747 -0.13980001 -0.11570831 0.18366897 0.06112758 -0.08913233 0.055503096 0.10026575 0.041431457 -0.0836333 -0.1383928 0.086895354 0.16907102 -0.059274867 0.1708559 -0.09861124 -0.007081975 -0.13567124 -0.038394183 0.038143583 0.009195014 0.08674609 -0.14154774 0.10300708 0.012051946 -0.14752445 0.17283109 0.15324573 -0.016086243 -0.12129406 -0.10576187 -0.09552968 0.12525332 -0.032730997 0.09697493 0.01847144 -0.038381975 -0.0900419 -0.09725548 0.01468657 0.13322292 -0.18077035 -0.014113462 0.12395245 0.028464032 -0.04109639 -0.0016857575 -0.16867608 -0.11447503 0.092118405 0.052408088 0.010545607 0.11060132 0.14042322 0.04316828 0.010372755 -0.07070068 -0.08882432 -0.03242402 -0.16858627 -0.087407745 -0.06060963 0.08383591 0.115533814 0.07067265 0.12065365 0.065780275
http://data.doremus.org/vocabulary/key/b -0.035686336 -0.16834499 0.04083943 0.043037124 -0.00874428 -0.14517897 0.07650195 0.012581864 0.035379123 0.08049398 0.099637434 -0.083857045 0.033034354 -0.099166155 0.04887717 -0.011152874 0.16450024 -0.16532959 -0.074440636 -0.026827982 0.13064188 0.07916808 0.16659568 -0.0771776 -0.13165794 0.05110312 0.11486902 0.04499176 -0.13711205 -0.12828286 0.008950874 -0.16091523 -0.11734937 -0.028096277 0.060204655 -0.11263128 -0.05337101 0.121973336 -0.14273478 0.12462241 0.021947695 -0.16482538 -0.114455566 0.014238183 -0.1651129 -0.0652045 -0.0533465 -0.007355127 0.011371878 -0.15879704 0.06990133 -0.14526072 0.081137344 0.17556514 -0.097350486 -0.10311943 -0.0901828 -0.11041771 0.035894793 -0.12665474 -0.02232005 -0.064470954 0.027885322 0.14350326 -0.027121129 -0.15206741 0.03716882 -0.07591061 -0.031698406 -0.1598324 0.03680651 0.15184055 -0.13844013 -0.14218776 0.009051968 -0.16702393 -0.016053494 0.079760626 -0.015654169 -0.100192785 -0.106675506 -0.107591204 -0.08527448 0.044543892 -0.0578894 0.042380884 0.113388605 0.1379528 0.078365885 -0.100185394 0.10390217 -0.067053676 -0.13210057 -0.09854745 -0.01523162 0.014803195 -0.10481995 -0.13858138 0.15876411 -0.07157037
http://data.doremus.org/vocabulary/key/dxm -0.13764694 0.11630828 0.119559266 -0.063194685 -0.13106951 0.04726594 0.14724332 0.13343473 0.009588198 0.12150841 -0.02137724 -0.06534459 -0.010108508 -0.07784227 0.079808794 0.15883143 0.050835636 -0.003693771 -0.119596414 0.06110434 -0.03315844 -0.07643358 -0.14131354 0.016527291 -0.08966916 0.09384291 -0.09549677 0.036022175 -0.1649819 -0.14948533 0.16278885 -0.112535015 -0.12102698 0.17301553 -0.1721298 0.11909285 0.0025432978 0.13969564 -0.012139943 0.06472482 0.048941392 0.15120958 0.03515992 0.07430477 -0.063046336 -0.027299419 -0.0297743 -0.13743116 0.114136316 -0.0013928157 0.112916134 0.17408492 0.13630788 0.091110766 0.026169594 0.14310545 0.01161808 0.12263037 0.10799117 0.029304938 0.054571576 -0.15528 -0.1660088 -0.14168735 -0.07476848 0.026282813 -0.1269296 -0.0786026 0.0808188 0.027363714 0.10368295 0.009636449 0.040694952 -0.022458913 -0.05692576 -0.11791682 -0.0037588642 0.06598272 0.13367876 -0.07819665 0.13302575 -0.12192449 -0.10564795 0.1586827 0.034157664 -0.08895584 0.13323954 -0.02393843 -0.097490564 0.111181475 -0.108589895 -0.08669828 0.051568285 0.047162227 -0.09324194 -0.08384401 0.07571048 0.09390552 -0.12629616 0.10455013
http://data.doremus.org/vocabulary/key/axm 0.15509652 0.04515384 -0.1567138 0.13041039 -0.06387004 -0.15448952 0.078854464 0.08204547 0.12523985 0.08608642 0.005879646 0.01404549 0.08762728 0.10084193 0.07817495 0.072864965 -0.09373961 0.003797433 0.110781215 0.087254494 0.1761178 -0.13047868 0.13540949 -0.047965784 -0.027130596 -0.050086476 0.07393936 0.10650644 -0.029206939 -0.098777324 -0.0064358823 0.16470093 0.08562513 0.032692894 0.0093422495 -0.052348014 0.08984806 -0.10682751 -0.123009704 0.04524511 -0.085995555 0.17344177 0.010224463 -0.13252836 0.075251505 0.12151973 0.11657959 -0.14373732 0.17835082 -0.03521445 -0.017500443 0.026692979 0.10754679 0.08453433 -0.09443017 0.009016852 -0.14386463 0.086833104 0.09943612 0.062261846 0.002179629 0.019592963 0.13665244 -0.054619763 -0.0960162 0.10531324 0.10377098 0.06101143 0.17488988 -0.08392925 0.120011605 0.008834867 0.1596037 -0.12540312 -0.08406301 -0.08739652 -0.09517722 0.0010820755 0.02401175 -0.06785071 0.0141194705 -0.033372723 -0.03946382 -0.15884812 -0.10305988 0.15777226 -0.0024012383 0.09724596 -0.04494184 -0.1206827 0.034481537 0.17755763 -0.07325644 0.061276473 0.1537032 0.17004071 -0.16716549 0.13565093 0.00742576 0.112293445
http://data.doremus.org/vocabulary/key/ebm 0.02557868 -0.11216928 -0.15631466 0.055562414 -0.10387571 -0.14717433 -0.12117013 0.05963307 -0.019438943 -0.1328557 0.1222576 -0.05401296 -0.15277106 -0.051157426 -0.14214577 0.10824749 0.056509875 -0.07603758 -0.0027387515 0.07896867 -0.077310406 -0.0349882 0.04543981 0.13666607 -0.09027251 0.15672018 -0.10659056 0.062438518 0.09479993 -0.0062879547 0.050530683 -0.017666705 -0.036391225 -0.01316837 0.100900285 0.0016314846 -0.10044354 0.06965449 -0.13342181 0.06274737 -0.10670299 -0.15762925 0.14133488 -0.10912831 -0.04745969 0.024228785 -0.1346332 -0.15227589 -0.111552365 0.14568093 -0.09672412 0.10196091 -0.080549225 0.11699825 -0.1161879 -0.031058019 0.14196698 0.14339446 0.12400402 -0.10929947 0.068491615 0.033939086 -0.03348137 0.034536842 0.08032299 -0.039056346 0.15455069 0.12174999 0.1439529 0.15483859 0.017835509 -0.161696 0.1059954 -0.16329886 0.06315181 -0.030532232 -0.09372761 -0.08291136 -0.09532905 0.14593655 0.063539654 0.054500815 0.10134656 -0.0636046 -0.14107841 0.0522587 -0.046182796 -0.11654557 -0.040138718 -0.12473032 -0.14879493 -0.05517246 0.045763273 0.124431156 -0.1395732 -0.02916265 -0.13468495 0.12120973 -0.07707937 0.038053304
http://data.doremus.org/vocabulary/key/fxm -0.14752378 -0.0922133 -0.07856759 0.0334535 -0.16156216 0.16291314 0.0150391795 0.11887485 0.15877013 -0.010631994 0.012622645 0.019310748 0.07958576 -0.13348904 0.13043809 -0.1385807 0.00072114303 -0.018207371 0.03483699 -0.1634693 -0.06056588 0.11864102 0.11903435 -0.044791844 0.12773524 0.1394229 -0.14235403 0.040841226 0.05329522 -0.1553517 -0.100998625 0.114139326 -0.08399148 -0.13996051 0.015757158 0.08762018 0.002648068 -0.10207469 0.040112678 0.16016412 0.037868746 -0.09417314 0.003633452 0.028630516 -0.009313128 -0.11735797 0.04344875 0.12320687 0.0035986428 -0.04707719 -0.051926583 -0.10507778 -0.023554096 0.053450625 0.027607633 -0.14512126 0.1602042 -0.046458974 -0.011332293 -0.0062849987 -0.1578938 -0.12140804 -0.16738869 0.058231004 -0.16304918 -0.05907261 -0.10911537 -0.10947555 0.15876067 -0.116314076 0.058969304 -0.025994107 0.13720375 0.08299308 -0.004879542 0.07020259 0.1639321 -0.14230259 -0.045525525 -0.03609504 0.16235766 -0.14706427 0.014029929 -0.03319475 -0.15052296 0.09203111 0.09377769 0.045290854 -0.024087591 0.117894635 -0.044395175 -0.15506232 -0.030276002 0.063524544 0.12189346 -0.11419665 -0.105282694 -0.015323032 -0.10334407 -0.14115359
http://data.doremus.org/vocabulary/key/a -0.17386636 0.1554774 0.047160838 -0.10628902 0.063387945 -0.024303814 -0.098584995 -0.060359046 0.06383418 -0.12830035 -0.06358177 -0.0838965 0.102137476 -0.16168757 0.10277939 0.088132106 0.18174592 0.15453307 0.010029098 -0.045615762 0.12641846 -0.1668212 -0.029558435 -0.05698571 -0.15669027 -0.076587185 0.08235303 0.002331303 -0.101374745 -0.01527675 0.13228416 0.12797229 0.12571824 0.008799321 0.1155604 0.0944397 -0.08779024 0.18192053 -0.12804215 -0.015326804 -0.09837167 -0.15378451 -0.1590371 0.020343078 0.1829697 -0.03976973 0.08065772 0.09689575 0.0163571 0.14063475 -0.01824823 -0.17420413 0.08165024 -0.009170474 0.013347121 -0.16433357 -0.1329139 0.078501 -0.020982202 -0.019004606 0.058842283 0.022189604 -0.112277344 0.08927352 -0.009663482 -0.011090903 -0.11519748 -0.066870905 0.08673496 0.088842675 -0.08880401 -0.17161329 0.10731678 0.12864166 0.11327646 0.0021735937 0.04865893 -0.02146422 0.032212093 -0.11117975 -0.06506585 -0.019782972 -0.053838518 -0.13105619 -0.0030574587 0.15914209 0.12633249 0.023418264 -0.01933592 0.1163881 0.09927214 -0.094073884 0.14904214 -0.015529982 -0.0634954 0.1356937 -0.16214696 -0.03234609 -0.0075297984 0.01634773
http://data.doremus.org/vocabulary/key/gb -0.07540047 -0.039005727 0.16082147 0.15605932 0.03909247 -0.03714161 0.020872314 0.07361843 -0.047550347 0.03414056 0.12354399 -0.1216288 0.15178174 -0.056042466 -0.1265753 0.006384118 0.12033747 -0.13731407 0.13580139 0.13901208 -0.064907864 -0.13251476 0.08322435 0.0828179 -0.12450319 -0.085786596 0.0698091 -0.14184625 0.09251692 0.10016825 0.10033878 0.08380804 -0.073374525 -0.011255123 0.081933185 -0.13754255 -0.0926289 -0.037440255 0.06899823 0.1437479 -0.118802585 0.0039553605 0.09011247 0.017399121 0.14000405 0.14360124 -0.12475938 0.1428273 -0.096446425 0.1523369 0.07081886 -0.13884853 -0.032553878 0.10806298 -0.08565869 0.07931009 0.14210525 0.05365837 -0.15473916 0.14984667 -0.010063673 0.08207237 0.15539542 -0.121970624 0.15852371 0.10199538 0.09300275 -0.12782624 -0.1198845 -0.12468824 0.021777608 0.13520646 0.13829064 0.12731734 0.044252496 0.029801812 0.11543809 -0.068983786 -0.14327015 -0.12757853 -0.008518967 0.12760572 -0.055273995 -0.09053894 -0.030492758 -0.04218973 -0.019661156 0.0056563686 0.120262295 0.06817603 -0.07104903 0.08236958 -0.10904742 -0.15674636 0.01750347 -0.034496196 0.038594577 0.007503632 0.024894807 -0.005799383
http://data.doremus.org/vocabulary/key/bm 0.04574116 0.08475173 -0.011843444 -0.13212928 0.00933007 -0.018129649 0.15313056 0.07048976 0.10118761 -0.15634836 0.04951607 0.09701822 0.070407294 0.15714435 -0.15725793 0.107202664 -0.13939671 -0.1020582 0.11982947 0.04761772 0.025506986 0.08681056 -0.13524641 -0.16641787 -0.102956735 0.087527275 0.14453717 0.14102781 -0.16822536 -0.0095402645 -0.011831957 0.10351297 0.07688487 0.12009442 -0.11463968 -0.12560044 -0.012710228 0.065887995 0.005952102 0.031115493 -0.051672526 0.17701082 0.16753595 -0.114152364 0.0015814288 -0.046698347 -0.044613674 -0.07883931 0.022743095 -0.029937025 0.105644256 0.040369578 -0.1418719 0.1567637 -0.13759911 -0.07361408 -0.042968187 0.04928099 -0.11969 -0.018547304 0.17571151 -0.11316793 0.09820704 0.084964365 0.10523499 0.13097996 0.09227582 -0.1729021 0.056325514 -0.082667336 -0.059429202 -0.12256117 0.088942185 -0.034840047 -0.043437872 0.07310526 -0.1426025 -0.087424494 0.123528056 0.037166853 0.0015720222 -0.05884215 0.048335943 -0.13924661 0.04320915 -0.045149602 -0.051960476 0.11796738 -0.05500307 -0.08785537 0.08399563 -0.044081118 0.1729055 -0.102434315 0.14230128 -0.11079708 0.069479495 -0.08505267 0.09250104 0.12156212
http://data.doremus.org/vocabulary/key/gxm -0.035246532 0.030227808 0.14223303 -0.102890424 -0.08993297 -0.085208505 0.0010882866 0.088046215 -0.13544714 -0.12512898 0.0029059385 0.07548502 -0.11020708 0.14393283 -0.067654885 0.015015006 -0.04377449 0.1391643 0.02603206 0.12472183 0.0043333024 0.028299116 -0.036408853 -0.0053003435 0.022036051 0.1309291 0.10674901 -0.15083742 0.039046075 -0.14923286 -0.11943168 0.14282429 0.06172209 0.12434246 -0.035585616 0.13031298 -0.012607617 -0.09287653 -0.032139953 0.09676462 -0.02918323 0.056196 -0.10029816 -0.09852688 -0.06886515 -0.1643833 0.11943152 -0.0030293195 0.11155562 -0.04882445 -0.060819868 -0.12593672 -0.13472037 0.047948163 0.04816711 -0.09041802 0.09204404 -0.13687749 0.12237928 -0.11503812 0.02474465 -0.011021735 -0.09970919 -0.008968651 -0.12185087 0.07377703 -0.15458474 0.11653357 0.13443194 -0.030956926 -0.02036507 -0.1178196 -0.11075878 0.076277435 0.12527783 -0.08812724 0.037691124 0.14216004 -0.074020006 -0.15204701 -7.0717455e-05 0.1387679 0.14095446 -0.11540386 0.14482757 0.13233186 -0.16244084 0.15491931 -0.09800577 0.09097901 0.019605495 -0.13041972 -0.1051511 -0.11683242 0.16985247 0.022529125 0.10129093 0.14906491 0.037278213 0.10589811
http://data.doremus.org/vocabulary/key/e 0.064922415 0.016864533 -0.041097157 0.12546933 -0.11609443 -0.08287109 0.056467377 0.035145648 0.027949063 0.064552896 -0.06762645 0.11276631 -0.079840586 -0.008668262 0.013336256 0.070401184 0.09856583 -0.13052444 0.013393798 -0.12589964 0.092449464 -0.033335187 -0.021114042 -0.054889236 0.09555135 0.13328281 -0.12541716 0.014035892 -0.1155137 0.10249603 0.14070255 -0.10707016 0.060970966 0.10769032 0.07838451 0.040004965 -0.02688563 0.043144178 0.1430183 0.075442754 -0.14183871 0.15540832 -0.13956252 0.10794044 0.09764558 0.08979377 -0.020300755 -0.10469611 -0.09469844 0.10511524 0.044066004 0.12518187 0.13610764 -0.121661946 -0.13987355 -0.0041694315 -0.13108 0.091024496 0.11188135 -0.11006844 0.13272768 -0.13267155 -0.12827627 0.118990436 0.0563421 -0.14093286 -0.04384513 -0.1587707 0.14992595 -0.1560287 -0.025372645 0.06502645 -0.042128213 -0.12316052 0.031998187 -0.1472322 -0.007977598 0.024905173 -0.012498257 -0.14624418 0.1305358 -0.079262435 -0.04766409 -0.070936486 0.098029196 -0.12542857 0.046814945 0.010630187 -0.04202212 0.14108649 0.16632655 -0.14217508 -0.15499336 -0.15129317 0.13834994 0.115134224 -0.15950038 0.014542499 -0.057598785 -0.05643202
http://data.doremus.org/vocabulary/key/bb 0.022718942 0.011711461 0.03533599 -0.09930306 0.106069386 -0.064134434 -0.026798131 -0.11983439 0.01742863 -0.016035952 -0.020416286 -0.14728281 0.001243248 0.01745543 0.12732093 -0.13113447 0.025202896 -0.08603537 0.1384174 -0.0043240343 -0.06570109 -0.17849842 -0.120766446 0.09462307 0.11918085 -0.12779182 0.06338465 0.004981474 -0.11457503 0.045476552 -0.10125084 -0.17288019 0.12540722 0.08385117 -0.13152482 -0.055004273 0.15687744 -0.1229587 -0.009878242 0.022354176 -0.077022135 -0.17239906 0.16332084 -0.166114 -0.08710065 -0.070510924 0.048806775 -0.14438634 -0.12392922 0.0038436486 0.13359983 0.05473935 0.10107875 0.06547443 0.022233915 0.108000435 0.17364593 -0.16948876 0.113094985 -0.1589782 -0.11206702 -0.014690553 -0.15056325 -0.14687315 -0.07308744 0.042163856 0.049990553 -0.059352294 0.14810057 -0.14112382 -0.016666496 -0.05749325 -0.1144734 -0.080858365 -0.06414508 -0.054614805 -0.08911236 0.09774738 0.032386616 -0.008708754 -0.034953725 -0.15219972 0.10155814 0.06269838 0.0001505564 0.043970354 -0.026856067 -0.015076955 -0.17120865 -0.10542236 0.10016827 0.1764335 -0.11449317 0.035956297 0.04386616 -0.1748785 0.0043411446 -0.053777047 0.1316468 -0.06650362
http://data.doremus.org/vocabulary/key/dm 0.084016524 0.005592489 -0.121191226 0.03618783 0.061574098 -0.14077821 0.11767029 0.14803016 0.035780124 0.07013839 0.11077094 -0.11232677 0.05829802 0.14373893 -0.0406134 0.040419806 -0.036785584 0.098928325 0.075868554 -0.070950046 0.06721576 -0.13582562 0.13904363 0.11134849 -0.10171743 0.09198174 0.15490794 -0.060266405 0.055798292 0.0002241029 0.015231691 0.008804048 0.16329293 -0.12741147 -0.14179194 -0.14507884 0.16262646 -0.1534936 0.0700658 -0.08663971 0.08657431 -0.103486225 -0.0141408555 0.053172328 0.13386014 -0.0547851 0.14503045 0.024952644 0.062094122 0.06441916 0.16197671 -0.033898417 0.0092659695 0.13048817 -0.036818206 0.15521856 -0.076569684 0.143494 0.0025180518 -0.097922266 -0.16723515 -0.16756724 0.050894983 -0.1671713 -0.11569503 -0.14513643 -0.06742097 -0.087767236 -0.056462366 0.013672004 -0.17276554 0.088449776 -0.07659949 0.034766115 0.06588832 -0.011580164 -0.15212402 0.059673678 0.057278015 0.0829318 -0.11354989 0.05861496 0.022202512 0.15376489 -0.16932572 -0.015634961 -0.06077721 0.16317011 -0.124410905 0.016428325 0.05759589 -0.027997594 -0.110460624 -0.010008936 0.12126264 0.01967245 -0.102727324 -0.10005877 0.104774065 -0.08437325
http://data.doremus.org/vocabulary/key/cb -0.13340819 0.09570952 -0.16056079 -0.03263541 -0.1323917 0.09835173 0.025410265 0.026128124 -0.07132089 -0.0038198242 -0.0076394933 -0.06720141 0.10535875 -0.13923761 0.0906514 0.15561904 -0.02658418 -0.041434053 -0.042682875 0.15653801 -0.15389553 -0.02674855 -0.16364056 -0.013677604 -0.1644011 -0.04315867 0.14153042 0.088998705 0.0028486531 0.027316399 -0.13227792 0.027697492 -0.15031882 0.110404685 0.115087025 -0.06632139 -0.16957854 -0.12903789 -0.079367325 -0.03617959 -0.14629655 -0.08949913 -0.16937412 -0.022652917 -0.01262651 -0.11948918 0.17496419 -0.1698054 0.1413816 -0.04486003 0.1563513 0.033455316 -0.12922329 0.10361017 -0.056780487 -0.04368679 0.02541356 0.113160625 0.11427941 0.16630194 -0.056036927 0.15715095 0.059283856 0.10178257 -0.026316194 0.0926468 -0.07979343 0.00977337 -0.012059782 0.011299687 -0.02630752 0.13397558 0.13749218 -0.12778167 0.029730568 0.10894932 -0.044141326 0.018913114 0.058270544 -0.014230251 0.10767616 -0.16634192 -0.070957735 0.050144754 0.004004306 0.059710488 -0.08930983 0.12345808 0.055971723 -0.061297484 0.072947636 -0.12801033 -0.11272872 0.065936856 -0.0062058684 0.106961146 -0.14233293 0.16088344 -0.0101124225 -0.098029286
http://data.doremus.org/vocabulary/key/abm -0.07404137 -0.13619366 -0.0030984278 -0.07754824 0.009353117 0.16092221 0.14726189 0.1739035 -0.16844401 0.11830487 -0.008908594 0.070969835 0.057513207 -0.078478105 -0.1118691 -0.024420299 -0.08996288 0.0057106907 -0.08170905 0.17196609 0.054567344 -0.07534336 0.014031942 0.12538439 0.013742442 -0.06275961 -0.052009474 0.031146882 0.17314309 -0.1255807 3.4958462e-05 -0.08339381 -0.11136527 0.036216985 0.13169017 -0.15759462 -0.16329674 0.014741533 0.07095884 -0.07537735 -0.0037260111 0.13239348 -0.07300704 -0.1029916 -0.11970647 -0.15920883 0.15250245 0.08387063 -0.03398896 -0.06932455 -0.021145063 -0.05738616 -0.014293242 -0.15680115 0.08352474 0.07784529 0.120726846 0.0482419 -0.14222719 -0.025078462 0.07330924 0.018691596 -0.054374836 0.14613292 0.062440317 -0.16738805 0.06191122 -0.1741999 -0.10513192 -0.02847554 0.16328268 -0.0067958054 -0.13921534 0.044613518 0.04417668 0.1257957 0.003827979 0.12554984 0.08123586 0.05836184 0.17060888 0.051493857 -0.114041105 -0.011917563 0.056331206 0.033568982 0.113693014 0.09113892 -0.14326777 -0.14420336 0.16381449 0.014676673 0.054667752 0.16104642 -0.09445086 0.012815901 0.088250466 -0.09961616 -0.120101936 0.04124533
http://data.doremus.org/vocabulary/key/gm 0.14011228 -0.08645718 -0.081384905 -0.0759777 0.020052455 -0.1361457 -0.031449202 -0.044232626 0.025224183 -0.056621965 -0.034591608 0.12089874 0.11504816 -0.09041601 0.110481545 -0.020022029 -0.1584464 0.13618243 -0.050626177 0.028040376 -0.15988457 0.03128087 0.17627335 0.16591148 -0.020224957 -0.10119606 -0.018548934 0.1310545 -0.07136388 -0.039709803 -0.015053975 -0.17474747 -0.12781647 0.00672981 -0.0038371182 0.05986631 0.11366468 0.043420725 0.15199323 -0.0483903 0.0042540273 -0.13820577 0.1611437 -0.006413151 0.17418039 -0.026314288 -0.13927442 -0.1525718 0.1232102 -0.11961279 -0.10130096 0.14243297 -0.10571672 -0.11618466 -0.10724889 0.07205222 -0.09649732 0.0054112943 -0.13638426 -0.07205402 -0.1214531 -0.0055936747 0.058369398 -0.07174227 -0.03199525 -0.08608218 0.042897865 -0.16055888 -0.1611975 0.069311254 0.10833081 0.18280405 0.03405908 0.045249462 0.0119536165 -0.11488465 0.036704402 -0.14209715 0.09341231 -0.1396517 0.004957815 -0.07495706 -0.0797169 0.0837679 -0.038192116 -0.1564869 0.024901006 0.049842726 -0.11002258 0.13706785 0.11675148 -0.07158186 0.06901474 -0.12514608 0.06747897 -0.012833108 0.10322226 0.09215601 0.13242508 0.11139031
http://data.doremus.org/vocabulary/key/cx -0.1338053 0.0063914917 0.11749731 -0.0440096 0.10767638 0.08376398 -0.10783318 -0.0084292125 0.10390411 -0.075715326 -0.08609867 -0.06666498 0.12561047 -0.11888061 0.04026691 -0.12335451 0.03133108 0.029360244 0.117152564 0.05792314 0.12554137 -0.06592789 0.1505366 0.12069892 -0.06960392 -0.07160835 -0.14630924 -0.053238835 0.03308519 -0.09646034 -0.104119554 0.088798076 -0.15814707 -0.08067089 -0.105237834 0.12186842 -0.006131535 0.13465242 -0.007743562 -0.0081832465 -0.14194308 -0.121066794 -0.0759684 -0.12822123 0.1359295 -0.04967623 0.13820934 -0.12886652 0.060087185 -0.021397425 0.13794205 0.014797145 0.09014263 0.14757276 0.0071867364 -0.044069935 -0.042485595 0.08073908 -0.088968985 -0.028363345 -0.16246007 -0.15528257 -0.10468292 -0.0032693602 0.14171383 -0.14632282 0.12447453 -0.11016673 0.015197997 0.032274384 0.05510483 -0.1360953 -0.06615459 0.120257236 -0.0827788 -0.0816871 -0.0179504 -0.048711084 0.1654344 0.113362744 0.023104828 -0.008735621 0.14834145 -0.120107874 -0.15510365 -0.13994126 0.033938576 -0.00921296 0.14902616 -0.1509105 -0.05521824 0.10257106 0.13601924 0.011464114 -0.04645411 0.11792409 -0.1561833 -0.122923724 -0.007943987 0.1271236
