3133 100
http://data.doremus.org/vocabulary/iaml/mop/kpf -0.013783518 -0.04663469 -0.11956271 -0.09170442 0.1047795 -0.14352062 0.08450271 -0.0334908 -0.13571477 0.013462015 0.04005747 0.039100334 0.12718639 -0.08184408 -0.006001154 0.20610414 -0.077460825 0.004020756 0.074390225 -0.11670752 -0.101502724 -0.091040276 -0.042991344 -0.06118203 0.058213815 0.25527042 0.012824559 -0.060707435 0.0250469 -0.047922038 0.11518801 0.052647002 0.08310301 -0.13596596 0.07350668 -0.19822605 0.09179371 0.11499779 0.026203034 -0.008418879 0.091723464 -0.11062113 0.018974507 0.024951806 0.17199054 -0.049549837 -0.0765175 0.16544688 0.119604126 0.13303359 -0.022323497 0.04121433 -0.0048776125 0.14563861 0.040238045 0.09259128 0.09063218 0.03833306 0.25182158 -0.085295886 -0.013858427 0.034619134 -0.17671959 0.051086158 -0.10971664 -0.027136598 0.12688695 0.043694265 -0.036594328 -0.04005053 -0.042815093 0.14221798 -0.03917742 -0.16312613 -0.033046447 0.055769753 -0.05878986 -0.035801932 -0.06801048 -0.08565138 -0.018135434 0.019014757 0.034160938 0.01251764 0.121244244 -0.1321029 0.02848468 -0.05197873 -0.058506306 -0.14421158 0.011834809 -0.253178 -0.041020002 -0.31002674 0.044455584 0.10406627 0.0061214003 0.000982566 -0.070780136 0.00096022565
http://data.doremus.org/vocabulary/iaml/mop/vun -0.16230668 -0.0870571 0.09493408 -0.09335941 0.30872408 -0.09389904 0.031887807 -0.08510069 -0.046445843 -0.049654666 0.05827686 0.10762983 0.14647363 -0.1440052 -0.047805164 0.019025845 0.049483962 -0.006899277 0.036064316 -0.12313628 -0.054644663 0.15069732 -0.2501017 0.0097272415 -0.046115827 0.14711548 0.10168185 -0.03186853 0.049042877 -0.05386986 0.02981585 -0.003249527 0.09773482 -0.13400485 0.022540038 -0.15476912 0.08030259 0.02303698 0.007433836 -0.004490053 0.06896648 -0.058582667 -0.13458 -0.17522155 -0.0008002072 -0.11335807 -0.051429242 0.08435372 -0.020911627 0.17297114 0.06441535 0.12457202 -0.010925475 0.06411104 0.07126521 -0.0023277055 -0.012800289 0.11630555 0.09294938 -0.040381532 -0.13637148 -0.023715263 -0.073236324 0.05187483 0.0125130825 0.010443946 -0.058754545 0.15265314 -0.005936973 -0.19863659 -0.17724119 0.043355398 0.05887778 -0.154996 0.093647785 0.089713246 -0.033797193 -0.015078377 0.0458841 -0.0838554 -0.15188089 -0.10178331 0.038044274 0.019102024 -0.04166589 -0.09278963 -0.053393688 -0.020010406 0.0630681 -0.0021142308 -0.04251144 -0.15389633 -0.06556667 0.027791185 0.05551362 0.0302799 -0.21721774 -0.011185597 -0.26472384 0.11977609
http://data.doremus.org/vocabulary/iaml/mop/ofu 0.029256236 -0.04968943 0.02602447 0.024477636 0.16889718 0.043482438 -0.051832598 -0.03630732 -0.038768634 -0.13962543 -0.020596974 0.13166265 0.1923479 -0.0017015573 -0.103659384 0.017912509 0.094394445 0.16496377 -0.008260049 -0.15651497 -0.27713287 -0.013755659 -0.057492025 -0.06555359 -0.113638274 0.120014116 -0.009774992 0.0194179 -0.09620696 -0.08302595 0.04541555 -0.07712417 -0.0036165598 0.036287714 -0.15140386 -0.2184417 -0.043803737 -0.015983345 0.1376822 -0.05671946 -0.023762913 0.09152112 -0.2005208 -0.07346774 0.025251253 0.12069681 -0.0064593693 0.13510145 0.052053854 0.10608067 0.10537108 -0.004205128 -0.09947798 0.024057353 -0.082320414 0.09938328 -0.05232771 -0.07190573 0.21891679 0.048469614 -0.18563987 -0.05992627 -0.15580128 -0.050995156 -0.024049867 0.031864326 0.1826966 -0.097922176 -0.02393065 -0.13398315 -0.05002256 0.075288214 -0.011533069 -0.04542777 -0.00027035607 0.08110535 0.0053086397 -0.027065117 0.113170065 -0.1711473 -0.061179038 0.0652852 0.12259139 -0.052805778 -0.08103705 -0.049535505 -0.02659158 0.0006209493 0.18512815 -0.0527623 0.12698175 -0.14699018 -0.05425962 0.034655467 0.08603124 -0.05305006 0.053653933 0.100909285 -0.22021702 -0.089942016
http://data.doremus.org/vocabulary/iaml/mop/svl 0.03011576 -0.13391134 -0.0005919329 0.083625816 0.034359097 -0.106110096 0.03477496 -0.20106252 -0.055694353 -0.06337084 0.17184296 0.050751135 0.24834827 -0.041698493 -0.27876347 -0.01788655 -0.03364928 0.0800486 0.05773179 0.12480633 -0.16617686 -0.0054933038 -0.1065914 -0.039358597 0.048195533 0.23231041 -0.039528538 -0.14638816 -0.10383892 -0.14013779 0.10974217 0.01697291 -0.014022187 -0.06567535 -0.0047957418 -0.015294344 0.10191441 0.0095288195 -0.049280234 0.050623026 0.06637017 -0.08573608 -0.01446305 -0.03370711 -0.003028293 -0.018968571 -0.17286684 0.14161979 0.047094442 -0.042056695 0.046638932 -0.0779628 0.07435851 0.034684353 0.006106417 -1.0238694e-05 0.07800216 0.05845697 -0.015933892 -0.003115955 -0.11608236 0.05168182 0.021055115 -0.028779032 -0.015874282 0.09060739 0.13965574 0.01760545 -0.028855046 -0.06851636 -0.07917733 0.00069554837 0.11069452 -0.08081472 0.13997863 0.1823301 -0.10314073 -0.029658295 -0.02827698 -0.11112087 -0.021363785 -0.028842162 0.22661884 -0.071973436 0.16094735 -0.11050844 -0.041491915 0.020618102 -0.031956114 -0.17992206 0.14756653 -0.15919286 0.0696168 -0.07435264 0.091958605 -0.01603422 0.122155495 -0.08491165 -0.24128118 -0.078428306
http://data.doremus.org/vocabulary/iaml/mop/vso -0.09232248 -0.05110557 -0.12467512 -0.019732084 0.04084396 -0.11616329 0.12687115 -0.1767933 -0.07669626 0.021834103 0.11170275 0.08299375 0.20941782 0.14354035 -0.10172723 -0.061945677 0.1066261 0.2231573 -0.12833615 0.09582061 -0.18720505 0.04706539 -0.025437023 0.16229986 -0.024264427 0.18704683 0.008534435 -0.060507696 -0.06204888 -0.1315964 0.08673984 0.021701943 0.111601606 0.026794136 0.03311545 -0.1468133 0.07584299 0.032128576 0.030963734 -0.20474584 0.13096654 0.07801644 0.081326686 -0.17100409 0.14517994 -0.052911606 -0.11713543 0.04736496 -0.02506223 -0.023725547 0.070883594 0.023735166 0.05348302 0.12993895 -0.053953886 0.16001378 -0.08977986 -0.12822697 0.13324276 0.0313995 -0.022159874 -0.090011545 -0.14268799 -0.102407426 -0.011502061 -0.02316593 0.25527328 0.010213264 0.030441275 -0.15569726 -0.109043166 -0.016459957 -0.013594397 -0.071131416 -0.17801468 -0.039052762 0.05816576 0.05266676 -0.094817095 -0.0671431 -0.0034128674 -0.08665687 0.04894989 0.1278165 -0.009637272 -0.026622538 -0.04933084 -0.14504997 0.103561364 -0.024477703 0.0105170505 -0.102868594 0.0041719778 -0.07913474 0.050994817 0.091002166 0.0139192045 -0.010687826 -0.11215484 -0.019640388
http://data.doremus.org/vocabulary/iaml/mop/kor 0.12492976 0.086277924 0.022273902 -0.1809787 0.13164909 -0.15863976 -0.059399493 -0.027419165 0.15245958 0.07313578 0.08558676 0.10989878 0.010303896 0.07493047 -0.024270656 0.12290899 -0.106698565 0.075733915 -0.00828227 -0.017738275 -0.2280944 -0.081988804 -0.021636572 -0.029131915 -0.031654418 0.13009766 0.03752995 -0.20592551 -0.06799687 0.07925121 0.13454103 0.034816958 0.10887022 0.019598171 0.06667671 -0.01518871 0.098922364 -0.11041866 -0.0392161 0.06847309 0.07909129 0.093677446 0.030406486 0.006748201 -0.11236957 0.056826733 0.02872008 0.21868442 -0.08844298 0.13154544 0.11021546 -0.10287332 -0.21667272 0.11457839 -0.02542765 -0.07925449 -0.053878963 -0.012852146 -0.12632419 -0.07640218 0.037531473 -0.078971215 -0.099910334 -0.06264471 0.18387562 0.009993425 -0.004427574 0.1205111 -0.020899696 -0.20768358 -0.12404694 0.016923651 -0.00056518917 -0.10766822 -0.10808429 -0.04182861 -0.034298155 -0.087301694 -0.0018892738 -0.12712158 0.085431255 -0.17172669 -0.104921125 0.15720043 -0.15660782 0.03569757 -0.104937 0.05041269 0.15266223 0.018999998 0.057229124 -0.11491165 -0.048593424 0.054189023 0.08230291 0.15958436 0.068769865 0.073611625 -0.08805323 -0.07715069
http://data.doremus.org/vocabulary/iaml/mop/mco -0.08449119 0.036048766 -0.041844744 0.075093314 0.12322635 -0.13554035 0.050228328 -0.10239213 0.01169503 -0.026653824 0.19501592 0.15073042 0.2653759 -0.038481317 -0.1700743 -0.004665533 0.05590923 0.10832689 -0.096757226 0.03812119 -0.23773213 0.11155646 -0.18743141 0.09127555 0.030312173 0.113219716 0.046459623 -0.12038642 0.025011852 -0.13578677 0.16300754 0.030127343 0.030865286 -0.044557564 -0.016366862 -0.1315438 0.17808715 -0.08131425 0.009290154 -0.21550553 -0.06464523 -0.021989387 -0.015084258 -0.10736625 -0.013912366 -0.17535226 -0.10622633 0.0024062304 -0.064153165 -0.067947045 0.038965132 -0.0007228454 0.057471123 0.14983498 -0.009361564 0.0064859074 -0.02807195 -0.03901506 -0.027208533 0.112945676 -0.12788251 -0.12499617 0.048391666 -0.042241555 -0.021913175 0.024984432 0.15831298 0.08712058 -0.053637534 -0.0962978 -0.1920395 -0.12375706 0.14048545 -0.105947524 -0.008497092 0.11140399 -0.047473397 0.031490404 -0.012377335 -0.12193951 -0.061929908 -0.051992122 0.100054115 0.0707284 0.0053405715 -0.03047976 -0.04687086 -0.051773444 0.037217293 -0.07771514 -0.07266567 -0.0056073354 0.032262575 -0.046378016 0.02530481 0.10544691 -0.084187336 -0.047830276 -0.28511372 -0.050130054
http://data.doremus.org/vocabulary/iaml/mop/oiv -0.08184733 -0.119767934 -0.039345697 0.03656951 0.20227553 -0.16352771 0.026549177 -0.051308565 -0.10403104 0.04835558 0.024830665 0.027448025 -0.06988464 -0.111268796 -0.11922154 -0.13136801 0.10979437 -0.02095675 -0.052856646 0.049532387 -0.005471586 0.13990602 -0.054424603 -0.04881479 -0.0077439654 0.023598509 -0.12165598 -0.042624842 0.032747667 0.07913353 0.15877014 -0.06482489 -0.1752087 -0.07090571 0.012162208 -0.075211726 -0.0688593 -0.06826299 0.03817477 0.07450723 0.11434364 -0.12218131 -0.068738595 -0.22303633 0.07238963 0.005877118 -0.13121836 -0.031082494 0.14435847 -0.017795902 -0.005844087 -0.10018849 -0.18799447 -0.049295224 0.055561792 -0.037912652 -0.09497822 0.05420596 -0.056093507 -0.17703721 0.057608265 0.068506576 -0.12224427 -0.040860094 0.07992339 -0.082762495 0.06489418 0.04683447 0.062340595 -0.073441274 -0.024195436 -0.034926787 -0.04632773 -0.05107104 0.07265181 0.05465657 0.04333886 -0.036675047 -0.013769132 -0.18433395 -0.042455003 0.024626357 0.16695604 0.13996066 0.0494748 -0.032996655 0.11913486 0.12369556 0.15167789 0.05955703 0.20433845 -0.020430537 0.27226827 0.09099799 -0.026770374 0.08787705 -0.1835421 -0.108604774 -0.24822149 0.07719583
http://data.doremus.org/vocabulary/iaml/mop/tgu -0.004929107 0.024317127 0.05405852 0.033332523 0.18597396 0.06625439 0.048186608 -0.044797815 -0.0654591 0.12511839 0.11491044 0.087405555 -0.17856352 -0.0075733904 0.0059828656 -0.16469872 -0.041791018 -0.019798297 0.024014207 -0.031505484 0.07406441 0.18282132 -0.25335437 0.034886878 0.09770671 0.21629223 -0.048268188 -0.0027322585 -0.19328038 -0.014387999 -0.08789753 0.016666014 0.024588043 0.020085698 -0.048786484 0.05616251 0.04206212 0.13849871 0.06801592 -0.06490791 0.18769558 -0.104938656 -0.07376209 -0.11233296 -0.06172139 0.051139265 -0.0023070236 0.090159714 0.11334998 0.16351582 0.12588593 0.15866537 -0.097183466 0.056981113 0.010266783 -0.08249035 0.09795793 -0.0725969 -0.051741436 -0.009341394 -0.02028391 0.14985631 -0.12737732 -0.041250844 -0.032531332 -0.07758244 -0.049010582 0.16731982 -0.095999174 -0.20807913 -0.11148648 0.106277846 0.07390275 0.1227976 0.031177262 0.14462969 -0.07652981 0.09054319 0.05538572 -0.07008081 -0.03300057 -0.19663185 -0.0050627477 -0.10999496 0.034367625 0.06879874 -0.039172426 -0.0013309302 -0.007874904 -0.07210637 0.13685565 0.0076679555 0.06934181 0.068834275 0.13981844 -0.018294988 0.044184867 -0.17956534 -0.19723114 0.044649154
http://data.doremus.org/vocabulary/iaml/mop/svc 0.08548395 -0.09997832 -0.05507297 0.11136325 0.0910703 -0.10354479 -0.023542454 -0.14550994 -0.02240638 -0.16098645 0.14197353 -0.0007023817 0.074972816 -0.0059422567 -0.26832056 0.1135198 -0.09513406 0.031790163 -0.033563137 0.008658806 -0.052295912 -0.077097744 -0.053659488 -0.093322195 -0.001950618 0.21497476 -0.14269507 -0.09864519 -0.1071905 -0.08055012 0.081351176 -0.06549845 -0.0075470116 -0.02638445 -0.01805045 0.016189579 0.17845562 0.02877306 -0.13940272 0.04745294 0.16788313 0.024258072 0.11744633 -0.07397373 0.023238046 -0.0051123737 -0.1468972 0.29544058 0.11414501 0.09020688 0.06261823 -0.045199215 0.038240492 0.026051592 -0.13967648 0.058184948 -0.10772397 0.032184362 -0.02074972 0.07507909 -0.10445478 0.0002608995 -0.014490127 0.035570033 -0.004870548 0.090473145 0.1498921 -0.020665668 -0.11961391 -0.1444824 0.073251516 0.055120215 -0.008856687 -0.1576682 0.13710037 0.15245938 -0.014880703 -0.117575414 -0.01871399 -0.094458185 0.04347162 -0.043927766 0.24111497 0.020677553 0.10194757 0.0036925492 -0.027631808 -0.07697102 0.018666679 -0.13352375 0.11267431 -0.03336447 0.03810335 -0.06270748 0.10687408 0.09869453 0.02706523 -0.14435175 -0.045127574 -0.17217596
http://data.doremus.org/vocabulary/iaml/mop/vte -0.09928029 -0.0983468 -0.17108291 -0.09435498 0.15781045 -0.13622944 0.1328014 -0.080743074 -0.09244382 0.010113329 0.005378108 0.10487845 0.090412505 0.04871066 -0.0038710306 -0.14209582 0.07966877 0.15083161 -0.07660925 -0.062265214 -0.24112639 0.014380817 0.02623205 0.032647986 0.055000987 0.05832316 -0.020942291 -0.081720404 -0.04620562 -0.10358207 0.006683734 -0.020410184 0.09816453 -0.021470038 -0.045567248 -0.24935445 0.07333289 0.029595127 0.030657578 -0.14613731 0.15886834 0.0792153 -0.039932303 -0.14734249 0.046262484 0.043741383 -0.09257188 0.035702705 0.025554549 -0.06884549 0.11136586 0.04017225 0.026516082 0.10173427 -0.05498296 0.12624788 -0.11697358 -0.03655214 0.023161309 -0.056293298 -0.07305256 -0.105011 -0.14312215 -0.15960777 0.0018571531 -0.094315834 0.36057207 0.014553548 0.1409341 -0.20542903 -0.03806412 -0.06243075 -0.123120934 -0.025711283 -0.15743516 0.079252824 -0.038995624 -0.014007709 0.056034572 -0.09346432 0.0336667 0.06691201 0.11445583 0.06438437 0.030496696 -0.122650504 -0.1154942 0.06224087 -0.013577224 -0.10663227 0.10725461 0.0067854584 0.02483726 0.07012666 -0.017821673 0.034081705 0.079718195 0.015941203 -0.19081338 -0.012539042
http://data.doremus.org/vocabulary/iaml/mop/cmi -0.0792646 -0.043378405 0.012280453 -0.12606783 0.032453332 -0.05872132 0.03151829 0.00041939566 0.094055444 -0.020379951 0.079092294 0.12002878 0.13727461 0.062797405 -0.13560688 0.06212009 0.021712415 0.07518088 0.028647669 -0.16066822 -0.3362332 -0.043577284 -0.12204147 0.00943323 0.019290337 -0.03434642 -0.13174523 -0.07405512 -0.2038162 0.03886218 -0.025473807 0.13448063 0.11836264 0.021404888 -0.12494946 -0.10967108 0.124517605 0.03239148 -0.051528104 -0.08272928 0.17953609 0.08395501 0.027652005 0.021671407 -0.1023957 0.075094916 -0.024711259 0.056194976 0.14121708 0.11305843 -0.06722552 -0.084064916 -0.12047488 0.0013699246 -0.13557309 -0.014637202 -0.116339915 0.013488824 0.008535541 -0.09153452 0.08331556 -0.05003667 -0.16679578 0.03146678 -0.0025864574 -0.019202704 0.17758812 0.09712285 -0.03565876 -0.30243102 0.017901856 -0.00028540022 -0.14184569 -0.063905194 -0.12546295 0.0239939 -0.005218813 -0.11337734 0.15015724 -0.11256963 0.08932442 0.048228174 -0.0014894828 0.19723456 -0.06658736 -0.15308942 -0.14108682 0.061553996 -0.015251368 0.07426496 -0.008861296 -0.083590254 0.017462945 0.073638394 0.08021254 0.17024283 -0.007647373 -0.018055728 -0.01475997 0.041134734
http://data.doremus.org/vocabulary/iaml/mop/oun -0.08743819 -0.02761007 -0.12496182 -0.13654116 0.08399629 -0.052247852 0.16944686 -0.006746138 -0.014498751 0.045511913 0.22888939 0.26989642 0.04788084 -0.18192665 -0.07848168 0.04973021 -0.000661284 0.17647515 -0.14084938 -0.20600376 -0.059066914 -0.027899465 -0.09143736 0.13907145 -0.00371785 -0.06309939 0.10476454 -0.014709928 0.06182953 0.026406545 0.15750645 0.044578634 -0.10004211 -0.10834434 -0.034905232 0.0029867536 0.018261397 0.118082345 0.09341394 -0.13939293 0.046517532 0.04399867 0.062275097 -0.08585675 -0.0067148386 -0.03350258 0.005068746 0.17599566 0.0766846 -0.05844609 0.044089872 0.11246945 -0.034890234 0.047969203 0.080508195 -0.0041002487 -0.01582531 0.18842344 -0.14833374 0.050368506 0.026353117 0.046068173 -0.03919639 0.014440052 -0.019596744 -0.014395711 0.192502 -0.0069354046 0.14298762 -0.18290608 -0.10015223 -0.07866991 0.051491216 0.10295893 -0.1779646 -0.063182026 0.08193602 -0.07648004 0.09025281 -0.030760596 -0.05263963 -0.18133691 0.10887425 0.104764424 0.049465865 -0.10122411 0.05719622 -0.07837926 0.00668553 0.1061657 -0.13102604 -0.0948566 0.16458756 -0.092596546 0.08002029 0.036586314 -0.040685654 -0.0303467 -0.097137794 0.10861983
http://data.doremus.org/vocabulary/iaml/mop/cun 0.09858247 0.053188264 -0.005240081 -0.08562463 0.21046689 0.041839696 0.049449995 -0.13133126 0.13285868 0.045900848 0.111796856 0.22240373 0.079953216 -0.074728 0.018221186 0.012948599 0.06961531 0.17029017 -0.12359071 -0.13785756 -0.16679513 -0.057963762 0.012615218 0.09973132 -0.07740468 0.016560344 0.14848047 -0.051800936 0.095670305 -0.14474678 0.15314473 -0.1316856 -0.0039913054 -0.014261051 0.008756602 -0.12819433 0.06362596 -0.11039239 0.18160596 -0.1032471 -0.04742535 0.12634438 -0.06785523 -0.08557748 -0.10227308 0.05217958 -0.03664011 0.109183185 -0.14325239 -0.12673165 0.13847145 0.07641401 -0.06169974 0.061848845 -0.0093353605 0.09021729 -0.06638089 0.07389598 -0.13200818 -0.010903398 -0.22542523 -0.109355845 -0.044738393 -0.1272967 0.038255487 0.049350675 0.16336296 0.030374393 0.1741323 -0.163008 -0.11668928 -0.040811487 0.011926888 0.02854711 -0.1437207 -0.11134869 -0.041317757 -0.011325456 0.1069812 -0.10515996 -0.13194087 -0.026541524 0.08755875 0.05762115 -0.023822336 -0.015577123 -0.021448448 -0.05382594 0.11244261 -0.006587314 0.03430734 -0.04177706 -0.019379754 -0.037853133 0.095649354 -0.09719981 0.055536717 0.13295922 -0.12521224 -0.14851558
http://www.mimo-db.eu/InstrumentsKeywords/2299 -0.103957735 -0.031081103 0.06671478 -0.118552275 0.2348948 -0.07932312 0.09180354 0.10614981 -0.12157942 0.06443309 0.07630799 0.04419613 0.06002263 -0.029401172 0.11020867 -0.002410319 0.0633589 -0.014014587 0.095412076 -0.08073301 0.07621736 0.052275963 -0.14201406 0.09709835 0.00984662 -0.020127743 0.049048442 0.020573009 -0.055020247 -0.08559634 0.080768056 -0.043108914 0.107054986 -0.029259128 0.04546429 -0.056200977 -0.018940922 0.117072575 0.08228455 -0.08760689 0.30086544 0.2023491 0.12249625 -0.1757834 0.12629528 0.051511284 0.044159636 0.12592272 -0.11125289 -0.14766215 0.09628589 -0.06026509 -0.05891335 -0.029169751 0.07187633 0.073212326 -0.019504165 -0.06735594 -0.10385023 -0.012588959 0.012544289 0.040901262 -0.020512104 -0.14238326 -0.057311006 0.06584084 0.13906817 0.025892783 -0.03855771 0.07969929 -0.030054923 -0.060701422 0.012583086 -0.012239995 -0.2424654 -0.14895375 0.026633365 -0.20031118 -0.2138015 -0.04391522 -0.16377579 -0.10199715 -0.017287847 -0.019574143 -0.09800529 -0.009926381 0.050891478 -0.11253377 -0.07690107 -0.069616854 0.006700826 0.02063698 -0.043420862 0.06314906 0.02191955 0.12542789 -0.13163887 -0.02251313 -0.265252 0.10416732
http://data.doremus.org/vocabulary/iaml/mop/wfl 0.0019033585 0.0018884195 -0.13629004 0.053197812 0.030036442 0.00045953938 0.040031936 -0.00066453905 0.044679392 -0.082207836 0.16571018 0.10226824 -0.10358372 0.07462894 -0.05112955 0.04371153 -0.18816411 0.056820787 -0.081061356 -0.034994002 -0.07393946 -0.027969211 -0.17989472 -0.05675954 0.12433991 0.20642307 -0.0426891 -0.118394814 -0.089861125 -0.05927354 -0.08494419 0.023763968 -0.15758339 0.011328618 -0.120344274 -0.09647976 0.17902386 0.021411378 -0.09324273 -0.18802051 -0.026403932 -0.14730376 -0.011506013 0.032509003 0.07102378 -0.0078078043 -0.019506402 0.22465192 0.088154934 0.015220048 0.05760882 0.09295483 0.08352732 0.19213143 0.0694118 -0.027578942 0.05066233 -0.079828754 0.23091789 0.029941157 -0.028878255 0.020020502 -0.028919045 -0.102984905 -0.17957368 -0.062215775 0.2159271 0.07264735 -0.00595967 -0.075778164 -0.09917108 0.108417496 0.00021949307 -0.016872048 -0.041545916 0.26422366 -0.09506263 0.16548292 -0.018400082 -0.08010762 0.040578514 -0.0697602 0.11748649 0.004181455 0.04070982 -0.01883034 -0.02208799 0.089159675 0.05539304 -0.034738723 -0.015308888 -0.060158882 0.08781385 -0.14674447 0.054102827 0.117880024 -0.07465481 -0.04250033 -0.101865195 -0.20929784
http://data.doremus.org/vocabulary/iaml/mop/kun -0.050228372 -0.109973565 0.12852967 -0.04783479 0.15893649 0.030840961 -0.034535203 0.01811365 0.008505551 -0.096072614 0.026426243 0.12903027 -0.036670573 0.11999876 -0.16405745 -0.051406372 -0.022523958 0.09988741 -0.060661945 0.04311542 -0.09704981 0.03822542 -0.16308527 0.08678129 -0.13432436 0.20096827 -0.18147676 -0.02255275 -0.018434579 -0.15040702 -0.097316794 0.0279047 0.016492447 0.013400448 0.107602805 0.2266625 0.016724069 -0.0508206 -0.05883539 0.09830677 0.014740106 -0.20150469 0.044687986 -0.14772692 -0.12400093 -0.058515325 0.005337519 0.12958428 -0.059891872 0.058903337 -0.034482334 0.012964623 -0.039530627 -0.037272774 -0.042658318 0.16617414 -0.18562317 0.09776806 0.06076439 0.027708346 -0.08893252 -0.09143505 -0.10862097 -0.051011488 0.019111436 -0.037598833 0.020390358 -0.059397824 -0.13913518 0.014320204 -0.14388014 0.16434868 -0.049499344 -0.043318935 -0.109949574 0.07563439 0.14808096 0.1012793 -0.123654544 0.048414864 -0.1317047 -0.08089782 0.067076795 0.24219073 0.20091148 0.018710347 0.03493467 -0.1273469 0.13389063 0.10663368 0.004768822 -0.13261011 0.07039662 -0.07006999 -0.061923657 -0.06928678 -0.045912426 0.0162549 -0.019051973 -0.15125653
http://data.doremus.org/vocabulary/iaml/mop/vbs -0.09362213 -0.08658541 -0.11010355 -0.08800931 0.13770421 -0.069704555 0.13080056 -0.12266246 0.019578192 0.024412323 0.052057073 0.16107167 0.18082945 0.08830226 -0.0342594 -0.13760005 0.09115485 0.19776526 -0.09194979 -0.029976068 -0.31910422 0.020237638 -0.026733996 0.067288205 0.05336788 0.026994653 0.032431696 -0.06958965 -0.15533914 -0.14653839 -0.024810582 0.030722832 0.10278865 0.04014555 -0.07134658 -0.18837488 0.09008376 -0.017859478 0.0084649 -0.18336086 0.11695421 0.08202038 -0.040370304 -0.10235276 0.016813343 0.036171045 -0.05338873 -0.0036022025 0.012297512 -0.08126027 0.09728603 0.0220235 0.039705914 0.08882633 -0.08295594 0.07169896 -0.12322484 -0.07448179 0.037513807 -0.017980551 -0.10550819 -0.119486436 -0.09068287 -0.16725652 0.0040838704 -0.0063465745 0.32350308 0.028597435 0.10638257 -0.21858808 -0.07770374 -0.10544537 -0.078566656 0.028198775 -0.16939077 0.08975546 -0.059752356 0.02107174 0.05860812 -0.08661161 0.008007071 0.054611214 0.09343428 0.05756998 -0.007810657 -0.092946425 -0.17542507 0.023426168 0.026461482 -0.048262198 0.0655511 0.018555373 0.007970149 0.05667947 0.016902106 0.018611984 0.050423577 -0.000362846 -0.17165741 -0.059222464
http://data.doremus.org/vocabulary/iaml/mop/oie -0.21023552 -0.047425017 0.12209757 -0.0789588 0.0053868922 -0.023967415 0.102525465 -0.006198263 -0.06090787 -0.0030677815 0.06972614 0.110154 0.1546465 0.097045235 0.08261437 0.017137002 0.082599774 0.14511254 -0.07711875 0.07095236 0.09113453 0.0014874736 -0.057469834 -0.09809195 -0.10705111 -0.06813952 0.056222502 -0.016334325 -0.059057835 0.097923666 0.14705458 0.08085459 -0.039803326 0.061912145 -0.084075436 -0.18649597 -0.03541454 -0.117164664 -0.14170015 -0.045724038 0.09452971 0.040503636 -0.04614541 -0.1276661 -0.06751702 0.099080995 -0.06538044 0.11221525 0.13035172 -0.18926932 -0.043026555 0.025595553 0.10306641 -0.010269694 0.17867467 0.0052195988 -0.16297579 0.11662171 0.08304738 0.07638997 -0.081436835 0.0017525231 0.09376567 -0.06746957 -0.037191458 0.08046999 0.03898609 -0.079570234 -0.03278457 -0.09881584 -0.17069498 0.09211628 0.039737087 -0.21574362 -0.15501988 -0.1228543 -0.14005034 0.03495056 0.08754159 -0.04048662 -0.1626122 0.097836934 0.018621644 0.13565986 0.20387201 -0.2054646 0.05986069 -0.017576067 0.097554564 -0.030826986 -0.042447973 -0.025694598 0.21633886 0.008779493 0.05522886 0.0008645324 -0.17533459 -0.04945601 0.0038400784 0.060229342
http://data.doremus.org/vocabulary/iaml/mop/sva 0.10023338 -0.105394065 -0.05232067 0.15172523 0.039167512 -0.102752246 0.040435184 -0.12757103 -0.03125512 -0.09515671 0.1558495 -0.007899064 0.1040609 0.035662096 -0.27151975 0.06988442 -0.11705081 0.043250736 -0.020304272 0.04270796 -0.061201353 -0.07602951 -0.047494214 -0.10293087 0.0139009 0.19379771 -0.17687048 -0.10409237 -0.148909 -0.09969427 0.053035636 -0.023293542 -0.007100209 0.01665447 -0.025796458 0.025773088 0.13155685 0.06384012 -0.12620032 0.04762188 0.10340659 0.010260871 0.11794457 -0.0646682 0.042246565 0.034208883 -0.15958571 0.28592536 0.09894998 0.0039402973 0.051455848 -0.011473602 0.043286152 0.0042363065 -0.13789137 0.012479565 -0.0637521 -0.024924692 -0.061842516 0.06719605 -0.1110242 0.031905297 -0.010432588 0.01870873 -0.0120997615 0.09826157 0.13423444 -0.08917391 -0.16621947 -0.11534887 0.08020717 0.062821336 0.060865987 -0.13462403 0.09536516 0.14044751 -0.04225506 -0.11887355 -0.008829942 -0.13283268 0.05407538 -0.028668078 0.2463104 -0.046939414 0.1481755 -0.006115588 -0.031353924 -0.020056026 0.015326292 -0.1934033 0.15951714 -0.03127357 0.057864744 -0.04325739 0.11162958 0.07235594 0.075233355 -0.13809058 -0.0752021 -0.15153056
http://data.doremus.org/vocabulary/iaml/mop/khp -0.014399936 -0.087366715 -0.1888134 -0.1045693 -0.014795424 -0.12647422 -0.11256466 0.0325467 -0.006308802 -0.11012407 0.07022406 -0.04908789 -0.00821892 0.009944772 -0.043868694 0.20752606 0.056773104 0.107139826 -0.045500394 -0.06655806 0.00733106 -0.12078633 0.0024076197 0.037307423 0.06464579 0.23280215 0.1427173 -0.12119054 -0.052801475 0.011529439 -0.035183005 0.023012577 -0.11311568 0.009132567 -0.10932492 -0.015264992 0.017276542 -0.07900849 -0.09466976 0.03457403 0.053146377 0.034176774 0.17171593 0.08331944 0.008337029 0.12581368 0.011043953 0.16551603 -0.07930667 0.027038824 0.09575296 -0.09051342 0.037877876 0.049414225 0.09056511 -0.052223828 0.034886662 0.10189201 0.014691251 0.1080956 -0.087563895 -0.1107853 0.046954952 -0.17619503 0.048459172 0.108296186 0.09954656 0.18417802 0.05245221 -0.027126076 -0.17874229 -0.035823025 0.040951747 -0.05068915 0.008790683 0.12703909 -0.108734414 -0.028217599 -0.1020816 -0.028619375 0.16537741 -0.20281531 -0.11133191 0.091373384 0.050167926 -0.04939913 -0.11343745 0.0127342455 0.054654527 -0.025851568 0.16814958 -0.06253105 0.22130455 -0.08677512 0.041475575 0.20009886 0.20672327 0.07072916 -0.06759741 -0.20383526
http://data.doremus.org/vocabulary/iaml/mop/ost -0.009565877 0.016079444 -0.09487143 0.039137017 -0.03590643 -0.15551247 -0.066726096 0.07477295 0.00044091904 0.06364181 0.18289621 0.11947214 0.023195382 0.1280772 -0.08550916 -0.0129001625 -0.021352194 0.012598876 -0.07623141 0.08947637 0.0031785725 -0.066209316 -0.12170244 0.036050506 0.053851485 0.19247548 -0.00046840927 -0.32177174 0.029271463 -0.24698614 0.102151476 0.010138627 0.07345726 0.13288835 0.082744926 0.00601325 0.11063443 -0.09742003 -0.07549242 -0.08984212 -0.077502154 -0.065614976 0.05627021 -0.09279422 0.03752331 -0.022963736 -0.14079848 0.059449613 -0.053439416 -0.057452068 0.11976562 -0.0051781116 0.11251736 0.19702652 -0.03788293 0.10088632 -0.034378227 -0.0026671607 -0.0033229361 0.13244174 -0.15962684 -0.08848245 0.053232025 -0.14624709 -0.1178221 0.08681895 0.1400604 0.18127091 -0.08437945 -0.049087632 -0.20957027 0.0035230399 0.047142096 -0.08434332 -0.1659121 0.078423634 -0.091368824 0.15398441 -0.097739145 -0.091692396 0.028286694 -0.090188265 -0.06806499 0.097615674 0.036858916 0.03357722 -0.03815809 -0.062854126 -0.003741371 -0.027555635 0.053067934 0.055038616 0.11308483 -0.05108142 -0.08647776 -0.027756056 0.14891267 -0.022800764 -0.12583905 -0.18357344
http://data.doremus.org/vocabulary/iaml/mop/wcl 0.036140878 -0.055688217 -0.1197581 0.13465883 0.17171241 -0.21975408 -0.023661638 0.0028498762 0.050660737 -0.19225423 0.085131384 0.037138622 0.036795106 0.063256495 -0.13304149 0.04013122 -0.012063936 -0.013834818 -0.08858988 -0.049705245 0.0336344 -0.13867623 -0.08894479 0.060139854 -0.12959492 0.09237531 -0.10782674 -0.037819292 -0.06718205 -0.08304636 -0.066298485 -0.024546025 -0.040335633 0.10840235 -0.093766324 -0.04568121 -0.022420153 0.07863194 -0.09685575 -0.10949916 0.08679371 -0.018555114 0.09502188 -0.03260604 0.11294272 0.0010589256 -0.05361085 0.3296431 0.22857274 0.066987276 -0.026855547 0.18709354 -0.056452192 0.15972954 -0.013320793 -0.09225108 -0.019923326 -0.10430284 0.24822225 0.058276977 -0.21470423 -0.028044455 -0.14286986 0.07786731 -0.07306089 0.08706113 0.09346322 0.0066386354 0.022677505 -0.15322338 0.008529285 0.0950913 0.04133091 -0.11347922 -0.024279693 0.11670633 -0.014197846 0.02281342 0.098838374 -0.041166227 0.06450341 0.013409245 0.109296314 -0.04234535 0.20949635 -0.095065124 -0.077062614 0.07197465 0.13907914 -0.06810138 0.071699515 -0.009700544 0.067898415 -0.0607749 0.07485039 0.035993684 -0.08445258 -0.004584393 -0.059002053 -0.0870625
http://data.doremus.org/vocabulary/iaml/mop/ozz -0.20315014 -0.042841375 -0.1315904 -0.14031808 0.027550245 -0.14006524 0.16445434 -0.059398204 0.036808114 -0.0023685063 -0.005188621 0.040467285 0.069221966 0.08486146 -0.03912332 -0.16338587 0.07514569 0.10195238 -0.091266245 0.11196529 -0.2393533 0.07432408 -0.025423802 0.071932636 0.11764905 0.02663646 -0.07070107 -0.0032100726 -0.1588028 -0.100623816 -0.14539962 0.037612543 0.12867543 0.049177885 -0.076153524 -0.052621685 0.089274794 0.050717957 -0.07993379 -0.11935424 0.23335777 0.03194465 0.062452704 -0.038606796 0.07892257 0.013193315 -0.14171149 -0.052164372 -0.005243422 -0.0331698 0.002194136 0.07590826 0.116974376 0.05272321 -0.21105471 0.07478957 -0.114425845 -0.02296866 0.11427233 -0.08092513 0.07628047 -0.13959032 -0.16515549 -0.064471416 -0.018114718 -0.06526597 0.1982123 0.078434765 0.034283154 -0.24207477 0.05760161 -0.058801074 -0.23319955 0.07758191 -0.12298693 0.03528898 0.006218354 0.04914789 -0.028454646 -0.027406555 0.11539803 0.040800884 0.012344075 0.09791324 0.05611145 -0.16628294 -0.16539745 -0.025743177 -0.045165088 0.07475519 0.082273886 -0.0049689114 0.07387714 0.007859001 0.043712456 0.1111814 0.07735024 -0.08559796 0.04384544 -0.009466332
http://data.doremus.org/vocabulary/iaml/mop/tlu 0.03934145 -0.14706738 0.038518153 -0.034205124 0.081205234 0.0015988647 0.03922518 0.052917656 0.16348827 -0.016461488 0.13168041 0.17605522 0.037650924 -0.09231664 -0.025701193 0.07730824 -0.22844838 0.08389177 0.2194812 0.012352563 -0.1362928 -0.054012824 -0.03991664 -0.010752471 0.0052543688 0.037237108 0.17949945 -0.093129925 0.059203185 -0.17942007 -0.016701175 0.02399576 -0.030892534 0.021974197 0.08089827 -0.15333772 0.04102029 -0.04746234 -0.18172763 -0.009530433 -0.07970681 -0.19629534 -0.25708744 0.09161277 -0.21470499 0.068261124 -0.016467271 0.074309364 -0.006780753 -0.0031829583 0.038608443 0.057388417 -0.074297845 -0.08000661 0.17760596 -0.07563418 0.0405831 -0.036619335 -0.08502614 0.0045936704 -0.1175178 0.034588207 -0.11050663 -0.06486137 -0.07298331 0.13843255 0.09865778 -0.056151252 0.061641116 -0.02632489 -0.13243729 0.13848285 0.031308353 -0.020441435 0.012666482 0.19330728 -0.047401007 0.016534213 0.0593484 0.09965443 -0.12860937 -0.050255835 0.08781175 0.06181784 0.03355802 -0.06847096 0.07812597 0.10446779 -0.022203913 -0.029670823 0.06492212 -0.087191455 0.0019776681 -0.009813757 0.007712506 -0.046003826 -0.162488 -0.068761736 -0.26477763 -0.1339117
http://data.doremus.org/vocabulary/iaml/mop/vbr -0.088538915 -0.120416194 -0.04574265 -0.13683963 0.10673152 -0.071124844 0.16873346 -0.10807042 -0.07531097 -0.029513087 0.05265023 0.12418946 0.034635965 0.061819624 0.014183563 -0.04500707 0.047099836 0.16322108 -0.09794187 -0.12740956 -0.1116408 -0.022187205 3.3609864e-05 0.05075952 -0.0098343175 0.07772458 -0.011172758 -0.014555797 -0.108024195 -0.08028609 -0.017628808 -0.044724878 0.10737141 0.013948349 -0.15769647 -0.108622044 -0.026275594 0.10988771 0.14196372 -0.06410638 0.2321609 0.07996395 0.0588539 -0.1684461 0.016560813 0.20284729 0.027154712 0.17255723 0.06876192 0.04340308 0.17595373 0.15329152 -0.08674056 0.07080066 -0.085530244 0.13019928 -0.12466768 -0.088866524 0.06647918 -0.04538663 -0.08025529 -0.059137173 -0.22142936 -0.114677 0.10604223 -0.03648875 0.2318392 0.06565208 0.14503548 -0.24482356 0.006524308 0.05866648 -0.13486777 -0.009787105 -0.17639273 0.010222891 -0.090704404 -0.019973066 0.055494886 -0.072460905 0.0015340023 0.033707388 0.090022646 0.055211026 -0.038601898 -0.14294055 -0.08725568 0.031116553 0.07604377 -0.06564964 0.12572294 -0.120794475 -0.052607488 0.035783734 0.023156287 -0.0016322429 0.09089868 0.059315372 0.003721272 -0.022805896
http://data.doremus.org/vocabulary/iaml/mop/val -0.09203561 -0.059481576 -0.1210474 -0.06369055 0.08791645 -0.08059864 0.1292651 -0.12922102 0.011308982 0.0058280174 0.116409324 0.15279467 0.18552624 0.111878686 -0.08902188 -0.08377429 0.10080088 0.19991039 -0.12486861 -0.01309753 -0.3133921 0.016340822 -0.07066894 0.087734826 0.047362536 0.097328044 0.03727836 -0.091937974 -0.11700145 -0.15191257 0.025803473 0.033903975 0.08016644 0.011740586 -0.05788493 -0.18699808 0.07859928 -0.031554047 0.015221344 -0.22364539 0.061043102 0.09474946 -0.011291181 -0.107990526 0.05393296 -0.0049518873 -0.052316874 0.021783048 -0.037410308 -0.09491932 0.10127709 0.014509162 0.03248824 0.1403646 -0.083854325 0.071403384 -0.105016775 -0.071752496 0.047214255 0.028200062 -0.11786926 -0.16002467 -0.059236873 -0.17758323 -0.015091092 0.00796465 0.31796086 0.03842159 0.08419188 -0.17391235 -0.12114955 -0.10174665 -0.03346671 -0.01132155 -0.17171629 0.07546641 -0.054182634 0.028385896 0.002376801 -0.08081719 0.01025811 -0.005265888 0.090902075 0.050313096 -0.03493967 -0.058424123 -0.15676032 0.0025071884 0.044988766 -0.051660027 0.03027182 -0.0020665012 0.01819816 0.017675199 0.024756217 0.04955788 0.040342443 0.025187576 -0.18747303 -0.078984536
http://data.doremus.org/vocabulary/iaml/mop/vms -0.079051316 -0.13842691 -0.04059057 -0.10976317 0.11437533 -0.028035702 0.16983531 -0.04995792 -0.10485491 -0.07666311 0.08815058 0.13600937 0.07504646 0.050587423 -0.028547836 -0.03884883 0.07913371 0.12769511 -0.01413361 -0.15560439 -0.07763553 -0.01337589 -0.070115 0.073019445 0.017943205 0.08277306 -0.01979134 -0.0051411423 -0.16515423 -0.10985189 -0.034254413 -0.042002212 0.035113383 -0.0053480607 -0.12399136 -0.13677488 -0.03116836 0.141391 0.12297307 -0.097817965 0.23669817 0.11367729 0.088440076 -0.13454586 0.060715023 0.19460846 0.017978959 0.23615983 0.07612897 -0.018441759 0.13716437 0.112274915 -0.042648613 0.052822705 -0.061495546 0.15884566 -0.10102357 -0.08239773 0.09820432 -0.024502374 -0.110206544 -0.01784985 -0.19565362 -0.14077185 -0.0011168041 0.003507732 0.30483288 -0.021056514 0.09176235 -0.13266104 0.02207179 0.055827565 -0.068625495 -0.03913443 -0.2496487 0.022649629 -0.06268885 -0.07454717 0.04222423 -0.049609043 -0.056894865 -0.007812845 0.14885059 -0.009136491 -0.04473233 -0.126045 -0.04798869 0.006620678 0.043889478 -0.09241117 0.08435624 -0.1490794 -0.042712267 0.030652089 0.039598715 0.013526473 0.05086816 0.011445189 -0.06946461 -0.052626107
http://data.doremus.org/vocabulary/iaml/mop/wsa 0.060605556 -0.044575598 -0.018601494 0.10588846 0.13056703 -0.061690036 -0.08172583 0.017094923 0.004189195 0.057488766 0.17773989 0.091397285 -0.06505183 0.059414808 0.026234603 -0.0073263706 -0.04764771 -0.014161118 0.018981917 -0.07944007 0.050688565 -0.026869062 -0.18778543 -0.05202747 0.0011330271 0.049654383 -0.062158503 0.04092233 -0.14143962 -0.021711702 -0.037211828 0.12687644 -0.0046393964 0.037476804 -0.012987289 -0.009460581 -0.041697614 0.042707913 -0.011133018 0.011060084 0.10722894 -0.08255262 -0.0435347 -0.013375578 -0.016375314 0.15287983 0.054530777 0.29749313 0.17446944 0.20130956 -0.020223796 0.16137405 -0.07121817 0.18839207 0.016157674 0.0026607725 -0.015544958 -0.03587099 0.17530546 0.011635255 -0.1684616 0.023082789 -0.2664448 0.041882697 -0.098205164 0.024468625 -0.0048437854 0.043439887 -0.07657249 -0.152426 -0.09349991 0.2957402 0.062185597 -0.06587689 -0.13623685 0.12157658 -0.03841406 0.090162024 0.11086198 -0.04284464 -0.044298463 -0.16260952 0.031199282 -0.06676525 0.16919784 -0.030713344 0.015679048 -0.021826828 0.0820848 -0.10686963 0.12272457 -0.13071665 -0.016829975 -0.1989771 0.14293611 -0.0113138165 0.0908985 -0.08377257 -0.022331944 -0.011684055
http://data.doremus.org/vocabulary/iaml/mop/cve -0.07467617 -0.039783265 -0.004422156 -0.069457784 0.08772413 -0.11371664 0.13058726 0.065259054 -0.16940162 0.085363805 0.035954107 0.1945167 0.007515401 0.06197292 0.04007206 0.10599127 0.08738279 -0.11378306 -0.20339909 -0.005488801 0.011277949 -0.0341973 -0.088565014 0.05024238 0.038254354 0.04595526 0.022999194 -0.06300921 -0.017248789 0.045027304 0.042043563 0.045527678 -0.0301768 0.21739057 -0.04605511 -0.21633328 0.13026966 -0.040129982 0.004985558 0.06386414 0.16474494 0.1505626 -0.080540255 0.05314262 -0.05702134 0.18884495 -0.0201891 0.14216362 0.11567614 -0.016944595 0.053938534 0.0077797617 -0.1346232 -0.036653012 0.154383 0.016049365 -0.12619995 0.14069347 -0.19773912 0.022559345 -0.00859161 -0.050884712 -0.14609484 0.050679035 0.089614116 0.07399822 -0.021352036 -0.010822641 0.044715658 -0.17955269 -0.19144997 0.021708345 0.037480474 -0.28152177 0.061840735 -0.059662487 0.04170259 0.010222066 0.17317025 0.018283142 -0.09218803 0.044582866 0.064520665 0.15249185 0.07491023 0.05292709 0.11411395 -0.13467154 -0.01911749 0.14083761 0.05492384 -0.105225846 0.10394098 -0.032646533 -0.00861862 0.04518736 -0.026850417 -0.14539644 -0.11168232 -0.007385321
http://data.doremus.org/vocabulary/iaml/mop/tha 0.07930666 -0.059209008 0.019920466 -0.18419619 0.08839243 -0.13747323 0.022690758 -0.05064492 0.12599924 -0.081650846 0.13270636 0.0558494 -0.07075085 0.090301104 -0.08378721 0.054430697 -0.20161821 0.06066804 -0.01586063 -0.04246824 -0.057517372 -0.113791235 -0.2414061 -0.032506403 0.027062891 0.15130055 -0.0723847 -0.13764627 -0.047573995 -0.15546201 0.030971022 0.010405614 -0.10202743 0.056377012 0.07664639 -0.14930606 0.12309467 -0.083426036 -0.14861272 0.019231357 0.001204352 -0.021800227 0.046604916 -0.0700098 0.100622065 0.068039306 -0.09521879 0.3166414 -0.032077055 0.055423725 0.17590983 0.12687698 0.027768841 0.11391996 -0.019549107 0.0059141326 -0.0037974576 -0.03765731 0.10158441 -0.06711631 -0.10151149 -0.0506426 -0.14155789 -0.08252427 0.03497929 0.12477969 0.050604198 0.07170826 0.011926995 -0.18739022 -0.034148265 0.10463384 -0.032399468 -0.114548795 -0.07168549 0.1446647 0.0031894927 0.04069873 -0.068002805 -0.06131036 0.029779261 -0.123182885 0.022071604 0.043652397 -0.057721946 -0.02507888 -0.032137208 0.17311174 0.18069197 0.008552332 0.07965862 -0.17393486 -0.09802208 -0.08442608 0.041410085 0.081745476 -0.06868325 0.013245219 -0.074716985 -0.20651144
http://data.doremus.org/vocabulary/iaml/mop/wob 0.019085359 -0.042143233 -0.14494208 0.07227322 0.067661025 -0.22449088 -0.024560798 -0.021612436 0.07687821 -0.11761755 0.16368924 0.08417297 0.09256646 0.12889276 -0.20497863 0.1068606 -0.102545284 0.061762013 -0.12672427 -0.0091762 -0.0931718 -0.11542413 -0.13451599 0.017419377 -0.061920915 0.10443371 -0.09901324 -0.17907986 -0.027807187 -0.059789974 0.033088077 0.041092418 -0.077444546 0.034237865 -0.022079416 -0.035064753 0.084055126 -0.0042196633 -0.12424053 -0.14588831 -0.1030681 -0.049778026 0.1271453 -0.038856797 0.088316955 -0.04786625 -0.089826345 0.27589056 0.095897436 0.0010145322 0.040076442 0.1557251 -0.017347569 0.23008493 -0.034688443 -0.036721002 -0.017093953 -0.06029402 0.14822432 0.08403755 -0.19397485 -0.09181815 -0.08370278 0.0043113427 -0.058994863 0.08375883 0.14262159 0.014080851 -0.1061842 -0.13249168 -0.10889096 0.037528537 0.10557802 -0.17735684 -0.1202326 0.096706614 -0.0520354 0.042405814 0.02974086 -0.1107055 0.08751331 -0.037155446 0.11030517 0.084218144 0.13001017 -0.04665629 -0.07440433 0.11274599 0.13671336 -0.04272878 0.035339177 -0.02684777 0.06812899 -0.073918365 0.055531353 0.096489675 -0.008785356 0.003984684 -0.06138457 -0.14978316
http://data.doremus.org/vocabulary/iaml/mop/svg 0.0036681287 -0.111113966 -0.06272284 -0.019464064 -0.002128248 -0.12603097 0.03026563 -0.069986016 0.13761465 -0.018564668 0.16292304 0.045028426 0.07502845 0.06021633 -0.108244106 0.0874702 -0.12534244 0.12156126 -4.2454535e-06 0.13202386 -0.20724744 -0.054452118 -0.03199879 0.06306063 0.07065172 0.1530338 0.12450355 -0.21403171 0.0118599115 -0.1659677 0.008541863 0.08936154 -0.00052987837 0.028577961 0.113982186 -0.09488982 0.1331687 -0.16462792 -0.26224506 -0.009733243 -0.061287712 -0.16559097 -0.05971544 0.060472563 -0.13466044 -0.04496667 -0.102020666 0.025421197 -0.1255235 -0.08890394 0.077019446 -0.009382602 0.019286972 -0.013349888 0.11315855 -0.05884051 -0.017161919 0.027275316 -0.14449252 -0.008207212 -0.049351603 -0.13611577 0.030347938 -0.14880586 0.050881952 0.12810461 0.091310225 0.05647076 0.052411824 -0.04916338 -0.20504266 -0.0074673756 0.08095 -0.14238279 -0.026544364 0.19124947 -0.07283473 0.03423784 -0.07201202 -0.025369212 -0.0015606135 -0.16005504 0.057573825 0.15075849 0.05287959 -0.07981553 -0.08377814 0.07016087 0.024318187 -0.0062454883 0.027350495 -0.015580708 0.08931507 -0.017089827 -0.020338623 0.104667015 -0.055668678 -0.08538418 -0.21229173 -0.1962725
http://data.doremus.org/vocabulary/iaml/mop/btr 0.11842262 0.07392582 -0.10339694 -0.024708735 0.07211718 -0.24139327 0.027592696 -0.04403117 0.07731424 0.0853459 0.1917353 0.15872815 0.018779026 0.124532945 -0.01315459 0.116262734 -0.15141194 0.042493377 -0.12640588 -0.0500112 -0.20209324 -0.10747951 -0.106897004 -0.006576135 -0.024628922 0.16177654 -0.044877872 -0.18715963 -0.0575705 0.0054647266 0.16088885 0.09367501 0.06823264 -0.0077457316 0.038216144 -0.037046637 0.058401097 -0.0066457624 -0.031521637 -0.054831997 -0.026636528 -0.06213304 0.043015372 -0.05640324 0.020128476 0.028724417 -0.02142501 0.30241123 0.053792737 0.13548985 0.079608336 0.07147791 -0.10196587 0.27597123 -0.010989964 -0.041319925 0.03487147 -0.08143715 0.065051466 -0.021975739 -0.060379073 -0.077517465 -0.12795375 -0.007533772 0.0028854497 -0.021829387 0.103464745 0.06698574 -0.06106345 -0.23388295 -0.09299975 0.10216653 0.08894716 -0.10815987 -0.15002741 0.05861966 -0.10755 0.09079916 0.0342536 -0.16997802 0.04914457 -0.14413178 0.02449301 0.020111097 0.021306213 -0.018175935 -0.054538388 0.07492785 0.11978299 -0.08043797 0.06875494 -0.13881473 -0.07822323 -0.11014124 0.063591786 0.054230444 0.061695173 -0.0022769663 -0.08478556 -0.09300363
http://data.doremus.org/vocabulary/iaml/mop/pun 0.0551038 -0.113947146 -0.059623934 0.00083744817 0.13266066 -0.08521813 -0.014409969 -0.024884367 0.0096065905 0.04212562 0.18808246 0.20221587 -0.02878818 0.07223859 0.054851755 0.007841097 -0.11883077 0.056692205 0.01747889 -0.070721865 0.022857318 0.01798458 -0.17240535 0.011789778 0.0023342362 0.17144296 0.007890678 -0.15958768 -0.17551833 -0.10863779 -0.06582515 0.10977847 0.044083953 0.061377425 0.06733575 0.00069468416 0.0032843915 0.11532454 -0.012011906 -0.034219887 0.051213462 -0.09245759 0.003037593 -0.06049366 -0.08750565 0.14075743 -0.0037416054 0.24593191 0.1206651 0.08330169 0.10905962 0.16624607 -0.03845938 0.12829082 0.018862888 0.03240232 0.107517295 -0.081161916 0.03365014 -0.03469341 -0.1938893 0.07949736 -0.17913623 -0.073075645 -0.093459286 0.019807143 0.06512506 0.09895575 -0.057034183 -0.17986658 -0.15878223 0.21632218 -0.0033516895 -0.023927132 -0.13716759 0.16713808 -0.11223228 0.14403181 0.03396258 -0.04734765 -0.1060985 -0.18103512 0.06633392 -0.051546033 0.11638371 -0.028700447 -0.029061668 0.011235374 0.0032354763 -0.09430729 0.10687026 -0.11303584 0.016378706 -0.11903855 0.06719958 -0.0073571713 0.10752086 -0.07843643 -0.15404417 -0.124546684
http://data.doremus.org/vocabulary/iaml/mop/mun -0.05452424 0.066458076 -0.0047836388 -0.02461642 0.098235734 -0.065779746 0.047056545 -0.015679954 0.13019568 0.11373242 0.19770844 0.17421232 0.19067931 0.09039963 -0.074717365 -0.117041506 0.010238743 0.0066143437 0.0041356683 0.08756114 -0.18201885 0.069460146 -0.22265145 0.05757725 0.13904454 0.0057525714 0.059319634 -0.13951634 -0.05583766 -0.07480496 0.030327909 0.09442589 0.097784676 -0.0368608 0.109354794 -0.019689078 0.16637063 -0.10669018 -0.052906293 -0.16251914 -0.07877652 -0.030414488 -0.00489749 0.0005613388 -0.11517996 -0.14393336 -0.19497414 -0.053123135 -0.1802856 -0.050106376 0.041173283 0.049187273 0.123721875 0.12981677 -0.026058301 -0.032022353 -0.124634475 0.017288068 0.02158868 0.017895618 -0.13127096 -0.102468625 0.098289885 -0.01984585 -0.10376901 -0.022836586 0.08772872 0.09628257 -0.10554275 -0.06004396 -0.24466814 -0.06867428 0.15972483 -0.17588161 -0.12842722 0.041564908 -0.09797674 0.11792556 0.038317744 -0.0487307 -0.0012252225 -0.049517237 0.0125023825 0.16723399 0.056797978 -0.00022588162 -0.14033832 0.056387205 0.03595784 -0.04904073 -0.093168184 0.03349598 0.052784182 -0.057742674 0.016487278 0.07275045 -0.104989424 -0.11514234 -0.18984514 0.011723501
http://data.doremus.org/vocabulary/iaml/mop/vre 0.11442768 -0.13006549 -0.13715935 -0.113202244 0.1319305 -0.2578466 -0.123540744 0.20699324 -0.13097577 -0.062116392 0.013521738 0.114049636 -0.0048668017 -0.09100015 0.0012928578 -0.033351727 0.12789501 0.13574919 0.006521201 -0.0084974235 0.10290604 -0.04396697 -0.17458141 0.10888025 -0.03994436 0.09215417 0.036179863 -0.001056799 -0.1895814 -0.21762869 0.066751614 0.060402162 0.04865603 0.07079764 0.08103485 -0.0124635175 -0.045278825 0.006240805 -0.13954039 -0.12826288 0.11707673 0.04283705 -0.097152874 -0.081530474 -0.111357495 0.12362393 0.11314758 0.21810043 -0.00022392477 -0.012345118 -0.005953557 0.20543247 0.0019204265 -0.04018845 0.11549465 -0.022677908 0.05144354 0.013856867 0.011948259 -0.09168362 -0.10997754 -0.17490882 -0.097745016 -0.08073218 0.04956785 0.044037186 -0.038567696 0.049165912 0.08280255 -0.16072944 -0.10671518 0.09311658 0.07290809 -0.05533087 -0.13646802 -0.065920345 0.011486177 0.009709429 -0.043090813 -0.015846413 0.095631436 -0.08237038 0.18571842 0.11858598 -0.0057959473 -0.1782641 -0.11933073 0.0080475435 0.01989101 0.006452952 0.03693346 -0.040353075 0.092892945 -0.0425833 -0.029486574 -0.08675965 -0.020617187 -0.08495146 -0.15474795 -0.03444143
http://data.doremus.org/vocabulary/iaml/mop/kac 0.019027088 -0.07158591 0.048492815 0.109208904 0.14614703 -0.024202615 -0.0127046965 -0.08337894 -0.06033544 0.074712925 0.14697793 0.09926127 0.13335085 -0.076698385 -0.018008111 0.017347937 -0.050809614 -0.0030371095 0.1546528 -0.0029233047 0.15462473 0.0981114 -0.23656434 -0.08255161 0.0027785052 0.07833528 -0.020122852 -0.05456805 -0.15951318 -0.11928667 0.07600736 0.042087898 -0.07999639 0.09496472 -0.07887255 0.11235278 -0.03564181 0.08513318 -0.017005246 0.01867125 0.024155675 -0.06444304 -0.11567422 0.02253259 -0.15768436 0.16894293 -0.008800321 0.17233506 0.07312371 0.030998152 0.01141807 0.024156012 -0.0134316655 0.03728473 -0.012882164 -0.032025557 0.016879916 0.017466707 -0.08628267 -0.036113027 -0.22984585 0.09601139 -0.0073644733 -0.056218255 -0.05445377 0.14254846 -0.09081876 0.04013655 -0.18401878 -0.116370134 -0.20643167 0.22157753 0.16221729 -0.10397688 0.05799398 0.06778266 -0.11486425 0.11607514 0.054065503 -0.05340407 -0.04950965 -0.12896015 0.09819504 -0.10552171 0.10920962 -0.043463588 0.001579469 0.010195737 -0.018894788 -0.094739795 0.112487964 -0.06674913 0.14686404 -0.07492991 0.038807306 0.008096909 0.054367382 -0.18332538 -0.28175122 0.048059955
http://data.doremus.org/vocabulary/iaml/mop/pzz 0.07040728 -0.043598473 -0.07213556 0.11630442 0.1297588 -0.12380749 0.017481383 -0.02740198 0.015404624 0.033878114 0.19787836 0.08299348 -0.019374825 0.07988582 -0.11500887 0.010284988 -0.095222995 -0.036601022 -0.07261438 -0.12303934 0.0465604 -0.0519939 -0.2741178 0.00085320696 0.06953726 0.14676434 -0.10849921 -0.13563639 -0.14629565 -0.12199453 -0.055471256 0.03828566 0.0372907 -0.0054445826 -0.026124617 0.041576166 0.10667304 0.11531631 -0.026542004 -0.06027932 0.1151261 -0.051414277 0.15366703 -0.05660634 0.10244547 0.06191788 -0.057189494 0.31607652 0.12404361 0.17577453 0.05993461 0.13162626 -0.04828032 0.20236023 -0.070718795 -0.043938257 0.01881046 -0.0714068 0.079091065 0.0054529537 -0.12387207 0.09765659 -0.088446274 0.0174863 -0.081382655 0.02092562 0.11822034 0.09298808 -0.129772 -0.18652694 -0.045946565 0.07597077 0.124653935 -0.07977588 -0.058676146 0.11763729 -0.14316477 0.0044542532 0.06900429 -0.14248814 0.026759315 -0.11716949 0.1318375 -0.08075778 0.07629229 -0.051058687 -0.108493105 0.08015921 0.067841835 -0.10083107 0.07485256 -0.014355234 -0.0458238 -0.065776594 0.12167688 0.045096148 0.045502216 -0.12136802 -0.08361027 -0.06058095
http://data.doremus.org/vocabulary/iaml/mop/oba 0.014522098 0.16239056 0.18976615 -0.115025565 0.052403275 -0.096029915 0.11429975 -0.017340187 0.17767511 0.0061621917 0.16153532 -0.04623764 0.07043654 0.05724695 0.012283262 0.16160487 0.0021676787 -0.15682277 -0.043800972 0.028153641 -0.07613715 0.023167541 -0.16437407 -0.07477425 0.03090455 0.09178843 -0.06389168 0.012066652 -0.0876923 -0.22748205 0.12231535 -0.018005483 0.16838588 0.11176726 -0.08713124 0.0029074883 -0.008905106 -0.022938767 -0.06729262 -0.06595769 0.07679799 0.12883088 -0.12975141 0.02382002 0.03056381 0.025147967 -0.07778144 0.24504948 0.07159022 -0.061483286 0.04568637 0.013541445 0.07151766 0.021600554 -0.09948245 0.012512073 -0.0052933493 0.10023899 0.056041308 -0.074484736 0.008442608 -0.16135278 -0.0050921887 0.16393618 -0.03962281 0.009929664 0.1427565 0.006369864 -0.09824951 -0.2092756 -0.21278015 0.036856353 -0.14202386 0.06751297 -0.17078587 0.14519785 -0.08040121 -0.018873854 0.06519164 0.04941303 -0.07451513 -0.05781489 0.033311132 -0.1032039 0.18055193 -0.12106502 -0.112012856 -0.022523055 0.060588982 0.03239277 -0.041604877 -0.071206264 0.034005366 -0.16349868 0.020182062 -0.03636421 0.006495648 -0.09595897 -0.09516785 -0.18645185
http://data.doremus.org/vocabulary/iaml/mop/czz 0.053977787 -0.012935943 -0.08995635 -0.25465065 0.17308304 -0.17118776 -0.03291444 -0.077873945 -0.00858585 0.096555315 0.08531586 0.10538956 -0.15746014 -0.091786906 0.07057964 0.08844426 -0.020183686 -0.0888604 -0.06974017 -0.116328314 -0.18657716 -0.078569405 -0.12891197 -0.18295804 0.020624598 0.02123325 -0.07270531 -0.052659616 0.056357272 0.15462448 0.15139757 0.16009106 -0.031017428 0.11304486 0.101639494 -0.09299594 -0.058738567 -0.03946035 -0.022045197 0.004722832 0.108303614 0.065589465 -0.11163156 -0.11380073 -0.08330977 0.07505163 0.022540957 0.15995023 0.07848659 0.09307969 0.041181203 -0.14508009 -0.21030326 0.03171835 -0.013238983 0.009644211 -0.009897512 0.1404628 -0.18292484 -0.09420003 0.03328636 -0.049613442 -0.13988884 -0.09421371 0.14022551 -0.09163865 0.007570676 0.0564916 0.021445518 -0.17760663 -0.11236947 0.04217355 0.046324562 -0.20562929 -0.07355844 -0.023578547 0.084427625 0.01383338 0.032537635 -0.16925561 0.07170043 -0.09376522 0.051135644 0.11340765 -0.069482945 -0.08080861 -0.04046719 0.023585506 0.005174373 0.055828642 0.082143284 -0.06099291 0.06061702 0.12305062 0.09512571 0.07615876 -0.102699555 -0.09129534 -0.10386092 0.027911512
http://data.doremus.org/vocabulary/iaml/mop/bho 0.080152825 -0.030751701 -0.11573843 0.09532241 0.10370548 -0.19869025 -0.01923248 -0.04498492 0.037011303 -0.06543428 0.17060897 0.040873155 0.017483544 0.13376799 -0.14707904 0.094439276 -0.119567744 0.0075586997 -0.10280825 -0.063401006 -0.032968726 -0.11573223 -0.106982246 -0.014809187 -0.008406454 0.1448518 -0.14124428 -0.14520164 -0.11076629 -0.07895463 0.001171054 0.029923813 -0.017435342 0.058032747 -0.025077067 0.0016259854 0.06851737 0.08479279 -0.08399655 -0.057993833 -0.01823283 -0.031883076 0.15518059 -0.04459248 0.10456726 0.035370175 -0.08846933 0.32440016 0.15315233 0.05246853 0.06276876 0.14404851 -0.041911505 0.22108233 -0.0828532 -0.02741763 0.004356083 -0.09576045 0.1484726 0.026759565 -0.17705934 -0.015888898 -0.11350974 0.013742875 -0.08075081 0.035702612 0.16231751 0.031806666 -0.1339769 -0.14333804 -0.07287598 0.057500534 0.071863934 -0.1333966 -0.0889803 0.14011241 -0.11679803 -0.0026794404 0.042044338 -0.11408815 0.089530125 -0.029063426 0.124428004 -0.054462127 0.17409092 -0.012696737 -0.10389199 0.104773864 0.07633506 -0.11665045 0.10112473 -0.017526234 0.04466122 -0.10191399 0.081077576 0.0712257 0.058506664 -0.049227484 -0.08353483 -0.15213406
http://data.doremus.org/vocabulary/iaml/mop/sdb 0.050041724 -0.14784977 -0.032399453 0.122057594 0.13980047 -0.103002116 0.05452162 -0.099249646 -0.02746688 0.006202562 0.16376492 0.052361336 -0.0062944815 0.07574987 -0.13813561 0.052210953 -0.118854254 -0.028655281 -0.04067787 -0.014237919 0.02868968 0.007402615 -0.18684159 -0.038518436 0.017743485 0.21960324 -0.09842834 -0.10786646 -0.18236838 -0.071962565 -0.07244418 0.076139666 -0.009678034 0.0019565327 -0.013521633 0.02655836 0.06347373 0.12370335 -0.11926526 0.016406285 0.123102464 -0.1093488 0.09111032 -0.08173673 -0.001035185 0.11609428 -0.05486999 0.30123156 0.1742618 0.16961904 0.03462094 0.12927452 -0.059552908 0.10975101 -0.015927335 -0.057415463 0.04725914 -0.07188829 0.01242598 -0.00025701357 -0.11721801 0.093764044 -0.10548378 0.00024101666 -0.03459188 0.05771563 0.062415775 0.061633635 -0.13167833 -0.22207117 -0.043310218 0.14151506 0.08906669 -0.08205312 0.020551875 0.17407204 -0.13863325 0.038995724 0.043160323 -0.08956805 -0.009022905 -0.14436051 0.15385593 -0.07098353 0.1342665 -0.05548508 -0.06282393 0.05399827 0.051407117 -0.13256292 0.17200036 -0.0572378 0.019784287 -0.017373724 0.102233954 0.04006981 0.023970954 -0.1524109 -0.1194921 -0.07422817
http://data.doremus.org/vocabulary/iaml/mop/wbp -0.082460694 -0.025590144 0.055986118 0.033809192 0.08651634 0.028150374 0.046731837 0.06882131 -0.055409398 0.01266999 0.11309513 0.12014835 0.023762908 0.027596442 0.06733273 -0.013992185 -0.018803706 0.0111973295 0.08284952 0.054343905 0.22028142 0.14471272 -0.26120946 -0.075627126 -0.021668239 0.04203367 -0.0025158534 -0.038379163 -0.15184788 -0.081222326 0.025322717 0.15647897 -0.035883464 0.08843944 -0.1397445 0.049399387 -0.002632694 0.015628302 -0.15356377 0.010328256 0.051682882 0.0006066945 -0.088596284 -0.02038467 -0.09769951 0.15095438 -0.028912498 0.1353989 0.10571561 -0.05738913 0.049928837 0.103997014 0.04325905 -0.027807748 0.16383782 -0.05992397 -0.0015147497 0.019594595 0.07278407 0.041799586 -0.17230262 0.074760005 0.12040698 -0.05897693 -0.08838387 0.14752392 0.002948585 -0.0013649232 -0.07621933 -0.14438573 -0.19635968 0.23733409 0.12104879 -0.13107485 -0.14469473 0.0068020574 -0.20280299 0.19499114 0.10938189 -0.06541526 -0.09465994 -0.044511694 0.116916284 -0.040547565 0.21674766 -0.082397334 0.060056 0.011371625 0.06312894 -0.060547233 0.0048971702 -0.08473825 0.16033703 0.010983183 0.08911211 -0.014991133 -0.028386997 -0.16944346 -0.14872141 0.042077504
http://data.doremus.org/vocabulary/iaml/mop/wba 0.043711312 -0.049642816 -0.120317124 0.12698816 0.1113196 -0.20440236 -0.026133344 -0.066241674 0.06863122 -0.117175095 0.15880339 0.037499715 0.10538044 0.117986545 -0.23364824 0.10182324 -0.069620766 0.02046328 -0.10926881 0.0057177027 -0.107860796 -0.10185484 -0.14284617 -0.0055639697 -0.028487766 0.12393027 -0.087198414 -0.15234175 -0.048790902 -0.097126536 0.022868395 0.031487588 -0.04332533 0.041160308 -0.0288009 -0.051114958 0.09719126 -0.0001997572 -0.14000508 -0.11881232 -0.09630808 -0.042047035 0.1145315 -0.026358433 0.09380349 -0.047913108 -0.11432549 0.25885355 0.06286497 0.031606123 0.04143142 0.116314806 -0.010984236 0.21843433 -0.056723163 -0.0488933 -0.030441288 -0.077082306 0.15542161 0.06427704 -0.20951457 -0.09415131 -0.049577758 0.0016335523 -0.082773745 0.095543325 0.13844402 0.0287053 -0.092462376 -0.14067179 -0.09514964 0.012559389 0.13039206 -0.18601522 -0.0419374 0.14075452 -0.07559546 0.027615465 0.045250524 -0.116114125 0.093874335 -0.028682627 0.14069554 0.015272338 0.14398928 -0.030561099 -0.11674267 0.1045145 0.11906331 -0.07569004 0.052994795 0.0045282017 0.04590368 -0.055567946 0.05371224 0.09233691 -0.026479814 -0.015633773 -0.11460961 -0.15003909
http://www.mimo-db.eu/InstrumentsKeywords/3573 -0.061478492 -0.0071162246 0.039059993 -0.04530045 0.18852346 -0.03557981 0.043446783 0.118987665 -0.019598527 0.08818972 0.18275097 0.12671567 0.07322319 -0.0492428 0.11830545 0.014871684 0.03096729 -0.0035346057 0.009617919 -0.08359809 0.07684459 -0.0024329706 -0.15169153 0.14376944 0.026393471 -0.080346495 0.06530689 -0.018106464 -0.012919097 -0.14040266 0.09537783 -0.05376774 0.058157664 0.020893984 0.041923556 0.05771517 0.013500908 0.08403222 0.02164917 -0.119578525 0.17636229 0.11997895 0.14191428 -0.14153658 0.04850697 0.025022162 0.048975367 0.15409914 -0.122438475 -0.20502353 0.10670063 -0.07261006 0.015763082 0.012386343 0.11038321 0.012037171 -0.032308396 0.010494193 -0.254742 0.08972149 -0.011770716 0.030169936 0.053724684 -0.11704844 -0.03452911 0.078615576 0.1517944 0.04036787 -0.0157881 0.09423716 -0.14852165 -0.16457635 0.10923319 0.04784848 -0.23150547 -0.115479864 0.038540512 -0.17410222 -0.20190588 -0.028342003 -0.15733427 -0.11771051 -0.016773414 0.044242453 -0.045968406 -0.0074563934 0.04438423 -0.08659976 -0.07607714 -0.02989728 -0.044052105 0.07623326 0.030903662 -0.0038957344 0.02706166 0.07052545 -0.17872345 -0.046733096 -0.28530663 0.032299656
http://data.doremus.org/vocabulary/iaml/mop/och 0.030016828 -0.055168185 -0.055324513 -0.06562075 0.070597135 -0.18867783 -0.116073966 -0.05760618 0.13411486 -0.094843715 0.14242747 0.0830682 -0.01775095 0.005775654 -0.034124337 0.028065804 0.06215444 0.06939101 -0.053243447 -0.095789775 -0.12996526 -0.15549798 -0.1439178 0.113363475 -0.028449602 0.059225537 0.04030631 -0.06891517 -0.045380693 -0.076565005 0.030910742 -0.0057805046 0.12922113 0.04298512 0.025224796 -0.0064290725 0.05643548 -0.067918815 -0.056705408 -0.017710222 0.096424125 0.2142958 0.21888292 -0.16538121 0.043934293 0.051507983 -0.06264404 0.26284632 -0.05461122 -0.058884513 0.08974359 0.1436059 0.04469429 0.22593717 -0.020347018 -0.02255034 0.016178513 -0.005058005 0.005612591 0.18054011 -0.19688776 -0.0687954 -0.059462182 -0.06794216 0.041757964 0.04174808 0.11505452 0.12551147 0.031184457 -0.026603602 -0.07387472 0.14424472 0.08149206 -0.14449614 -0.17676187 0.017975176 -0.17780505 0.011429013 -0.05615862 -0.11394006 0.03341858 -0.13749175 0.06519387 0.10867235 -0.07075664 -0.054492403 0.021432798 0.042133 0.15247992 -0.110797845 0.11309419 -0.17641014 0.03640966 -0.036490034 0.09349786 0.14739671 0.010892993 -0.015933473 -0.0062801815 -0.14484574
http://data.doremus.org/vocabulary/iaml/mop/btb 0.105998635 -0.03481879 -0.08822636 0.052800383 0.12769057 -0.2154461 0.026459858 -0.11463822 0.051128853 0.026696611 0.18428063 0.086165525 0.06917393 0.12558453 -0.07856679 0.10049492 -0.124777146 0.035088506 -0.10105984 -0.032795228 -0.09131617 -0.077426575 -0.13427398 -0.02976853 -0.02670782 0.17459387 -0.07998958 -0.15811789 -0.12655088 -0.057837773 0.08368323 0.085374214 0.028541544 0.0038871297 0.022867585 0.0011824477 0.09639516 0.020474372 -0.105708204 0.0037918184 -0.005109132 -0.04192197 0.10912004 -0.08415877 0.038415715 0.077094644 -0.05307941 0.34254447 0.082308784 0.11119179 0.0658634 0.102191575 -0.027123317 0.24173592 -0.050953053 -0.04272917 0.021508088 -0.07837944 0.052093163 -0.02439952 -0.1348682 -0.023909524 -0.07497275 -0.0116738 0.007058374 0.020002099 0.13526495 0.042750143 -0.10979706 -0.20376292 -0.08013773 0.1198892 0.08482265 -0.1590429 -0.11115717 0.06999058 -0.16331033 0.04187718 0.01684097 -0.15886812 0.03311817 -0.10004081 0.14291637 -0.027730027 0.10065584 -0.042152666 -0.068370424 0.0875508 0.12158066 -0.13525349 0.1169107 -0.09316763 -0.027961507 -0.099212654 0.07651308 0.063183226 0.033690587 -0.07714125 -0.08552905 -0.11517439
http://www.mimo-db.eu/InstrumentsKeywords/3582 -0.07002438 -0.03177347 0.050562337 -0.04027807 0.19434372 -0.025707675 0.057668872 0.11544373 -0.034750268 0.09216064 0.14083028 0.084877454 0.078230545 -0.03135342 0.14578234 -0.004244358 0.044486728 -0.017321384 0.023412446 -0.07029267 0.083240144 -0.0013651894 -0.13450214 0.13126779 0.025352063 -0.08860497 0.057160996 4.443724e-05 -0.032113623 -0.13659784 0.07360245 -0.053130437 0.09658925 0.026803443 0.043640286 0.040812723 0.0043433583 0.103967056 0.021369904 -0.11475288 0.21265623 0.13774875 0.13767888 -0.15182199 0.0750465 0.042232815 0.06633985 0.14121985 -0.12909433 -0.21401547 0.10340512 -0.08723497 0.018222544 -0.008248627 0.096463636 0.01759597 -0.045510788 -0.014730103 -0.23992424 0.06950862 0.005912921 0.026020585 0.04578249 -0.13519567 -0.026614087 0.05795946 0.14468662 0.035420492 -0.021162413 0.10624634 -0.117852256 -0.15348975 0.086178355 0.03753069 -0.23209411 -0.13396968 0.040204596 -0.18925068 -0.2171212 -0.017040038 -0.16306508 -0.08487987 -0.030462341 0.044584505 -0.049782045 -0.01810361 0.041766644 -0.09035072 -0.0844701 -0.044223256 -0.03081 0.09934348 0.009532877 0.016041867 0.027629988 0.06189407 -0.17749138 -0.04053281 -0.2777351 0.043560173
http://data.doremus.org/vocabulary/iaml/mop/kzz 0.08732089 -0.046231154 -0.07696462 0.031964783 0.13014191 -0.082613215 0.059313662 -0.08948521 0.015254539 0.03819788 0.2234761 0.1770952 0.08674033 0.0787431 -0.085134655 -0.004966632 -0.032627054 -0.007110181 -0.039923985 -0.09212878 0.01824073 -0.049213137 -0.22352818 0.039286844 0.051292516 0.13047785 -0.015941642 -0.1447109 -0.15936738 -0.10772116 0.014411388 0.021923227 0.022886235 -0.03050602 -0.016329113 0.11380256 0.060858667 0.06537512 0.009064505 -0.04782644 0.14654453 0.030022351 0.1712789 -0.053279176 -0.01924209 0.11306275 -0.032097735 0.35206717 0.062620506 0.101502374 0.117168285 0.100400865 -0.036505904 0.14544792 -0.033615343 -0.008855399 -0.010292136 0.020598954 -0.07518832 0.018331332 -0.17047709 0.06692871 -0.016979853 -0.04146734 0.0087593235 0.078144975 0.14396843 0.02804407 -0.0574447 -0.17541632 -0.13031277 0.0795546 0.16879292 -0.06093435 -0.1605762 0.021871457 -0.14117002 -0.019074753 0.089569524 -0.09873177 0.0076070256 -0.19151422 0.1382366 -0.052855134 0.10115037 -0.051645126 -0.12733658 0.006739486 0.11295515 -0.11552445 0.09091274 -0.092463784 -0.04269841 -0.07487241 0.11221445 0.020965293 0.091731735 -0.13873777 -0.1063048 -0.08220423
http://data.doremus.org/vocabulary/iaml/mop/eta 0.009874665 -0.073743425 -0.068146415 -0.006860686 0.17219605 -0.021779211 -0.0149866715 0.015268184 0.055695616 0.04200858 0.17141661 0.2452978 -0.0032518737 0.0814485 0.02563329 0.020693514 0.040179394 0.06134569 -0.08407533 -0.1625552 -0.017712032 -0.058403738 -0.23602498 0.12570702 -0.008364581 0.11453388 -0.0009054536 -0.0035029077 -0.11548715 -0.11326158 -0.040632375 0.037451673 0.017355988 -0.0491278 0.00040803515 0.09596764 0.047334068 0.056407202 0.023187257 -0.08362409 0.08402704 0.0037850072 0.13047694 -0.10028907 -0.005104503 0.15414295 0.035922322 0.3403895 0.019313533 0.08883679 0.032179072 0.1134671 0.029425427 0.19380702 0.04472734 0.04943298 0.003908586 0.0033825834 0.1102599 0.05120768 -0.20056166 -0.0349491 -0.107698575 -0.09835512 -0.055056408 0.0198276 0.18032323 0.049024135 -0.03204585 -0.09019248 -0.17398563 0.19409296 0.074174754 -0.034025744 -0.23532026 0.09769731 -0.0037311956 0.054711506 -0.011797935 -0.038459376 -0.032471288 -0.22059318 0.09207906 0.016869122 0.11492483 -0.044140887 -0.056540493 -0.08993227 0.055733632 0.013466347 0.02144338 -0.12873112 -0.00031486744 -0.18862869 0.07958019 0.05089349 0.035762634 -0.003962537 -0.10891703 -0.058399197
http://data.doremus.org/vocabulary/iaml/mop/wre 0.009045968 -0.0068362723 -0.01917752 0.11058613 0.05699809 -0.10930594 -0.030580277 -0.07683361 0.08020601 0.05066571 0.2399172 0.065900855 0.01792854 0.087212265 -0.14109592 -0.058507364 -0.05004388 0.012765823 -0.030927982 0.121581525 -0.047593802 0.044616323 -0.20112003 0.06477021 0.09703793 0.16684826 -0.018682482 -0.22773336 -0.07385945 -0.122098945 0.022602258 0.062034644 -0.005196382 0.04892915 0.1006029 0.050581638 0.18774019 -0.09471632 -0.12664513 -0.09273692 -0.039767954 -0.16062552 0.059218425 -0.029146597 -0.07406856 -0.13284673 -0.12899992 0.07141803 -0.06071587 -0.08637982 0.10137007 0.05884643 0.06962676 0.14402434 -0.010825113 -0.08239855 0.01673212 -0.054524377 -0.11263776 0.04549144 -0.17647149 -0.047957722 0.03364744 -0.121028036 -0.035855033 0.036501184 0.012866499 0.14568427 -0.15589708 -0.0864803 -0.21320164 -0.0051855985 0.17535648 -0.13518913 -0.045445196 0.16223362 -0.10039255 0.14175422 -0.015715154 -0.04859828 0.012687638 -0.16359103 0.05557857 0.062183265 0.11780714 0.048580814 -0.095238365 0.018849453 0.025472853 -0.10453616 0.06309117 0.08200661 0.1176554 -0.016610213 0.07499814 0.07745791 0.015785245 -0.13527906 -0.2087517 -0.12343024
http://data.doremus.org/vocabulary/iaml/mop/cme 0.12534067 0.062259197 -0.058655985 -0.16375561 0.10649754 -0.119346455 0.023308044 0.021060668 0.032552697 -0.044110652 0.118717544 0.2582104 0.03343369 0.09837481 0.17517588 0.0027026106 -0.047770828 0.102248274 -0.04489915 -0.12613988 -0.11384779 0.0024075457 -0.04582823 0.041910116 -0.10711708 0.17391896 0.038354103 -0.07089118 -0.103494056 -0.10297959 0.09887163 0.10341528 -0.006270995 0.051183432 0.034106497 -0.045024235 -0.02638991 0.008421277 0.020355124 -0.008022574 -0.053485267 0.12523936 -0.029584723 -0.088541016 0.054719456 0.10805764 0.038090732 0.31845176 0.009611191 0.060286045 0.16273548 0.13728233 -0.034212846 0.15134478 -0.031400446 -0.019723397 -0.025739985 0.0739863 0.032847226 -0.029933913 -0.088857196 -0.04425526 -0.14078508 -0.061090264 0.12402837 -0.015598992 0.15783988 -0.07975398 -0.018179523 -0.09237302 -0.16312718 0.098526224 -0.06996121 0.029339615 -0.18128203 -0.009448032 -0.09950107 0.08344877 0.015610601 -0.15284309 -0.08515961 -0.15683821 0.11057952 -0.021436805 -0.11130472 -0.017813694 -0.06287715 0.03932518 0.24206325 -0.028282495 0.109341964 -0.17525123 -0.041387174 -0.008968064 0.09812002 0.078462325 0.061285146 -0.020750003 -0.10625073 -0.15427041
http://data.doremus.org/vocabulary/iaml/mop/vhc -0.11453832 -0.08857331 -0.057281405 -0.100802466 0.07774285 -0.07120803 0.13388267 -0.114785306 0.040517993 0.012354363 0.0830743 0.16869186 0.16173607 0.16054027 -0.12139242 -0.110639036 0.06790995 0.18233177 -0.09630475 0.010947429 -0.32924017 0.038063373 -0.06929953 0.10167902 0.029705223 0.07915644 -0.039085936 -0.11774129 -0.17192192 -0.13887519 -0.036182158 0.059658397 0.13439868 0.026853042 -0.07012053 -0.07439326 0.093642406 -0.0007613788 -0.014783646 -0.14856446 0.14107235 0.04293977 0.044248328 -0.11533944 -0.033720274 0.027751168 -0.062307447 0.031240257 0.0039501884 -0.025470372 0.070217066 0.019917388 -0.0031079375 0.09618678 -0.12948728 0.087806776 -0.1743468 -0.08002672 0.03438627 -0.029533189 -0.06430574 -0.14296176 -0.11278357 -0.15150014 0.04185105 -0.008749665 0.28579715 0.053311985 0.043475926 -0.22703224 -0.06940584 -0.063131265 -0.11039834 -0.023529714 -0.19545874 0.06451436 -0.0517673 0.05294854 0.033799212 -0.040285923 0.04794144 0.009651597 0.05505125 0.15425457 -0.021898944 -0.0812727 -0.17939293 0.021120854 0.07246188 0.005005617 0.05638033 -0.025707541 0.00342261 0.08277172 0.029108172 0.072116695 0.040616047 -0.014212916 -0.086889595 -0.06023425
http://data.doremus.org/vocabulary/iaml/mop/tzi 0.023087258 -0.12440477 0.08936601 -0.019889545 0.17100127 -0.007209472 0.07914689 0.027891055 0.13200551 0.02995987 0.15858276 0.18335125 -0.012377295 -0.10790975 -0.0008258831 -0.0016009128 -0.19407174 0.048563637 0.15732901 -0.019417334 0.006083535 0.08263378 -0.27653825 0.073740564 0.031804383 0.06198131 0.10745133 -0.06046851 -0.10596474 -0.066427484 -0.07384572 -0.0033637038 -0.09508448 0.011008189 0.035978872 -0.07080061 0.04939717 0.0764009 -0.14211084 -0.004325519 -0.08206238 -0.09424053 -0.2036016 0.022487544 -0.17034444 0.12784348 0.020319017 0.14245327 -0.02649763 0.065338954 0.08237637 0.1390196 -0.005034878 -0.03626497 0.109908395 -0.09571107 0.1163474 -0.030850522 0.0028496212 -0.017901147 -0.13889626 0.07397768 -0.045086764 -0.005566988 -0.0956656 0.12136331 -0.02906551 0.005993532 -0.04262921 -0.10680232 -0.15587515 0.14080043 0.053844932 0.027534867 0.04987108 0.20762761 0.0006108571 0.046485975 0.07587822 0.037921757 -0.0953336 -0.11066677 0.10151724 -0.012609116 0.03064059 -0.059764486 0.057919648 0.12074726 0.054744966 -0.004119087 0.065934755 -0.08595995 0.05831644 -0.02538854 0.106567174 -0.041370172 -0.14161916 -0.20309459 -0.30801082 -0.09684455
http://www.mimo-db.eu/InstrumentsKeywords/2266 0.053532276 0.054349374 -0.037153117 -0.24407369 0.13183802 0.0468327 0.07425778 -0.044389255 0.096535645 0.05142864 0.15663096 0.3673068 0.041883033 -0.12438087 0.031638276 -0.019266395 0.045922037 0.15708344 -0.04063162 -0.21040864 -0.053784035 -0.071066715 -0.069101825 0.17874512 0.041323368 -0.05147465 0.09731123 -0.0076259417 0.050182883 -0.09786691 0.09925755 -0.017378133 -0.09803025 0.012954967 0.05504098 0.014112135 0.0330203 0.017260045 0.14316392 -0.036037896 0.06504084 0.114622116 -0.024675798 -0.047936145 -0.07747008 -0.026103204 -0.016089933 0.14921601 -0.1337233 -0.21205156 0.086492576 0.09077131 -0.007840475 -0.005437411 -0.027527463 0.0038323307 -0.07124153 0.234399 -0.17558904 0.011660702 -0.03278202 -0.036884062 -0.044285677 -0.07258899 -0.03481309 0.023877513 0.1515147 -0.046108738 0.17854513 -0.09626333 -0.05296879 -0.13587466 -0.04022695 0.061385963 -0.16216184 -0.12584038 0.08086091 0.0032044852 0.050176773 -0.0075302063 -0.10662565 -0.07963009 0.12874366 0.047195103 0.040903956 0.011470825 0.06538093 -0.11348427 -0.0076093324 0.10007719 -0.04823213 -0.12518696 0.14385913 -0.1714666 0.101837136 -0.01798205 -0.0071686436 0.058356505 -0.034273926 -0.044860676
http://data.doremus.org/vocabulary/iaml/mop/pun__y 0.0050839153 -0.13721086 0.0735196 -0.009803968 0.18341698 -0.009155064 0.022372872 0.03336033 0.10746861 -0.013883556 0.14189397 0.19185114 0.026117306 -0.093638666 0.007235637 0.0743305 -0.1589863 0.054567683 0.14801215 -0.06160456 -0.014659716 0.031297784 -0.20844641 -0.00023583324 -0.029391492 0.071526274 0.14127924 -0.07187142 -0.07776901 -0.09026746 -0.062494818 0.020697432 -0.045935564 0.0099045755 0.026313668 -0.105911225 0.03725706 0.0421008 -0.1605097 -0.0020286383 -0.08199505 -0.14370984 -0.22443272 0.025112214 -0.19153406 0.080268994 -0.011027534 0.17127518 0.0008674392 0.09803236 0.04071466 0.15822688 -0.039298058 -0.011563141 0.15168665 -0.08376151 0.07886004 0.010521263 0.011104764 -0.0139656095 -0.20061055 0.031424116 -0.0837875 -0.00057611795 -0.08447154 0.1260513 -0.0064495 0.0025452382 -0.014376544 -0.09616782 -0.21113344 0.1671147 0.06115853 -0.0345192 0.013302676 0.18800707 -0.07475061 0.042542573 0.08101713 0.044789284 -0.109974645 -0.11475091 0.11563735 0.0016067468 0.060535606 -0.08706899 0.04777577 0.09762142 0.040670644 -0.032576106 0.04656637 -0.12221898 0.016462926 -0.041565474 0.054154716 -0.01800698 -0.17591763 -0.112936355 -0.29969016 -0.09849596
http://data.doremus.org/vocabulary/iaml/mop/cwo 0.008031296 -0.015438243 -0.03625491 -0.13830788 0.08222877 -0.073269546 0.045938455 -0.009993902 -0.036509067 -0.030374954 0.18540528 0.20211722 0.11885721 0.10373862 -0.012383675 0.11028352 0.002448856 0.19148639 -0.030885173 -0.13789602 -0.1853184 -0.10855606 -0.08683693 0.04682671 -0.08842748 0.15826109 0.11604166 -0.15261166 -0.025626823 -0.07639196 0.112469785 -0.037380427 -0.010389832 -0.058283053 0.077265546 -0.16820188 -0.032358304 -0.016941015 0.07149071 -0.06076433 -0.07114004 0.11200256 -0.07182291 -0.11889253 0.061581347 0.052314863 -0.010678317 0.21259037 -0.069774695 -0.01346903 0.18703002 0.07079523 -0.056078948 0.19531162 -0.0705117 0.050396267 0.0056934743 0.024882087 0.09505353 0.0147753665 -0.17973694 -0.11257659 -0.068041116 -0.12375472 -0.009879472 0.023812737 0.18613558 -0.06842107 -0.00079177564 -0.04334163 -0.1634369 0.062322523 -0.0011506921 -0.07905942 -0.16631323 -0.027200406 -0.051097 -0.03694258 3.3302633e-05 -0.118125655 -0.05755108 -0.13461836 0.109408654 0.01971952 -0.10444985 -0.034613345 -0.027519956 0.06308051 0.115031324 -0.018203992 0.03741125 -0.23904006 -0.06699851 -0.13454998 0.08249825 0.060703102 0.0957747 0.11295963 -0.16367173 -0.11248893
http://data.doremus.org/vocabulary/iaml/mop/esy 0.02865012 -0.08411162 -0.047501393 0.052521773 0.17014864 -0.03909339 0.01695933 -0.025507115 0.030956721 0.08148581 0.21032664 0.18843302 -0.08909514 0.075306706 0.0046480787 -0.07063933 -0.083009504 0.03673857 0.006502218 -0.05185542 0.053414717 0.064288884 -0.23453328 0.053458 0.05241482 0.116216734 -0.005537919 -0.094351724 -0.20873238 -0.10335521 -0.14230593 0.070722185 -0.017041383 0.07012605 -0.010925405 0.026625443 0.0202374 0.089920916 -0.024624165 -0.06610709 0.07364482 -0.062468544 -0.014394836 -0.07451688 -0.097207725 0.15652601 0.014216027 0.22204849 0.09911968 0.12280282 0.081914306 0.18974867 -0.043974172 0.14028183 0.00093274284 -0.040511303 0.050213844 -0.12581599 0.04239612 0.008419061 -0.17290312 0.07687216 -0.17080058 -0.08973041 -0.05544714 0.009043847 0.07583278 0.10159197 -0.060655553 -0.1843654 -0.14358555 0.1974958 0.059155364 0.011784403 -0.13240488 0.16938135 -0.105552256 0.14312822 0.07728991 -0.023186572 -0.046408106 -0.19181664 0.06063542 -0.056226872 0.085001454 0.005649831 -0.036098976 0.062346444 0.04322417 -0.074513555 0.121892184 -0.050188635 0.05792526 -0.06419411 0.09233432 -0.017929597 0.06014907 -0.15755138 -0.18033186 -0.046829805
http://data.doremus.org/vocabulary/iaml/mop/wun__y 0.02039087 -0.15508862 0.0067530912 -0.06259755 0.11585413 -0.058974218 0.008712041 0.03156132 0.13529702 0.0066104354 0.19443102 0.21629536 0.012803612 -0.079336576 -0.020131532 0.13675128 -0.16156237 0.07528418 0.16559142 -0.07842229 -0.047934107 -0.021459546 -0.15992223 0.0097072795 -0.012115959 0.044142835 0.16139188 -0.124400325 -0.10414208 -0.06585657 -0.035904422 0.037472807 -0.07451112 0.02356719 0.003166415 -0.04763365 0.0048320605 0.041653212 -0.14628306 0.0452703 -0.044145804 -0.059965283 -0.13699342 0.08738977 -0.23910263 0.16994393 -0.0014743147 0.23496361 -0.0104948385 0.0619119 0.06970794 0.09291047 -0.052332975 -0.015212345 0.11129014 -0.08899275 0.076061636 0.024649397 -0.07310851 -0.019717673 -0.18683289 -0.004814815 -0.07254948 -0.0405557 -0.038536362 0.15528995 0.025483588 0.01399954 -0.00940898 -0.10388577 -0.21466444 0.14889452 0.012403588 -0.053510092 -0.012969354 0.16258107 -0.07618361 0.013404304 0.074143164 0.06479235 -0.02897695 -0.17146397 0.08704513 0.020119416 0.025326982 -0.087789565 0.028800916 0.12579863 0.048267983 -0.06181261 0.11236426 -0.14069033 0.057262912 -0.03618541 0.095934264 0.041977793 -0.10001934 -0.11446943 -0.24569796 -0.12906829
http://www.mimo-db.eu/InstrumentsKeywords/3561 -0.064136006 -0.042988222 0.05369971 -0.03862189 0.20456998 -0.02200215 0.055092815 0.09346598 -0.023729395 0.08128424 0.14670508 0.08154447 0.09174373 -0.015709652 0.15566295 -0.0030386758 0.051159374 -0.01730361 0.020427603 -0.07889727 0.054949544 -0.0063735615 -0.13128127 0.12602323 0.025598368 -0.086707085 0.057420544 -0.0030256386 -0.03989692 -0.14551343 0.06866457 -0.05657077 0.09558539 0.030517261 0.03515595 0.035229165 -0.00018675283 0.10027667 0.020631028 -0.12016752 0.20865503 0.13704163 0.13851671 -0.1576268 0.07919093 0.05844883 0.07003129 0.15743484 -0.12116435 -0.20878376 0.116612755 -0.09377431 0.015096784 0.0057844664 0.0835533 0.026960164 -0.050887205 -0.021588784 -0.23131533 0.0689564 -0.008082085 0.015816024 0.040108766 -0.14492433 -0.015884135 0.05338185 0.17168278 0.03671383 -0.015896352 0.09793553 -0.13143308 -0.15841912 0.07818185 0.033064373 -0.23231378 -0.11805411 0.027031245 -0.19173756 -0.21178761 -0.017262721 -0.15982017 -0.07076519 -0.025698898 0.051680595 -0.05047403 -0.021796264 0.026042491 -0.07455738 -0.07375717 -0.055461243 -0.01614581 0.09287493 -0.007872052 0.015102584 0.034618985 0.063019656 -0.17742005 -0.029737547 -0.28423718 0.017039312
http://data.doremus.org/vocabulary/iaml/mop/eco 0.07952339 -0.08376929 -0.06987248 0.012972994 0.21992077 -0.16444859 -0.07150049 -0.0031841262 0.12779802 -0.0061632106 0.20082913 0.19411506 0.049342815 0.0701656 -0.035184614 0.104527794 -0.010110074 0.061958794 -0.051957913 -0.080769874 -0.01628224 -0.090769775 -0.25684437 0.032867547 -0.0881674 0.04421113 0.011564265 -0.04502898 -0.14303982 -0.009526231 0.01710639 0.026826417 -0.028404057 -0.023085153 -0.010810704 0.02473115 0.05248817 0.010750361 -0.14732233 -0.030897548 0.02658812 0.069569126 0.06324776 -0.06721951 -0.03258021 0.1635384 0.06609871 0.39271453 -0.016218245 0.13508742 0.010490577 0.123076946 -0.033623014 0.17861201 0.026113076 -0.08682147 -0.020150892 -0.016101459 0.07920004 0.028040163 -0.18392499 -0.042321213 -0.117118016 -0.027607638 0.034416184 0.12916933 0.047952786 0.03438987 -0.06384208 -0.13835254 -0.16889675 0.19636804 0.12299937 -0.117912196 -0.11255536 0.022081096 -0.0014737288 -0.059758622 0.023544146 -0.09023417 0.019498376 -0.21312737 0.077481665 0.011852076 0.010478101 -0.06008333 -0.06059465 -0.008490776 0.12736632 0.021563413 0.022195095 -0.090157144 -0.05613006 -0.10867362 0.1135237 0.081813365 -0.05978303 -0.026624285 -0.11941019 -0.013334942
http://data.doremus.org/vocabulary/iaml/mop/cch -0.0153683815 -0.10001752 -0.03683525 -0.090153635 0.15765262 -0.08103568 0.09203343 -0.077066466 0.008931423 -0.027605528 0.13610405 0.1990397 0.09763512 0.097641714 -0.0431182 0.07538862 0.0031305735 0.13538477 -0.061249774 -0.23151484 -0.2037596 -0.051917184 -0.12166464 0.03047956 -0.055219468 0.12956654 0.025851766 -0.09288001 -0.12632674 -0.067634985 0.022688597 0.026455984 0.040029097 -0.041463986 -0.06577437 -0.11029926 0.020134976 0.06618131 0.04187456 -0.082132846 0.11161776 0.09257933 0.038383722 -0.11340051 0.024456283 0.14958511 0.008205658 0.29176125 0.09194133 0.106858306 0.098985896 0.07522267 -0.105082616 0.16191965 -0.044377293 0.044733986 -0.04846313 -0.008885471 0.10657953 -0.038020264 -0.12553358 -0.02560081 -0.12724774 -0.06387304 0.013656851 0.00053532625 0.24608041 -0.00018505349 0.04698046 -0.25622696 -0.09298237 0.036784537 -0.0151926195 -0.073638424 -0.16629528 0.043251272 -0.102221474 -0.032982223 0.09576277 -0.121093825 -0.034457054 -0.0892777 0.118252665 0.019756367 -0.049231943 -0.09913011 -0.10083056 0.059253678 0.14858577 -0.040985003 0.070291385 -0.1654124 -0.08675558 -0.034535304 0.107052304 0.048791807 0.019325824 0.044456434 -0.12135306 -0.05412133
http://data.doremus.org/vocabulary/iaml/mop/pdr 0.018154204 -0.063677594 -0.030771626 0.03029481 0.19841795 -0.09355861 -0.038425762 0.03655908 0.009747622 -0.026795605 0.1735335 0.22441894 0.00011102419 0.03745378 -0.052773055 0.017613674 -0.07441957 0.039802514 -0.017470881 -0.059633613 0.046994485 0.0774957 -0.28359133 0.057993546 -0.061800458 0.15636715 -0.029222095 -0.098064974 -0.11432273 -0.09950916 -0.070054926 0.047022294 -0.04909126 0.04021975 0.003355379 0.01826955 0.038586393 0.05571234 -0.05929974 -0.07120541 -0.018090498 -0.10163929 -0.01713068 -0.07516904 -0.07585161 0.06578861 0.0042768545 0.26426142 0.04833183 0.10400508 0.08926291 0.21092808 -0.082456455 0.10398295 0.05557757 -0.027836835 0.04019787 -0.033390604 0.07926406 0.047447644 -0.24106932 -0.009312756 -0.12169951 -0.041462496 -0.019910747 0.08953131 0.03941998 0.068097666 -0.11092665 -0.14466801 -0.245439 0.21619034 0.11579627 -0.063762836 -0.10831466 0.16239859 -0.06807386 0.14186819 0.05164039 -0.0520093 -0.088185586 -0.16834109 0.084900066 -0.0051039006 0.08597996 -0.027021404 -0.04943484 0.04786986 0.10683011 -0.06015637 0.03201795 -0.0970416 0.06320593 -0.045397267 0.047129568 0.007316082 -0.011242176 -0.059493482 -0.23704103 -0.08743713
http://data.doremus.org/vocabulary/iaml/mop/pds 0.070852295 -0.035821386 0.0043511135 0.0095803505 0.15472797 -0.057910766 -0.0006116185 0.012475889 -0.009658819 0.08903143 0.14065117 0.1332492 -0.12855485 0.07242525 0.02611702 0.020728463 -0.13600138 -0.019534688 0.003972691 -0.055688858 0.047982067 0.035168044 -0.2437296 -0.028125666 0.022740649 0.20891811 -0.057137616 -0.07898508 -0.19841407 -0.0063909297 -0.0450782 0.12200368 0.010536341 0.045868564 0.012887776 0.026966883 0.021040743 0.08213514 -0.05823318 0.005355378 0.12950878 -0.11845842 -0.019544492 -0.0413927 -0.07857999 0.145474 0.049875364 0.27632588 0.13009977 0.19469683 0.053125482 0.14079615 -0.14056352 0.11545892 0.0558085 -0.07443962 0.08097817 -0.07856093 0.033434235 -0.043142397 -0.08831119 0.06605875 -0.17809029 -0.040621925 -0.021456657 -0.017276665 -0.067441285 0.123724654 -0.103494436 -0.21337907 -0.13649282 0.24656299 0.07640742 -0.04653229 -0.07477831 0.12625134 -0.11964274 0.14874086 0.03856495 -0.06719144 -0.033649713 -0.21966557 0.01709384 -0.02832949 0.055598233 -0.001393401 -0.017959129 0.034213133 0.06783256 -0.06579443 0.1257233 -0.11266742 0.017457763 -0.04971384 0.10351006 0.025306914 0.05552715 -0.121647045 -0.12240757 -0.031068714
http://data.doremus.org/vocabulary/iaml/mop/eun 0.059631776 -0.02584361 -0.06342062 -0.028779373 0.10684805 -0.03300873 0.0022196681 0.06231884 0.04420507 0.01432897 0.25444603 0.21626979 -0.006844404 0.034024708 -0.119760044 0.09497633 0.013291598 0.09531361 -0.109564215 -0.12752551 -0.028662134 -0.11601942 -0.2422431 0.0348022 0.0023652425 0.08870486 0.008405889 -0.0726416 -0.09154656 0.035771906 0.017767476 0.005303125 -0.036736988 0.0058723306 -0.021283818 0.008389512 0.030163234 0.031401917 -0.063313186 -0.06717517 0.0462664 0.015614319 0.10042284 -0.055314366 -0.017477524 0.09060597 0.020182934 0.4506569 0.011620402 0.10971596 0.04525014 0.16506238 -0.052216005 0.14884566 0.015004397 -0.059236098 -0.042816006 0.01651765 0.046808533 0.055128664 -0.1906961 -0.034636155 -0.07202537 -0.035381105 0.028449226 0.08553173 0.11443877 0.0284111 -0.03715198 -0.13589689 -0.14606856 0.14653178 0.1572612 -0.1532872 -0.15749761 0.07636127 -0.07535573 0.030230038 0.11422828 -0.062044196 0.008715932 -0.24626797 0.10931526 -0.0058772108 0.0017820507 -0.041667104 -0.08346834 0.02076052 0.12835129 -0.03128448 0.0016794922 -0.120788865 0.00815247 -0.08246611 0.1274907 0.035899736 -0.04314684 -0.051181946 -0.076495215 -0.06631875
http://data.doremus.org/vocabulary/iaml/mop/obr 0.16858427 0.18429318 -0.07062833 -0.1383697 0.16790166 -0.07682529 0.03282525 0.083573006 0.17964126 0.05435989 0.22570503 0.1857761 0.033632733 0.07615709 0.098121084 0.09548768 -0.13798378 0.065529205 0.07805169 -0.08686151 -0.0352215 -0.1173095 -0.12604353 0.061587792 -0.052050725 0.15738392 -0.04510614 -0.15268831 -0.05083406 -0.052184302 0.112723194 -0.04075461 0.007218369 0.06306877 0.10438694 0.0005983527 0.10777045 -0.027015783 0.017393988 0.0430371 -0.08093722 0.11076392 0.0672534 0.0061839297 -0.017485179 0.08555614 -0.036929503 0.26994807 -0.12882464 0.014521994 0.13205004 0.118973985 -0.032092974 0.06813957 -0.111930385 0.027708607 -0.034314454 0.08015487 -0.0032121676 -0.06876223 -0.15623425 -0.057489026 -0.107742324 -0.07408892 0.012998631 0.114055626 0.1278325 0.006560728 -0.08535027 -0.026337825 -0.22755204 0.13610733 -0.009272703 -0.078747205 -0.22377658 -0.078922555 -0.10729016 0.09457354 0.06366484 -0.08329238 -0.07245525 -0.068160236 0.030655308 -0.06407935 0.017469568 0.0059688073 -0.066113874 0.09497071 0.032500952 0.034623988 0.022830479 -0.06903172 0.018413693 -0.11985592 0.083917715 0.02847888 0.10813511 -0.0569504 -0.12791382 -0.17225097
http://www.mimo-db.eu/InstrumentsKeywords/3836 -0.048378285 -0.04895122 0.08096825 -0.02273853 0.22473179 -0.031065121 0.023187784 0.1258604 -0.03425112 0.081908576 0.11603529 0.036380123 0.066112585 -0.0065221693 0.18222916 -0.00038960722 0.038706444 -0.052030556 0.0368329 -0.075831816 0.09885127 -0.021972423 -0.14873719 0.09971553 0.008902021 -0.060223233 0.028940259 0.0052489433 -0.047343124 -0.1443284 0.0614777 -0.06476184 0.11669371 0.04872498 0.0511776 0.02807183 0.0038148696 0.099274255 0.0018756099 -0.08301021 0.22920355 0.12885685 0.13716449 -0.16448927 0.104462236 0.07550337 0.08768302 0.1792267 -0.111684024 -0.18463062 0.12461246 -0.1040919 0.0067408965 -0.0035249887 0.08404283 0.033500757 -0.04096318 -0.041478854 -0.20551586 0.06980497 -0.01224761 0.025692163 0.01880183 -0.14511341 -0.016055888 0.051138222 0.1366615 0.04379994 -0.057409536 0.11631649 -0.12128558 -0.11250609 0.07116033 0.011626255 -0.22511634 -0.11988251 0.017068243 -0.19304144 -0.24280372 -0.019393452 -0.1697414 -0.05110105 -0.0515607 0.05348795 -0.03483158 -0.022569269 0.03818579 -0.07709797 -0.056817494 -0.06114662 0.005143986 0.10307589 -0.01642755 0.025053812 0.033389367 0.05293056 -0.16078486 -0.031654604 -0.2813415 0.0024913987
http://www.mimo-db.eu/InstrumentsKeywords/2251 -0.018023307 0.036033913 -0.04502563 -0.15523171 0.047874723 -0.052814312 0.10758897 0.055483676 0.021111762 0.044898223 0.24974234 0.3258244 0.04588302 -0.1519554 -0.08187091 0.05709491 -0.047811735 0.1459228 -0.1429525 -0.03506146 0.028407456 -0.01872228 -0.115330264 0.18771665 0.09021874 -0.083035685 0.088004015 -0.12820798 0.050825957 -0.04299371 0.08031533 -0.023381785 -0.093889356 0.020538583 -0.025697652 0.18464644 0.02638655 0.09976167 0.07752297 -0.058887657 0.008125665 -0.0259585 0.11556547 -0.042168934 -0.057963643 -0.05025577 -0.04134675 0.17460361 -0.012072897 -0.10290155 0.065720655 0.06036682 0.03029689 0.04336405 -0.0065226546 -0.07167548 -0.0718045 0.20808533 -0.18679926 0.10406775 0.040062867 0.12959339 0.070380494 0.029845284 -0.034618545 0.12092672 0.15243927 0.017236004 0.044437733 -0.0672743 -0.11623104 -0.21285713 0.11054409 0.10236995 -0.1485682 -0.05983858 0.09867648 -0.08050526 -0.006964721 -0.030120982 0.019085374 -0.16782095 0.054050248 0.11231519 0.08401393 -0.0009265236 0.081431895 -0.07587822 0.0135607375 0.07223634 -0.070183784 -0.039843436 0.24984036 -0.09346217 0.05869913 0.021837866 -0.08118121 -0.048393767 -0.081628 0.03612369
http://data.doremus.org/vocabulary/iaml/mop/tma 0.030581037 -0.035832006 0.041739482 0.06705938 0.1345233 0.024604294 0.033264544 -0.005791026 0.001842422 0.11468263 0.17936523 0.14405653 -0.12913443 0.068117745 -0.024171302 -0.11647251 -0.11106828 -0.008860218 0.014574141 0.04532379 0.052577354 0.14600176 -0.29290667 0.04829294 0.07107669 0.18202125 -0.08004156 -0.0783281 -0.18841776 -0.100199185 -0.10299241 0.089484714 0.016278122 0.038124904 0.03587871 0.08526262 0.06331041 0.09154345 -0.029299613 -0.05003667 0.100923136 -0.1691629 -0.027159471 -0.06876177 -0.09523131 0.05467823 -0.016333159 0.16015765 0.06410214 0.09306942 0.07360225 0.15162462 -0.045946244 0.079373896 0.034542106 -0.038379934 0.069627285 -0.10670275 -0.0062019597 0.0064320187 -0.14106901 0.06658169 -0.119741194 -0.09107172 -0.08737233 -0.009061268 -0.020914817 0.11262032 -0.13910958 -0.13733746 -0.15518822 0.1831984 0.09726212 0.026695987 -0.0724636 0.20095609 -0.07933443 0.22990665 0.0144428555 -0.016366372 -0.0730629 -0.21144918 0.042515304 -0.03187374 0.105432786 0.051340178 -0.020719158 -0.0005024522 0.032270335 -0.06977816 0.123333834 -0.028952362 0.06641052 -0.027914746 0.10173194 -0.009181753 0.043899193 -0.17780426 -0.17878136 -0.048055157
http://www.mimo-db.eu/InstrumentsKeywords/4118 -0.049084567 -0.04852996 0.08558652 -0.030803839 0.23005533 -0.019872416 0.032109886 0.09808166 -0.015744098 0.084061116 0.12258278 0.05554014 0.09211168 0.0186378 0.1710579 -0.015764242 0.05341457 -0.025921766 0.030850878 -0.083248995 0.042703968 -0.018779555 -0.14530513 0.11255409 0.016686367 -0.06192039 0.031647533 0.003328162 -0.05657912 -0.16023122 0.06276352 -0.07059154 0.11745869 0.049229566 0.044597894 0.005948324 0.00922822 0.09449412 0.013414456 -0.09489793 0.20720781 0.14288442 0.12115689 -0.1654446 0.096466504 0.07122608 0.07871177 0.16827953 -0.12407231 -0.20380019 0.13035819 -0.10116255 0.011008945 0.0012900482 0.060332514 0.045437 -0.05989683 -0.04454487 -0.19213746 0.0576478 -0.0361089 0.0014952526 0.025252298 -0.16198158 -0.021888612 0.048132267 0.16856413 0.03211405 -0.04926123 0.10033018 -0.1280613 -0.12989588 0.062229436 0.00919719 -0.23987849 -0.114295445 0.004970289 -0.18151048 -0.2237039 -0.020057533 -0.16891634 -0.034137737 -0.020951016 0.04589333 -0.04556918 -0.017880218 0.01634759 -0.069275275 -0.054005902 -0.06798191 0.009598777 0.09152958 -0.03701999 0.027374905 0.045339998 0.050773162 -0.16136204 -0.014349696 -0.29903167 -0.010178706
http://www.mimo-db.eu/InstrumentsKeywords/3585 -0.061563756 -0.04530575 0.10313492 -0.0666249 0.21545558 -0.016253563 0.04411744 0.13816287 -0.049330786 0.09370178 0.08017588 0.01479104 0.038999166 -0.00949157 0.20520768 0.0030917374 0.04244115 -0.04895281 0.06012857 -0.080941536 0.12903935 -0.018905437 -0.12790477 0.085261896 0.01280675 -0.082977846 0.03805212 0.04012301 -0.06244496 -0.1055693 0.056382515 -0.0619675 0.10897285 0.042260885 0.04084022 0.017214263 -0.027565476 0.11608969 0.010994862 -0.064309224 0.25879526 0.16004021 0.13193697 -0.15190683 0.11719638 0.09409126 0.09751111 0.16291657 -0.10687408 -0.19364513 0.101406865 -0.10537129 -0.009017984 -0.040998448 0.0861663 0.028121604 -0.037989814 -0.026275652 -0.18586612 0.042390835 0.025044914 0.04625613 0.023173658 -0.14865263 -0.027110748 0.04609105 0.11255206 0.015476377 -0.05053317 0.12881856 -0.07537632 -0.1051747 0.0387615 0.01347914 -0.23866302 -0.16148463 0.012100515 -0.20161898 -0.23657571 -0.004482986 -0.17362513 -0.037430327 -0.048841365 0.029638257 -0.0419715 -0.024808755 0.056071177 -0.08853653 -0.070408724 -0.055620678 0.010812691 0.08356797 -0.018742375 0.040252548 0.03818848 0.06276828 -0.16131294 -0.028300669 -0.24544498 0.041039377
http://www.mimo-db.eu/InstrumentsKeywords/4232 -0.06803511 -0.04583618 0.056884363 -0.03994246 0.20718935 -0.042714935 0.044249233 0.080684595 -0.010573881 0.07680632 0.16447815 0.09614092 0.09488822 0.0104951905 0.14600936 -0.007847082 0.05023097 -0.0025967888 -0.0041292417 -0.085167006 0.035511505 -0.015734902 -0.14939298 0.13302682 0.021075327 -0.061617676 0.04984875 -0.021033082 -0.04629369 -0.15281057 0.08065172 -0.05189001 0.085881636 0.041292112 0.03579344 0.027388759 0.011678987 0.08525751 0.016072119 -0.117697656 0.19565494 0.12742375 0.1422375 -0.1697505 0.08143548 0.06614588 0.064135246 0.18112363 -0.104395196 -0.20831278 0.12864666 -0.08555772 0.018529348 0.029525321 0.07743435 0.038304217 -0.05707235 -0.018593224 -0.21607523 0.077941716 -0.027603706 0.014021414 0.032970432 -0.155382 -0.016629249 0.05354084 0.19304515 0.03482344 -0.021151628 0.07692639 -0.15282169 -0.15248314 0.08322197 0.009816688 -0.24637619 -0.10498384 0.008060454 -0.16458367 -0.20733304 -0.022733781 -0.16100459 -0.07334256 -0.0073425737 0.05959632 -0.025306055 -0.021530969 0.01527602 -0.06370885 -0.053322848 -0.054589406 -0.009799883 0.081307866 -0.00021268801 0.008084883 0.0449043 0.0606104 -0.16535515 -0.027366119 -0.2914444 -0.010227172
http://data.doremus.org/vocabulary/iaml/mop/pmb 0.083871126 -0.043959834 -0.1235708 0.063691385 0.10192093 -0.13210557 -0.03469253 -0.009942747 0.075365126 0.0114044165 0.19077373 0.1284228 0.02058482 0.06661678 -0.09173976 0.053382035 -0.05432623 -0.009664094 -0.0635881 -0.07566465 0.02568348 -0.14046831 -0.2563755 -0.0033321204 0.030539565 0.08219916 -0.09897444 -0.13038333 -0.09743727 -0.18324485 -0.026050746 0.03569059 0.015847001 0.08200861 0.004461682 -0.0009894646 0.10716241 0.021992205 -0.09228155 -0.08198995 -0.01958295 -0.02524477 0.13195318 0.011489168 0.111804776 0.025149861 -0.077638134 0.3307286 0.036075577 0.039622694 0.054165106 0.12431489 0.048222527 0.20254423 -0.04383172 0.008159012 -0.021003349 -0.060068283 0.18181333 0.016276645 -0.26566175 -0.020167438 -0.06989031 -0.021865012 -0.11011215 0.07118272 0.1621607 0.055782504 -0.09643215 -0.08114728 -0.09614333 0.11964649 0.08864474 -0.17720838 -0.17962562 0.093957774 -0.10823341 0.06382057 0.011023634 -0.061792444 0.04966473 -0.06515474 0.16698407 -0.0015944841 0.1014174 -0.078068495 -0.06749591 0.077680625 0.07848196 -0.0903376 0.042708166 -0.0730653 0.010110971 -0.15318625 0.052079976 0.015885383 0.014437649 -0.062385403 -0.08490492 -0.1436907
http://data.doremus.org/vocabulary/diabolo/mop/cordes_(instrument) -0.09338897 -0.047296297 0.022999486 -0.046083517 0.19330415 -0.037073635 0.09055422 0.0013624709 0.0071601025 0.061400194 0.12996216 0.12023441 0.15595667 0.091451734 0.09755709 -0.08769152 0.11053765 0.08525493 -0.039814867 -0.05337804 -0.1283924 0.024130708 -0.115803964 0.15403724 0.027019678 -0.017586667 0.057183933 -0.04803072 -0.07106964 -0.18895401 0.04859402 -0.063159116 0.12726058 0.03505888 0.00883842 -0.08329975 0.040173393 0.031210361 0.053794418 -0.16876988 0.17146702 0.15452185 0.07707334 -0.17819011 0.044827435 0.055720247 0.012076527 0.07972179 -0.13886316 -0.21161711 0.14214514 -0.0628423 0.035676297 0.050082598 -0.008157138 0.096655376 -0.10402596 -0.07204107 -0.13633503 0.03262262 -0.08712782 -0.08426069 0.008400169 -0.21730725 -0.01723299 0.01866897 0.28465527 0.03218941 0.008718727 0.0031136335 -0.13448434 -0.16049738 0.014256927 -0.009028156 -0.2382791 -0.06326609 -0.02697776 -0.07514145 -0.14647175 -0.033888664 -0.13380724 -0.014665949 0.0370793 0.07126112 -0.06484954 -0.019291585 -0.065919474 -0.04650113 -0.023276256 -0.070992 0.015171102 0.071484014 -0.043293748 0.047860105 0.037690494 0.049894564 -0.10019729 0.0114765335 -0.2811897 -0.043747418
http://data.doremus.org/vocabulary/iaml/mop/tzz -0.005640852 -0.14022923 -0.02120753 -0.0408969 0.14409609 -0.10458862 0.042980712 -0.0041879984 0.11080512 0.019745534 0.20753841 0.19402555 0.020566218 0.016629532 0.020962516 0.06173111 -0.110761575 0.056105956 0.08181369 -0.12937513 -0.068899035 0.015011551 -0.21727727 0.06259816 -0.0050340765 0.12960167 0.059954878 -0.09072127 -0.1015068 -0.14560814 -0.100188 0.022837278 -0.035288997 0.005438676 0.021419879 -0.08200542 0.08845038 0.025143592 -0.15198176 -0.059009038 0.0047781984 -0.12683474 -0.023446957 -0.004348933 -0.075510375 0.10585839 -0.041816264 0.28248304 -0.01950327 0.07121519 0.13756867 0.17092341 0.011554344 0.08547374 0.093543224 -0.039343625 0.004577049 -0.013550326 0.048289493 0.00895469 -0.20413353 0.009247983 -0.12268128 -0.070657454 -0.02869387 0.104173064 0.16069281 0.03431205 -0.0145025095 -0.11163319 -0.21443509 0.12940432 0.04339896 -0.07488965 -0.11109699 0.18755676 -0.044471517 0.0535059 0.045096997 0.016172612 -0.05939981 -0.15962575 0.07404745 0.0057408796 0.06035452 -0.06599387 -0.03810327 0.12514336 0.036534812 -0.08747371 0.077573195 -0.10913059 -0.016883908 -0.09716832 0.06203495 0.062303495 -0.10314035 -0.09178374 -0.2664399 -0.12636063
http://www.mimo-db.eu/InstrumentsKeywords/3955 -0.05509005 -0.06014259 0.08198345 -0.030551083 0.23649965 -0.035196625 0.03244925 0.104092926 -0.03160792 0.07821974 0.11890308 0.044253387 0.09649795 0.004443767 0.169888 -0.011974119 0.052169137 -0.028350204 0.03521641 -0.075887494 0.06031691 -0.008783139 -0.15360786 0.1121696 0.011934634 -0.05136566 0.03981534 -0.0013928711 -0.05835602 -0.16192365 0.05963731 -0.06540997 0.12707072 0.040598065 0.049610995 0.0039533232 0.008169825 0.0973568 -0.0016547071 -0.09326304 0.20883325 0.13724498 0.118874006 -0.1742391 0.10685595 0.06515561 0.07927311 0.16621637 -0.12648027 -0.1885442 0.12896387 -0.10005131 0.015528439 -0.00609138 0.06807092 0.03772279 -0.050994147 -0.03475058 -0.18498063 0.058177214 -0.031751 0.001696241 0.030564623 -0.15554592 -0.016065953 0.04631787 0.15673012 0.04598973 -0.05179598 0.09407976 -0.13319236 -0.1304331 0.06976307 0.0004238668 -0.2214059 -0.10960076 -0.0009079919 -0.1875973 -0.23215504 -0.021809634 -0.17062671 -0.03507652 -0.025260534 0.04649055 -0.04892788 -0.026458245 0.012917177 -0.06865249 -0.05032228 -0.062472343 0.008222064 0.08889507 -0.037453525 0.033039935 0.039002255 0.05189968 -0.16912112 -0.020748857 -0.30599898 4.5891185e-05
http://data.doremus.org/vocabulary/iaml/mop/tth -0.0181668 -0.1591432 -0.034225952 -0.13248251 0.15867282 -0.14743851 -0.016440675 -0.054617766 0.08242527 -0.017710142 0.16884527 0.064455666 -0.02494136 0.07368139 0.0019892852 0.14323343 -0.06836591 0.15295593 0.024651235 -0.07465476 -0.093675144 -0.037790786 -0.10812198 0.07829822 0.016513973 0.19286981 0.13633615 -0.17788231 -0.10766512 -0.07131136 -0.07623236 0.026679177 -0.04387837 -0.01645827 0.018737277 -0.03478426 0.043972425 -0.03804045 -0.1529625 0.038357593 0.0102856085 -0.035470862 0.07633495 -0.0037658964 -0.1258438 0.15282306 -0.014400822 0.21811822 -0.09119085 0.034646135 0.19153568 0.051599503 -0.021821458 0.07436793 0.073019385 -0.03589028 0.01980909 0.04025301 -0.033432323 0.00029262737 -0.16324365 -0.06438792 -0.057316132 -0.17863399 0.08061006 0.12566644 0.12185073 0.11672806 0.011220476 -0.1094547 -0.24684656 0.01838546 0.0329268 -0.0954202 -0.08198911 0.17550114 -0.09561253 -0.019065749 -0.04118038 -0.046668623 0.0307644 -0.24172208 -0.0022245918 0.06647664 0.017849786 -0.029491838 -0.111418284 0.12839794 0.07387549 -0.024387086 0.13529667 -0.092537224 0.052371472 0.009066608 0.078662276 0.12086463 0.022588693 -0.022738345 -0.19252704 -0.18809766
http://www.mimo-db.eu/InstrumentsKeywords/4446 -0.051134378 -0.06324659 0.07674477 -0.03746937 0.23625639 -0.026108377 0.031270172 0.096613064 -0.013975429 0.07937563 0.12740758 0.06132435 0.088263735 0.013850111 0.16809231 -0.01732806 0.051573433 -0.023198029 0.028506711 -0.08504121 0.03891531 -0.014844772 -0.15443417 0.11962364 0.020496277 -0.060618386 0.034040507 -0.007972154 -0.05677281 -0.16339697 0.055545423 -0.060661156 0.1270703 0.04314472 0.05044215 0.0072830645 0.012540022 0.09429104 0.0067152316 -0.09749202 0.20900367 0.14393365 0.1274652 -0.17391312 0.09177366 0.066961244 0.07956031 0.17183037 -0.121797815 -0.20441216 0.13420647 -0.0964763 0.016641766 0.004294643 0.061617445 0.0384245 -0.0547093 -0.034131497 -0.18884775 0.05983084 -0.041145664 -0.004062329 0.024228549 -0.16226713 -0.017681988 0.036335785 0.17210366 0.046618283 -0.045412824 0.09227005 -0.1372361 -0.13089554 0.066925764 0.0009220259 -0.23397632 -0.109573975 0.00013269854 -0.17094615 -0.21979193 -0.020396259 -0.16308063 -0.037347917 -0.020916317 0.060775287 -0.041832898 -0.019569132 0.015587137 -0.06793087 -0.053617474 -0.06545997 0.01063194 0.08558579 -0.027280735 0.027834043 0.04867908 0.05323525 -0.16156591 -0.019637847 -0.29426113 -0.007848165
http://data.doremus.org/vocabulary/iaml/mop/ezz 0.09649302 -0.10534053 -0.069966845 0.14511919 0.1272147 -0.09685705 0.009096848 -0.09689778 0.015466772 -0.06314718 0.20511997 0.12449242 0.091741174 0.10090364 -0.17538999 0.039348774 -0.08429315 0.054074433 -0.054355484 -0.048002947 -0.07912306 -0.05700053 -0.13928245 -0.036214452 -0.036044806 0.11074519 -0.09528664 -0.08813382 -0.17581901 -0.08752391 -0.018340938 0.031845048 -0.015857883 0.025985073 -0.06758457 0.023396006 0.04433184 0.077227175 -0.050864246 -0.0614049 0.04212118 -0.009779454 0.09069697 -0.07402299 0.018384956 0.13452138 -0.037393197 0.36537358 0.122914515 0.113597415 0.051808987 0.11025134 -0.054362968 0.16586366 -0.07612975 -0.022493664 -0.03621124 -0.10517369 0.07319117 0.036701165 -0.19243348 0.040438145 -0.109814145 -0.02027596 -0.028391656 0.07240597 0.18900038 -0.029936066 -0.08632742 -0.18045655 -0.042383898 0.13848886 0.09145524 -0.08312316 -0.09367537 0.117168464 -0.0745413 -0.02829493 0.08147985 -0.12484237 0.012054829 -0.09763776 0.18875416 -0.061312806 0.098949246 -0.05130378 -0.05879588 0.074699365 0.12050358 -0.1404098 0.14802867 -0.07362775 -0.004794773 -0.045565467 0.11517305 0.03881518 0.049946833 -0.06542433 -0.1319 -0.08847572
